svm_type c_svc
kernel_type rbf
gamma 100
nr_class 2
total_sv 1685
rho 0.354738
label 1 -1
nr_sv 757 928
SV
10 1:0.28954102 2:-4.644125 
10 1:0.27998633 2:-3.1631875 
10 1:0.17680469 2:-0.7626875 
10 1:0.29141602 2:-3.130625 
0.579366891954833 1:0.57900781 2:-2.849625 
10 1:0.42260938 2:-4.761125 
10 1:0.31656641 2:-2.7206875 
10 1:0.31361914 2:-3.78425 
10 1:0.30116602 2:-3.454875 
10 1:0.29473242 2:-3.053 
10 1:0.47179688 2:-4.263875 
10 1:0.39529102 2:-4.564375 
10 1:0.39301562 2:-4.5141875 
10 1:0.45131445 2:-4.8573125 
10 1:0.39408398 2:-5.8528125 
9.805183764920631 1:0.38668359 2:-2.8516875 
10 1:0.30149805 2:-3.2504375 
10 1:0.28036523 2:-3.41475 
10 1:0.31999023 2:-3.4375 
10 1:0.31866406 2:-3.081875 
3.8438830232102 1:0.51370117 2:-4.112625 
10 1:0.28839453 2:-3.682625 
7.89722381848832 1:0.42789844 2:-4.0163125 
10 1:0.27545117 2:-3.180875 
10 1:0.2234082 2:-2.465375 
10 1:0.28710156 2:-3.6726875 
10 1:0.29000391 2:-4.12425 
10 1:0.31611523 2:-3.318625 
10 1:0.33362305 2:-3.660375 
0.9294208221977771 1:0.40778125 2:-2.2558125 
10 1:0.31162891 2:-3.9908125 
10 1:0.26838477 2:-3.1514375 
10 1:0.19477539 2:-1.5100625 
10 1:0.26169922 2:-2.8788125 
0.05674184722532825 1:0.50997461 2:-1.53175 
0.6981355489840335 1:0.5994668 2:-2.6765 
10 1:0.32251953 2:-3.13 
10 1:0.38176172 2:-3.197125 
10 1:0.31138867 2:-2.953875 
10 1:0.28545508 2:-4.1744375 
10 1:0.40131641 2:-2.6543125 
10 1:0.29399219 2:-2.9063125 
10 1:0.34798633 2:-4.020125 
10 1:0.29919727 2:-3.645375 
10 1:0.24614648 2:-3.1475 
10 1:0.34317578 2:-3.28275 
10 1:0.35558789 2:-3.6624375 
1.098513151787788 1:0.37868555 2:-2.908625 
10 1:0.23377734 2:-4.336375 
10 1:0.25773828 2:-3.7175625 
10 1:0.17488281 2:-1.0215 
10 1:0.22948242 2:-2.170625 
10 1:0.18727148 2:-2.3613125 
10 1:0.25310938 2:-3.3103125 
10 1:0.29048438 2:-2.908625 
10 1:0.3094082 2:-3.7965 
10 1:0.26782617 2:-3.1501875 
10 1:0.26945117 2:-2.346375 
7.901476784181429 1:0.35231641 2:-2.5646875 
10 1:0.15948437 2:-2.029 
10 1:0.29429687 2:-3.6584375 
10 1:0.22574414 2:-2.3684375 
10 1:0.34233203 2:-3.7615 
10 1:0.37255469 2:-4.3179375 
10 1:0.26541797 2:-2.87675 
10 1:0.28378711 2:-2.2425 
10 1:0.35166406 2:-3.349 
10 1:0.26153125 2:-3.40475 
1.804492042598867 1:0.28976367 2:-2.34075 
10 1:0.27430469 2:-2.704875 
1.987249565232094 1:0.34080859 2:-1.552 
10 1:0.30784375 2:-3.0463125 
10 1:0.3090957 2:-3.85075 
10 1:0.38376562 2:-3.8575625 
10 1:0.2551543 2:-2.345875 
10 1:0.40021875 2:-3.975125 
10 1:0.37047461 2:-4.07375 
8.322735826502479 1:0.43533203 2:-3.6585 
10 1:0.3046875 2:-2.61025 
10 1:0.3295625 2:-2.4216875 
10 1:0.34332617 2:-3.66225 
10 1:0.35253516 2:-3.5119375 
10 1:0.35586719 2:-4.579125 
10 1:0.3222207 2:-2.497375 
10 1:0.17047266 2:-2.255125 
10 1:0.31731445 2:-4.57025 
10 1:0.23729883 2:-1.4004375 
10 1:0.28313086 2:-3.6645625 
10 1:0.27696094 2:-3.481375 
10 1:0.2591543 2:-1.780875 
10 1:0.18749023 2:-3.19425 
10 1:0.24311523 2:-2.8549375 
10 1:0.41620703 2:-3.46575 
10 1:0.43799805 2:-3.4333125 
10 1:0.37676367 2:-5.549 
10 1:0.31 2:-3.2896875 
10 1:0.31063477 2:-3.77025 
10 1:0.28365039 2:-2.8665 
7.121884254500114 1:0.42345313 2:-3.9575 
1.053401130297716 1:0.42935742 2:-3.0300625 
10 1:0.22990625 2:-4.26575 
10 1:0.39503906 2:-4.05675 
10 1:0.30292383 2:-2.5051875 
10 1:0.284625 2:-5.445375 
10 1:0.33414648 2:-4.8459375 
10 1:0.42413672 2:-4.6000625 
10 1:0.42115039 2:-5.187125 
10 1:0.44375781 2:-3.0615 
10 1:0.3230332 2:-5.3358125 
10 1:0.33288867 2:-4.261125 
10 1:0.29560352 2:-3.0410625 
10 1:0.27342773 2:-2.5523125 
10 1:0.25826562 2:-1.6623125 
4.275699369366583 1:0.31220117 2:-1.354625 
10 1:0.2080957 2:-1.8283125 
10 1:0.21630273 2:-1.4938125 
10 1:0.25568945 2:-2.894875 
10 1:0.24593945 2:-2.1311875 
5.621267431981922 1:0.24601367 2:-2.191 
10 1:0.24747852 2:-2.792 
10 1:0.27236914 2:-3.7054375 
10 1:0.34983789 2:-4.0816875 
2.195486413878644 1:0.35217578 2:-2.085125 
10 1:0.39942773 2:-6.0199375 
10 1:0.46775 2:-3.990125 
4.951992693171236 1:0.38500977 2:-1.758 
10 1:0.21495703 2:-1.86225 
10 1:0.22565039 2:-2.6808125 
10 1:0.27693164 2:-3.3294375 
10 1:0.35406641 2:-3.704375 
10 1:0.26488281 2:-3.2199375 
10 1:0.22852344 2:-2.6631875 
8.955284157819001 1:0.43521875 2:-2.7759375 
0.05621184684501281 1:0.53756055 2:-1.4563125 
10 1:0.25391211 2:-2.442625 
10 1:0.28090234 2:-3.5523125 
10 1:0.3136582 2:-3.195375 
7.684623955571896 1:0.25118164 2:-1.898125 
4.002359601172509 1:0.39793555 2:-2.6754375 
8.249005737620264 1:0.40866211 2:-2.91425 
10 1:0.19125977 2:-2.2409375 
10 1:0.44136914 2:-5.2418125 
10 1:0.3462832 2:-4.65725 
10 1:0.35276562 2:-4.7933125 
0.2100265702065244 1:0.40429687 2:-1.10175 
10 1:0.41318555 2:-4.2830625 
6.802954541935691 1:0.38029492 2:-2.6636875 
10 1:0.33859375 2:-2.1930625 
10 1:0.21748633 2:-2.4785 
10 1:0.459 2:-5.2013125 
10 1:0.34100781 2:-3.860125 
6.510390875372198 1:0.33469531 2:-2.93075 
10 1:0.26811719 2:-3.05975 
10 1:0.3195957 2:-4.8738125 
10 1:0.39208203 2:-3.828125 
10 1:0.23667969 2:-3.285 
1.187405961825229 1:0.65594141 2:-2.2291875 
10 1:0.31175195 2:-2.6984375 
10 1:0.37692773 2:-6.066 
10 1:0.24733789 2:-3.4609375 
10 1:0.23803906 2:-1.2504375 
10 1:0.33924023 2:-3.7311875 
10 1:0.28426953 2:-2.9063125 
10 1:0.43245703 2:-6.32425 
10 1:0.348625 2:-2.0160625 
10 1:0.29741211 2:-2.8059375 
10 1:0.28708789 2:-2.5873125 
10 1:0.20431836 2:-1.3066875 
7.578407869709653 1:0.31275195 2:-2.2413125 
10 1:0.25545703 2:-2.2199375 
10 1:0.29102539 2:-2.3373125 
3.040318225763447 1:0.33723437 2:-1.4580625 
10 1:0.37512109 2:-4.1375 
10 1:0.37527344 2:-4.52 
5.502912266805012 1:0.42236523 2:-3.9070625 
10 1:0.36245508 2:-4.3391875 
10 1:0.29295898 2:-4.6575625 
10 1:0.22850586 2:-1.869875 
2.712312016575771 1:0.28685352 2:-2.059875 
10 1:0.48700977 2:-3.3898125 
10 1:0.2698418 2:-2.0849375 
4.769666852090062 1:0.58155273 2:-2.5085 
3.136330311216472 1:0.52079102 2:-2.4798125 
8.553793453763141 1:0.26952148 2:-1.5008125 
10 1:0.36931641 2:-4.372125 
10 1:0.22754492 2:-2.5660625 
6.899086664674648 1:0.27792773 2:-1.9775625 
6.872160710255884 1:0.40689063 2:-2.2748125 
0.5880221050321371 1:0.36775195 2:-2.4995625 
4.440448478091351 1:0.371 2:-3.200125 
10 1:0.25449219 2:-2.45125 
6.054746125334945 1:0.32063867 2:-2.9024375 
8.879572179722343 1:0.40182227 2:-3.1219375 
10 1:0.32571484 2:-2.687 
2.195586157967435 1:0.52552539 2:-3.46175 
2.882244285529601 1:0.38722266 2:-1.817375 
10 1:0.2248125 2:-1.0631875 
10 1:0.20659375 2:-1.3813125 
10 1:0.30467383 2:-2.7651875 
10 1:0.2792793 2:-4.419625 
6.188010578200223 1:0.40448242 2:-3.771 
10 1:0.27438672 2:-1.98 
10 1:0.29856836 2:-1.3805625 
7.353297207145976 1:0.35795508 2:-2.40525 
4.2161415125838 1:0.30921484 2:-2.1234375 
10 1:0.28180078 2:-2.841625 
10 1:0.30118164 2:-2.975875 
10 1:0.25274414 2:-1.9728125 
10 1:0.2563418 2:-2.9838125 
10 1:0.25343945 2:-3.0164375 
10 1:0.27555469 2:-3.6163125 
10 1:0.29208203 2:-3.0359375 
8.492669575108453 1:0.51782031 2:-2.9840625 
10 1:0.19023633 2:-2.2865 
10 1:0.34212109 2:-3.7601875 
10 1:0.29614063 2:-3.1636875 
10 1:0.20087109 2:-0.9624375 
10 1:0.23283398 2:-2.39575 
10 1:0.19886328 2:-2.5488125 
10 1:0.2208125 2:-2.5071875 
10 1:0.27175977 2:-2.2280625 
5.971570167653459 1:0.31622266 2:-2.7886875 
10 1:0.19142383 2:-2.952 
10 1:0.41204297 2:-4.5963125 
5.246356153361909 1:0.28090625 2:-1.948125 
10 1:0.31465625 2:-3.7899375 
10 1:0.40140625 2:-4.0538125 
0.6462044621268206 1:0.4467832 2:-4.06625 
8.55945973679369 1:0.52707617 2:-4.68575 
10 1:0.23301758 2:-2.77575 
10 1:0.22523437 2:-4.4809375 
10 1:0.22986133 2:-2.7025625 
0.51289764193517 1:0.52820117 2:-3.1533125 
10 1:0.22896484 2:-3.422125 
0.7339121031529888 1:0.57983398 2:-1.5735625 
10 1:0.29967383 2:-4.1315625 
10 1:0.27999414 2:-2.9005 
10 1:0.19261133 2:-1.907375 
10 1:0.24225781 2:-3.93575 
10 1:0.45814258 2:-3.6809375 
10 1:0.4121875 2:-4.211 
10 1:0.26678906 2:-3.29475 
10 1:0.28736133 2:-3.1313125 
10 1:0.4081582 2:-2.5755 
10 1:0.30507812 2:-4.5428125 
10 1:0.19270117 2:-2.1895 
10 1:0.16695508 2:-1.788625 
10 1:0.38346484 2:-2.8445 
4.61106768325176 1:0.36126172 2:-3.423875 
10 1:0.32610547 2:-3.250875 
10 1:0.27660547 2:-3.0056875 
0.3555811610720691 1:0.40474805 2:-2.588125 
10 1:0.24084375 2:-2.174125 
10 1:0.26692383 2:-3.2095 
10 1:0.25010547 2:-4.1759375 
8.292466266148537 1:0.45036328 2:-3.8025 
10 1:0.25866406 2:-5.145625 
1.702762632019026 1:0.31988281 2:-3.0180625 
10 1:0.46235742 2:-5.634125 
10 1:0.21296484 2:-1.6684375 
10 1:0.23607031 2:-2.3098125 
10 1:0.25761328 2:-2.3586875 
10 1:0.41818359 2:-4.63875 
10 1:0.46525391 2:-4.268125 
3.615001805880818 1:0.41381055 2:-3.4913125 
1.940124060154372 1:0.36124023 2:-3.3540625 
10 1:0.3807207 2:-4.4460625 
10 1:0.36006641 2:-3.2760625 
10 1:0.45269336 2:-4.4751875 
10 1:0.30535547 2:-3.164875 
10 1:0.37462109 2:-4.6270625 
10 1:0.24718164 2:-3.4359375 
10 1:0.3564043 2:-3.6638125 
10 1:0.39567969 2:-3.775375 
10 1:0.44560547 2:-3.518625 
10 1:0.44405469 2:-4.3299375 
10 1:0.29819141 2:-3.56975 
10 1:0.37061719 2:-3.7656875 
10 1:0.44163867 2:-4.752125 
10 1:0.34638672 2:-3.5878125 
10 1:0.37478516 2:-3.9449375 
10 1:0.30768945 2:-2.5954375 
10 1:0.33163281 2:-3.3355 
10 1:0.37298047 2:-3.0148125 
0.2504485872617345 1:0.52864844 2:-2.0689375 
10 1:0.32235156 2:-4.26875 
10 1:0.37616602 2:-4.028 
10 1:0.25164063 2:-3.43575 
10 1:0.2812207 2:-2.873125 
10 1:0.33127734 2:-3.2449375 
0.1974132346101844 1:0.43997461 2:-1.51125 
6.990024463567562 1:0.29558984 2:-2.858 
10 1:0.30986328 2:-2.678625 
10 1:0.29772266 2:-2.9845 
10 1:0.28343945 2:-1.48925 
6.443527404101589 1:0.33359961 2:-2.69725 
6.937589548806289 1:0.32907812 2:-1.86675 
10 1:0.28352734 2:-3.212875 
10 1:0.30418555 2:-2.98925 
10 1:0.2688418 2:-2.9066875 
10 1:0.35154688 2:-4.05375 
10 1:0.26034961 2:-2.928375 
10 1:0.3802207 2:-3.17925 
10 1:0.26330664 2:-1.4164375 
10 1:0.33468945 2:-3.2365 
10 1:0.34103711 2:-3.227875 
10 1:0.22388477 2:-2.2773125 
10 1:0.39248828 2:-3.027875 
10 1:0.42236328 2:-6.1394375 
10 1:0.37757422 2:-4.804125 
10 1:0.18282422 2:-2.9845625 
10 1:0.3836875 2:-4.3201875 
10 1:0.38060742 2:-4.1420625 
1.964731745795825 1:0.31829297 2:-3.0553125 
10 1:0.30875 2:-3.484375 
10 1:0.33810352 2:-4.35 
3.209464789380896 1:0.47415625 2:-4.8995625 
10 1:0.31277148 2:-4.653625 
10 1:0.34141797 2:-2.0791875 
10 1:0.35726367 2:-4.68325 
10 1:0.29078711 2:-2.114 
10 1:0.31504492 2:-5.0301875 
10 1:0.42924219 2:-6.279125 
9.614665751023992 1:0.38738477 2:-2.848625 
10 1:0.34706836 2:-4.571625 
10 1:0.33739062 2:-3.35425 
10 1:0.26228125 2:-1.668 
10 1:0.32758203 2:-4.008125 
10 1:0.2096543 2:-3.3384375 
10 1:0.3324668 2:-3.562 
10 1:0.26744336 2:-2.9053125 
10 1:0.19701367 2:-2.13925 
0.2224450735426779 1:0.31833008 2:-2.2700625 
10 1:0.2439375 2:-3.4745625 
0.6644366279175897 1:0.49685547 2:-1.6393125 
10 1:0.25426758 2:-5.0411875 
10 1:0.37638477 2:-4.545875 
10 1:0.23039844 2:-3.1139375 
10 1:0.24535742 2:-3.0871875 
10 1:0.23882813 2:-3.4575625 
10 1:0.41301172 2:-4.127 
0.7194772700070347 1:0.35320508 2:-2.8369375 
10 1:0.42745117 2:-4.3916875 
3.154121180126525 1:0.38888086 2:-2.0305 
10 1:0.25628516 2:-2.2579375 
10 1:0.28953516 2:-4.65275 
10 1:0.31485156 2:-4.1795 
10 1:0.29781641 2:-4.276625 
10 1:0.41635938 2:-3.8374375 
10 1:0.21245312 2:-2.58725 
10 1:0.3705957 2:-2.8569375 
10 1:0.35462891 2:-3.405125 
10 1:0.27363867 2:-2.9935 
10 1:0.28655664 2:-3.3416875 
10 1:0.37261328 2:-4.8285 
10 1:0.22231836 2:-4.296375 
4.397469096820696 1:0.53393555 2:-3.7854375 
10 1:0.47564063 2:-3.4048125 
0.2181868658023976 1:0.47471289 2:-1.781 
10 1:0.36937305 2:-4.2165 
10 1:0.43727148 2:-4.1584375 
10 1:0.30439258 2:-3.55325 
10 1:0.28432422 2:-3.0955625 
10 1:0.2388457 2:-2.1976875 
10 1:0.21323437 2:-1.5406875 
0.1356807966567101 1:0.49775 2:-2.6403125 
10 1:0.22610547 2:-2.844625 
10 1:0.37933789 2:-3.19475 
10 1:0.24414648 2:-2.412875 
10 1:0.32032812 2:-4.418125 
10 1:0.33449023 2:-3.8235625 
10 1:0.30874805 2:-3.3035 
10 1:0.30172266 2:-3.0673125 
10 1:0.14666406 2:-2.631125 
10 1:0.29395313 2:-2.5784375 
2.194403302943343 1:0.3974043 2:-3.18575 
10 1:0.13879883 2:-1.968 
10 1:0.30839453 2:-3.525375 
10 1:0.4420332 2:-3.6693125 
3.62084922123244 1:0.44185156 2:-3.6235 
10 1:0.28627148 2:-1.2314375 
6.215076704135239 1:0.32691016 2:-2.5905 
7.281087465724527 1:0.39766406 2:-3.1635625 
10 1:0.20154688 2:-2.2619375 
1.211270171768311 1:0.35916211 2:-3.00925 
10 1:0.32543164 2:-5.8575625 
0.7562901899472736 1:0.24508984 2:-1.8170625 
10 1:0.3315957 2:-3.4609375 
10 1:0.29425977 2:-3.531625 
10 1:0.22809766 2:-2.4148125 
10 1:0.33297852 2:-3.5381875 
10 1:0.29291016 2:-3.6591875 
10 1:0.40568359 2:-4.743125 
10 1:0.33852344 2:-3.2181875 
10 1:0.27026563 2:-4.021375 
5.788605949176275 1:0.30878516 2:-2.433625 
1.958645448803587 1:0.37463477 2:-3.621625 
10 1:0.33430664 2:-3.9859375 
3.482490411508683 1:0.36987109 2:-1.69375 
7.85624550349761 1:0.4660332 2:-3.523875 
10 1:0.20394727 2:-3.174375 
10 1:0.35210742 2:-4.3413125 
10 1:0.31341016 2:-3.07175 
2.269210206895272 1:0.48227734 2:-4.33475 
10 1:0.29725586 2:-4.34775 
10 1:0.25674023 2:-4.3780625 
10 1:0.33169922 2:-2.062625 
10 1:0.31082422 2:-3.0363125 
10 1:0.3650957 2:-2.9554375 
10 1:0.27891211 2:-4.927 
10 1:0.24403516 2:-3.33375 
1.324266881139368 1:0.45623047 2:-2.8043125 
10 1:0.32245703 2:-3.907375 
10 1:0.22771875 2:-1.64375 
10 1:0.27932617 2:-4.1611875 
10 1:0.30602148 2:-4.477625 
10 1:0.25616016 2:-2.35625 
10 1:0.36703125 2:-4.044 
10 1:0.4214707 2:-4.5469375 
8.633502592573905 1:0.47945508 2:-4.4569375 
10 1:0.25978906 2:-1.63275 
10 1:0.23420703 2:-1.3368125 
10 1:0.39370703 2:-3.9125 
10 1:0.37240234 2:-3.902125 
10 1:0.24129883 2:-2.6834375 
10 1:0.21372266 2:-3.2156875 
10 1:0.21819531 2:-2.891375 
10 1:0.16750391 2:-2.8849375 
10 1:0.33814844 2:-3.5335 
10 1:0.44792773 2:-5.903 
10 1:0.17069531 2:-1.9250625 
10 1:0.28618945 2:-3.7015625 
9.468276113139391 1:0.31925977 2:-1.5941875 
10 1:0.35754883 2:-3.372625 
2.984975445269232 1:0.4265625 2:-1.383125 
10 1:0.27617578 2:-2.6374375 
10 1:0.26166016 2:-2.042 
10 1:0.25358594 2:-0.9501875 
10 1:0.28428125 2:-3.5425 
10 1:0.3309082 2:-3.58025 
4.653895061986724 1:0.33367383 2:-2.739 
10 1:0.25308594 2:-4.6645625 
1.752340677053001 1:0.36563477 2:-3.1015 
10 1:0.32287109 2:-2.40375 
10 1:0.24892187 2:-2.3585625 
10 1:0.28037109 2:-3.8800625 
10 1:0.34345898 2:-3.634875 
10 1:0.36414062 2:-3.597 
10 1:0.15487695 2:-2.084875 
10 1:0.37326563 2:-4.7308125 
10 1:0.31025977 2:-2.604625 
10 1:0.31291602 2:-3.3015625 
10 1:0.18492578 2:-3.3076875 
10 1:0.26679102 2:-4.0938125 
10 1:0.39617188 2:-4.6318125 
10 1:0.26133203 2:-4.7173125 
10 1:0.22961328 2:-4.3941875 
10 1:0.27303906 2:-3.471875 
10 1:0.27155469 2:-3.040875 
5.496680852787719 1:0.26113086 2:-1.6146875 
10 1:0.22906641 2:-1.590375 
10 1:0.24961133 2:-3.538375 
10 1:0.30421484 2:-4.210125 
10 1:0.31301172 2:-2.7151875 
10 1:0.41433789 2:-4.3966875 
6.807468130516622 1:0.25422266 2:-2.438875 
10 1:0.37899609 2:-6.203375 
9.237964492656019 1:0.45989258 2:-2.8385625 
10 1:0.33210742 2:-3.9484375 
10 1:0.40867188 2:-3.7954375 
10 1:0.37616406 2:-3.7056875 
4.859608312025249 1:0.39700391 2:-2.647125 
10 1:0.30995313 2:-4.216375 
10 1:0.23373633 2:-3.3294375 
10 1:0.38800586 2:-4.0814375 
0.3874095209318057 1:0.54441992 2:-4.3748125 
10 1:0.32529102 2:-3.8465 
2.601300416592385 1:0.31810938 2:-1.90625 
10 1:0.2397168 2:-3.8524375 
10 1:0.31316992 2:-2.777625 
10 1:0.35650586 2:-5.135 
10 1:0.4066875 2:-5.1200625 
5.410140304827187 1:0.44498437 2:-3.3908125 
10 1:0.24638867 2:-2.7195625 
10 1:0.27299023 2:-1.2601875 
10 1:0.34374219 2:-3.757125 
0.68681902765054 1:0.32280273 2:-2.0461875 
10 1:0.38128516 2:-2.86675 
10 1:0.50226563 2:-3.4804375 
10 1:0.32582227 2:-3.9795 
10 1:0.32643555 2:-3.9843125 
10 1:0.31682031 2:-3.3043125 
3.086549209949558 1:0.32289648 2:-3.127125 
10 1:0.17209766 2:-3.677625 
10 1:0.24733008 2:-3.39625 
10 1:0.19224414 2:-3.40725 
10 1:0.21661914 2:-2.7246875 
10 1:0.32263086 2:-5.6656875 
10 1:0.34041602 2:-3.856875 
10 1:0.30180469 2:-3.6710625 
10 1:0.3418125 2:-4.4185625 
10 1:0.28764844 2:-2.8450625 
10 1:0.35964258 2:-2.9628125 
10 1:0.33467969 2:-3.48525 
10 1:0.25717773 2:-2.1083125 
10 1:0.30219531 2:-2.524375 
0.4409473358010797 1:0.38744727 2:-3.2230625 
10 1:0.23957617 2:-2.785375 
10 1:0.21975195 2:-2.9699375 
10 1:0.23557227 2:-1.9678125 
10 1:0.19851367 2:-2.452625 
10 1:0.28487891 2:-2.8999375 
10 1:0.43593359 2:-4.35875 
10 1:0.24583008 2:-2.7515625 
10 1:0.38823047 2:-3.969 
10 1:0.26628711 2:-3.311375 
10 1:0.2614707 2:-3.76825 
10 1:0.2154375 2:-2.541125 
0.6098947796256661 1:0.59253906 2:-2.77375 
7.064415490800698 1:0.43018359 2:-4.062625 
10 1:0.21253711 2:-1.875875 
10 1:0.20956836 2:-2.620875 
10 1:0.33180469 2:-5.012375 
10 1:0.22947852 2:-1.157625 
10 1:0.21206055 2:-1.68725 
10 1:0.25664063 2:-5.19725 
10 1:0.20821484 2:-2.039 
4.690307439819509 1:0.31141211 2:-1.650875 
5.434533288353021 1:0.52775391 2:-2.3980625 
5.200956874205746 1:0.31237305 2:-1.243125 
10 1:0.34324414 2:-3.4438125 
10 1:0.23285156 2:-2.8511875 
10 1:0.25696484 2:-2.8865625 
10 1:0.22000586 2:-2.8480625 
0.3065049679923483 1:0.34985352 2:-2.4348125 
10 1:0.30731445 2:-2.7576875 
10 1:0.40020312 2:-5.3531875 
10 1:0.3078125 2:-3.290375 
10 1:0.35717578 2:-3.3101875 
10 1:0.2195625 2:-3.7606875 
10 1:0.40748633 2:-4.45825 
10 1:0.29189063 2:-3.62475 
9.365467741486269 1:0.31803516 2:-0.858 
10 1:0.2967832 2:-3.249875 
10 1:0.21849805 2:-2.5488125 
10 1:0.21723047 2:-2.405125 
10 1:0.17598242 2:-3.369 
3.703954935474216 1:0.40707813 2:-1.1791875 
10 1:0.38924414 2:-2.8080625 
10 1:0.41820312 2:-4.4476875 
10 1:0.1862207 2:-1.8210625 
10 1:0.33051172 2:-3.44125 
10 1:0.26119531 2:-2.6723125 
10 1:0.29471289 2:-3.5785625 
9.451791980143307 1:0.4627793 2:-3.8699375 
5.371177444770727 1:0.45496094 2:-4.1976875 
10 1:0.33593555 2:-1.454375 
10 1:0.2871582 2:-5.202125 
10 1:0.28694336 2:-2.7929375 
10 1:0.36638086 2:-3.2388125 
10 1:0.31888086 2:-3.5965625 
10 1:0.32193359 2:-4.249 
1.590682708695296 1:0.49887891 2:-3.0599375 
10 1:0.20806445 2:-2.2381875 
10 1:0.26847266 2:-2.5329375 
0.1009691558349324 1:0.49054687 2:-1.1923125 
10 1:0.34639453 2:-3.306375 
10 1:0.37596094 2:-4.226625 
10 1:0.38841797 2:-3.018625 
10 1:0.12336719 2:-2.2634375 
10 1:0.29544336 2:-3.8183125 
10 1:0.20846289 2:-1.83875 
10 1:0.21699023 2:-2.6715 
10 1:0.39027148 2:-3.910875 
10 1:0.30577734 2:-2.7071875 
4.508825718231527 1:0.26130078 2:-1.77575 
10 1:0.35373047 2:-2.2044375 
10 1:0.29330469 2:-2.6145 
10 1:0.20203516 2:-1.9925 
10 1:0.46249414 2:-4.082 
10 1:0.29613086 2:-3.8143125 
8.353375121047883 1:0.29705078 2:-1.08675 
10 1:0.24187695 2:-2.55675 
10 1:0.25369141 2:-3.0723125 
10 1:0.33874023 2:-3.620125 
10 1:0.45176563 2:-4.928 
10 1:0.24520117 2:-3.8335625 
10 1:0.21876367 2:-3.14925 
10 1:0.36907422 2:-4.377875 
10 1:0.3034707 2:-4.362875 
10 1:0.36310352 2:-2.8215625 
10 1:0.21710742 2:-3.57425 
10 1:0.26060352 2:-0.900625 
10 1:0.1994082 2:-2.0345625 
10 1:0.31102734 2:-4.2288125 
10 1:0.39310937 2:-3.974875 
10 1:0.29471094 2:-3.955125 
10 1:0.32065234 2:-3.4786875 
10 1:0.38345508 2:-2.8543125 
10 1:0.38675977 2:-4.5975 
10 1:0.36498437 2:-5.0790625 
10 1:0.40231445 2:-5.663875 
10 1:0.31540625 2:-5.0003125 
10 1:0.25908398 2:-4.4743125 
2.207287865834012 1:0.45823437 2:-2.62375 
10 1:0.24066016 2:-2.2091875 
10 1:0.25153516 2:-2.034125 
10 1:0.24247852 2:-2.04975 
10 1:0.23672852 2:-2.6773125 
10 1:0.28387695 2:-3.0823125 
10 1:0.29637891 2:-4.25375 
10 1:0.34355469 2:-3.5971875 
2.497525817668875 1:0.30484766 2:-2.807 
10 1:0.23308594 2:-1.8355 
10 1:0.2265332 2:-1.9818125 
10 1:0.28305273 2:-2.2699375 
10 1:0.27044922 2:-2.3269375 
10 1:0.28905078 2:-3.00425 
10 1:0.21552148 2:-3.5938125 
10 1:0.38314062 2:-2.5246875 
8.219894423407652 1:0.34419531 2:-1.66775 
3.729762788099369 1:0.43210742 2:-3.254625 
10 1:0.2550293 2:-2.693875 
0.4408790086585204 1:0.38989063 2:-2.975 
10 1:0.34558203 2:-3.37725 
10 1:0.27432422 2:-2.5110625 
10 1:0.30510547 2:-4.36925 
10 1:0.23525781 2:-3.2718125 
10 1:0.22897461 2:-3.203625 
10 1:0.31274219 2:-3.13875 
10 1:0.273625 2:-3.2185 
10 1:0.27366016 2:-3.7085625 
10 1:0.27574414 2:-3.3558125 
1.143869836935149 1:0.40507617 2:-2.5451875 
0.7066595129511435 1:0.52732813 2:-2.161125 
1.146496813099662 1:0.5656875 2:-1.8881875 
10 1:0.37178516 2:-3.7303125 
10 1:0.27910352 2:-3.861875 
10 1:0.29399805 2:-3.1081875 
10 1:0.18329492 2:-3.2108125 
10 1:0.25707813 2:-3.7184375 
10 1:0.30579492 2:-2.78075 
10 1:0.30825586 2:-3.884125 
10 1:0.36222656 2:-4.23425 
10 1:0.34605859 2:-3.7740625 
10 1:0.18889648 2:-3.22025 
10 1:0.38224414 2:-3.084 
10 1:0.22916406 2:-3.683875 
10 1:0.32730664 2:-4.8165625 
8.188916966220331 1:0.27055078 2:-1.3105 
10 1:0.46410742 2:-4.8941875 
10 1:0.20561914 2:-2.3905625 
10 1:0.24608203 2:-2.3425625 
10 1:0.38394531 2:-3.999875 
10 1:0.25060937 2:-5.4385 
10 1:0.20381836 2:-2.5619375 
10 1:0.338875 2:-3.906625 
4.521875937939765 1:0.52079883 2:-3.961125 
6.984283432359236 1:0.50749414 2:-4.0415625 
10 1:0.2820918 2:-3.37775 
10 1:0.33263867 2:-3.347125 
10 1:0.22599414 2:-1.5581875 
10 1:0.22520898 2:-3.5239375 
0.9248516411980644 1:0.37239258 2:-3.290125 
10 1:0.17244727 2:-3.071125 
10 1:0.29727539 2:-3.397 
10 1:0.30881445 2:-2.2698125 
10 1:0.29321875 2:-3.302 
8.105076621130234 1:0.34260937 2:-1.451625 
10 1:0.32152344 2:-4.0238125 
10 1:0.45166016 2:-4.38775 
10 1:0.34605078 2:-4.539 
0.04039586956022668 1:0.51006055 2:-1.950875 
10 1:0.27541992 2:-5.0645625 
10 1:0.25701367 2:-2.2314375 
10 1:0.39397461 2:-5.0691875 
0.2261997998549273 1:0.50944336 2:-3.7714375 
0.9756522271089141 1:0.60116992 2:-1.4695625 
1.330737981575493 1:0.54976758 2:-0.798875 
10 1:0.26674219 2:-3.784625 
10 1:0.24304883 2:-3.1459375 
10 1:0.26878906 2:-2.6270625 
10 1:0.28439453 2:-2.960375 
10 1:0.21825195 2:-3.4581875 
10 1:0.22953125 2:-4.0635 
10 1:0.27570117 2:-2.78825 
10 1:0.12339844 2:-2.0333125 
10 1:0.20134375 2:-1.7034375 
10 1:0.28163281 2:-3.179375 
10 1:0.29655078 2:-0.9794375 
10 1:0.29110156 2:-2.9788125 
10 1:0.28016797 2:-2.0644375 
5.800755617574382 1:0.26932422 2:-1.75025 
10 1:0.31682227 2:-3.2665 
10 1:0.35025195 2:-4.0530625 
10 1:0.37255273 2:-4.0279375 
10 1:0.28870508 2:-4.330625 
10 1:0.36936914 2:-3.5874375 
10 1:0.27773047 2:-3.5765625 
10 1:0.31573633 2:-3.224125 
10 1:0.29299805 2:-3.0075 
10 1:0.37058984 2:-3.2365 
10 1:0.17296875 2:-1.639 
3.126621800234965 1:0.38938672 2:-1.4563125 
4.262358468288046 1:0.35310156 2:-2.948625 
5.433500250536071 1:0.43007617 2:-2.785 
10 1:0.41676953 2:-3.57375 
4.586774524294592 1:0.40937109 2:-2.7834375 
10 1:0.24726953 2:-1.332625 
10 1:0.38089844 2:-3.7419375 
8.58261915307471 1:0.51585742 2:-6.6545 
10 1:0.33559961 2:-4.079875 
10 1:0.27632617 2:-1.724 
10 1:0.23089453 2:-1.5915 
10 1:0.32889453 2:-3.90775 
0.2320861590383263 1:0.5284082 2:-3.2651875 
0.4757233762083461 1:0.52434375 2:-2.0265 
0.2387149480940463 1:0.4947168 2:-2.6748125 
10 1:0.36358984 2:-4.906375 
10 1:0.44803711 2:-4.523 
10 1:0.33156445 2:-3.9391875 
10 1:0.25251367 2:-3.199625 
10 1:0.20988281 2:-2.778625 
10 1:0.17054102 2:-1.676875 
10 1:0.32132422 2:-3.2509375 
10 1:0.24242187 2:-2.8604375 
10 1:0.21165039 2:-2.319875 
10 1:0.39734961 2:-4.196375 
10 1:0.31139258 2:-3.1750625 
5.987925674710017 1:0.34125391 2:-1.1159375 
10 1:0.23927539 2:-3.3649375 
10 1:0.2566543 2:-2.5156875 
3.345203525465104 1:0.35675586 2:-2.232875 
4.872362019383772 1:0.49850195 2:-4.2493125 
10 1:0.43819336 2:-6.483 
7.627867847714323 1:0.43186914 2:-3.553875 
9.187259612715835 1:0.34235156 2:-2.1496875 
10 1:0.35101172 2:-3.5235 
0.06989402655628339 1:0.37252148 2:-3.554625 
10 1:0.21700781 2:-2.3581875 
8.43556706444228 1:0.34277734 2:-2.4906875 
10 1:0.1554707 2:-1.6245625 
10 1:0.34450977 2:-3.534625 
6.126741259647218 1:0.45466992 2:-2.942125 
10 1:0.30773633 2:-3.180875 
10 1:0.50227539 2:-3.744 
10 1:0.27089063 2:-2.5478125 
0.1428266349089164 1:0.40333008 2:-3.0384375 
10 1:0.36656836 2:-4.133375 
0.1479295973099967 1:0.48641992 2:-1.735875 
10 1:0.39318359 2:-3.0641875 
10 1:0.32316602 2:-2.5864375 
10 1:0.2394668 2:-3.7249375 
10 1:0.24126758 2:-2.4735 
3.816654855363437 1:0.32408008 2:-3.10675 
10 1:0.31038086 2:-3.6683125 
0.0598156321606193 1:0.59758984 2:-2.2580625 
-10 1:0.23100195 2:-2.88675 
-10 1:0.44066992 2:-4.3504375 
-10 1:0.23461914 2:-3.3475 
-10 1:0.42295508 2:-4.58325 
-10 1:0.35011133 2:-4.5961875 
-10 1:0.30645703 2:-2.082 
-10 1:0.33792773 2:-3.1846875 
-8.063471066179407 1:0.32394141 2:-4.4250625 
-5.024384942492066 1:0.41233789 2:-5.5705 
-6.980918179807162 1:0.37638086 2:-6.194875 
-10 1:0.33248828 2:-2.502 
-0.2030967304957469 1:0.25022266 2:-4.73425 
-3.331078566012106 1:0.40496289 2:-6.0150625 
-10 1:0.29694531 2:-3.1875 
-7.652498573425028 1:0.36280664 2:-5.8456875 
-10 1:0.3785957 2:-3.982125 
-10 1:0.35701172 2:-4.0114375 
-10 1:0.29733594 2:-3.103625 
-10 1:0.20225391 2:-2.3948125 
-10 1:0.33430859 2:-3.2810625 
-10 1:0.32277539 2:-3.7033125 
-10 1:0.33418555 2:-2.956375 
-10 1:0.36934766 2:-3.1859375 
-8.770927270381453 1:0.33725781 2:-3.869 
-8.580476310123331 1:0.4166543 2:-6.32025 
-10 1:0.25451758 2:-1.7416875 
-10 1:0.30048633 2:-3.50575 
-10 1:0.24953906 2:-2.5758125 
-10 1:0.34135156 2:-3.9849375 
-10 1:0.29270117 2:-3.2854375 
-10 1:0.36500586 2:-4.0619375 
-5.517483780875427 1:0.22575 2:-0.9669375 
-10 1:0.22776367 2:-2.785125 
-10 1:0.33098047 2:-2.8483125 
-10 1:0.39789844 2:-2.9333125 
-10 1:0.31657031 2:-3.592375 
-10 1:0.21885156 2:-1.7906875 
-10 1:0.31800195 2:-2.7066875 
-10 1:0.29497461 2:-2.2556875 
-10 1:0.28387305 2:-3.2044375 
-10 1:0.23298633 2:-2.002375 
-10 1:0.33290039 2:-3.62125 
-10 1:0.22383594 2:-2.1114375 
-3.207748561354407 1:0.20191211 2:-3.6116875 
-10 1:0.40943945 2:-2.8265625 
-10 1:0.31775 2:-3.28175 
-0.05857863949290318 1:0.24281055 2:-4.319375 
-0.2187020830203149 1:0.076144531 2:-1.757125 
-0.2021870262840259 1:0.26702148 2:-5.8805 
-2.676101921086587 1:0.46189453 2:-4.7460625 
-10 1:0.4447832 2:-5.192375 
-10 1:0.44478125 2:-4.250625 
-10 1:0.34373047 2:-3.911375 
-0.4434437339095059 1:0.30793359 2:-6.8123125 
-6.775253823300623 1:0.24226758 2:-5.4451875 
-10 1:0.26678516 2:-2.513375 
-4.612038882620055 1:0.36351563 2:-4.783125 
-10 1:0.19375391 2:-2.2433125 
-8.218056232621448 1:0.17836914 2:-2.2420625 
-0.8552246665146654 1:0.25583398 2:-4.462875 
-10 1:0.3456543 2:-3.2239375 
-7.458375671847883 1:0.22986914 2:-4.2670625 
-5.145400691485742 1:0.22860547 2:-3.5635625 
-10 1:0.18525781 2:-3.2083125 
-10 1:0.32058789 2:-2.162375 
-4.576629403869132 1:0.40533789 2:-6.4565 
-10 1:0.19665234 2:-1.8435 
-3.606416778704188 1:0.33174023 2:-5.8703125 
-10 1:0.343625 2:-3.1510625 
-10 1:0.26129492 2:-2.958625 
-10 1:0.23530273 2:-1.1014375 
-10 1:0.20922266 2:-2.4875625 
-10 1:0.23852734 2:-3.167 
-10 1:0.47007031 2:-3.4156875 
-0.2830487282906848 1:0.23894141 2:-3.915 
-8.224109117453498 1:0.25526562 2:-5.0723125 
-0.5943126988478467 1:0.33484375 2:-4.3180625 
-0.7890275017016078 1:0.20280859 2:-4.48875 
-10 1:0.32891211 2:-3.746125 
-10 1:0.25126563 2:-2.5884375 
-10 1:0.2579707 2:-2.818 
-10 1:0.31813086 2:-3.305625 
-10 1:0.29736914 2:-3.4948125 
-2.808361810358319 1:0.32923242 2:-4.2795625 
-10 1:0.37532617 2:-3.6785 
-1.252679832962033 1:0.13936914 2:-2.2974375 
-10 1:0.21820898 2:-2.6646875 
-10 1:0.28254102 2:-2.7315 
-6.562484485449846 1:0.24461719 2:-3.759875 
-10 1:0.30981836 2:-2.747 
-3.301445275164813 1:0.25940625 2:-5.0618125 
-10 1:0.2610918 2:-2.924625 
-6.192475177373991 1:0.11845703 2:-2.042875 
-10 1:0.28462109 2:-2.889125 
-0.5355762759588445 1:0.1092793 2:-0.1195 
-0.3296653723798341 1:0.35932617 2:-6.08425 
-5.749366193487346 1:0.15216406 2:-1.026125 
-10 1:0.39472266 2:-4.070375 
-0.5484147406688719 1:0.25833789 2:-4.347125 
-3.2202051852587 1:0.18283203 2:-1.520625 
-10 1:0.27315234 2:-2.730375 
-10 1:0.29831641 2:-1.8839375 
-8.089118680998615 1:0.15191211 2:-2.062875 
-10 1:0.22491602 2:-2.3835 
-10 1:0.25205078 2:-2.93175 
-1.694179602878745 1:0.16104883 2:-3.1120625 
-10 1:0.29147852 2:-2.597125 
-10 1:0.25076563 2:-3.720375 
-10 1:0.40959766 2:-4.346125 
-4.300962278442876 1:0.31158398 2:-5.0321875 
-10 1:0.27897461 2:-2.5580625 
-5.569720523835934 1:0.41410156 2:-6.125625 
-6.812697110289998 1:0.4319082 2:-4.9931875 
-10 1:0.43238867 2:-2.8535625 
-2.391413121161615 1:0.23833789 2:-3.5234375 
-4.021400433468163 1:0.46158789 2:-6.3245 
-10 1:0.32033984 2:-3.4545625 
-3.946858677652025 1:0.3985957 2:-4.82175 
-10 1:0.35455664 2:-3.95475 
-0.09952769456390446 1:0.16482422 2:-2.99575 
-0.4358538678493784 1:0.068253906 2:-1.364625 
-10 1:0.25313672 2:-2.7315 
-7.673616842257283 1:0.32633594 2:-3.9435 
-10 1:0.24210937 2:-3.6994375 
-10 1:0.35445117 2:-2.0418125 
-1.728997653417654 1:0.24998438 2:-4.0945625 
-8.47279483551381 1:0.37238281 2:-5.6673125 
-5.220121911094833 1:0.31777148 2:-5.3259375 
-10 1:0.33055078 2:-3.4485 
-0.2141569020494265 1:0.45618164 2:-6.5829375 
-10 1:0.23009766 2:-1.691 
-0.7653512586612025 1:0.22813477 2:-4.2560625 
-10 1:0.29933008 2:-3.1620625 
-10 1:0.30196484 2:-2.5315 
-10 1:0.30962891 2:-2.9985 
-0.2796864132784937 1:0.34278125 2:-6.560875 
-10 1:0.2519707 2:-2.6255625 
-10 1:0.30011328 2:-3.26075 
-10 1:0.41484961 2:-3.875875 
-10 1:0.2994707 2:-3.6604375 
-0.5147376783180658 1:0.52801953 2:-5.481 
-10 1:0.11805469 2:-2.27 
-2.68940859863965 1:0.17107227 2:-1.879375 
-2.07179281825579 1:0.45111328 2:-4.638 
-10 1:0.21329102 2:-1.593375 
-10 1:0.24764258 2:-2.31925 
-1.948522583746876 1:0.22388477 2:-3.3609375 
-10 1:0.3485918 2:-4.0465625 
-0.5997293134645335 1:0.41430469 2:-6.158625 
-10 1:0.25099805 2:-3.2134375 
-0.3727387307818122 1:0.12512305 2:-2.84225 
-10 1:0.29859766 2:-3.285875 
-10 1:0.46312695 2:-4.068625 
-1.948178581769389 1:0.42146484 2:-5.1829375 
-10 1:0.36505078 2:-3.2536875 
-5.225710848009241 1:0.29157422 2:-3.5221875 
-10 1:0.31746484 2:-3.2116875 
-10 1:0.24810742 2:-2.2230625 
-0.4543093906412815 1:0.24325195 2:-0.4575625 
-1.129865694375028 1:0.24275586 2:-4.3421875 
-10 1:0.22049219 2:-2.84775 
-7.089130665617621 1:0.40097656 2:-4.777375 
-10 1:0.40966797 2:-3.993875 
-10 1:0.30438672 2:-2.5859375 
-10 1:0.32357812 2:-3.277 
-10 1:0.20155859 2:-2.3331875 
-0.3265487293761603 1:0.071806641 2:-0.5965625 
-10 1:0.43250195 2:-4.395375 
-10 1:0.27411523 2:-3.071875 
-10 1:0.34156445 2:-3.5378125 
-10 1:0.37650977 2:-3.31375 
-10 1:0.27905078 2:-4.1588125 
-10 1:0.18447266 2:-3.1966875 
-7.610275931583828 1:0.35983789 2:-4.137 
-10 1:0.31178516 2:-2.6841875 
-10 1:0.28626953 2:-2.63325 
-10 1:0.3564082 2:-4.6351875 
-0.2438119480545056 1:0.16332227 2:-0.216 
-0.493310761887279 1:0.35349219 2:-6.191 
-10 1:0.30227734 2:-2.2331875 
-10 1:0.28037109 2:-1.59875 
-10 1:0.21647656 2:-1.9361875 
-10 1:0.24942188 2:-1.6803125 
-10 1:0.30717578 2:-3.554125 
-10 1:0.23359961 2:-3.19325 
-10 1:0.32233594 2:-3.5528125 
-0.06351235214268383 1:0.10053125 2:-1.1860625 
-10 1:0.32863477 2:-3.693375 
-10 1:0.41108008 2:-4.3343125 
-0.1324133763489409 1:0.25668555 2:-4.356 
-6.953605237247036 1:0.22654883 2:-3.437625 
-0.2240683855048584 1:0.41219531 2:-7.08375 
-10 1:0.42868164 2:-3.7133125 
-2.541501869486288 1:0.25077539 2:-1.1349375 
-10 1:0.35747656 2:-4.5548125 
-10 1:0.25036328 2:-3.019875 
-0.8464677083715934 1:0.29452344 2:-5.858625 
-10 1:0.25061328 2:-4.3894375 
-10 1:0.4081543 2:-3.5719375 
-10 1:0.21929688 2:-1.9210625 
-10 1:0.30339062 2:-3.2913125 
-10 1:0.30611523 2:-2.9101875 
-10 1:0.15420898 2:-1.619875 
-10 1:0.47209961 2:-4.102375 
-1.113492705316409 1:0.18490625 2:-4.305 
-10 1:0.3401875 2:-1.4686875 
-10 1:0.32116602 2:-1.6766875 
-1.775495549869694 1:0.24992773 2:-4.3128125 
-7.20143151499584 1:0.15704688 2:-3.08375 
-10 1:0.21329492 2:-2.4545 
-0.519836318203215 1:0.23394336 2:-2.904 
-10 1:0.25153906 2:-3.174125 
-4.785129918174916 1:0.23815625 2:-3.5234375 
-10 1:0.34270508 2:-2.6396875 
-6.633231617081786 1:0.48716016 2:-4.86025 
-10 1:0.22915234 2:-1.374375 
-10 1:0.27933008 2:-2.861125 
-10 1:0.33480664 2:-2.5214375 
-10 1:0.25565625 2:-1.4544375 
-10 1:0.40971094 2:-4.368375 
-10 1:0.39804688 2:-4.837375 
-10 1:0.22255859 2:-2.02525 
-10 1:0.31239258 2:-3.335375 
-1.730987612051105 1:0.32786328 2:-5.173 
-10 1:0.35457227 2:-3.133 
-10 1:0.28976953 2:-3.163375 
-10 1:0.34318555 2:-4.044125 
-0.1321704440673467 1:0.25238086 2:-5.8245 
-10 1:0.27779687 2:-2.887375 
-10 1:0.27866992 2:-3.1021875 
-6.307576464443606 1:0.46201172 2:-5.260375 
-0.006029789152895584 1:0.34758984 2:-4.6420625 
-10 1:0.32765234 2:-4.0785625 
-4.656696189909702 1:0.21677539 2:-1.36575 
-4.414911309531328 1:0.2920332 2:-4.6695 
-9.030495429454822 1:0.30325391 2:-4.8945625 
-2.306370171205549 1:0.20256055 2:-1.8050625 
-3.766691937265727 1:0.20248633 2:-1.470125 
-10 1:0.21135742 2:-2.489 
-10 1:0.31603125 2:-3.776875 
-10 1:0.23958398 2:-2.7159375 
-10 1:0.24349805 2:-2.2509375 
-0.2951956131427191 1:0.26716211 2:-0.6474375 
-10 1:0.41253516 2:-4.57525 
-10 1:0.18532422 2:-1.690875 
-7.293655826421655 1:0.19408398 2:-3.2364375 
-4.613997187419585 1:0.40841602 2:-5.890375 
-10 1:0.19689648 2:-1.5423125 
-10 1:0.33573047 2:-4.2478125 
-1.218667396422897 1:0.24887109 2:-0.7735625 
-0.2245603975245689 1:0.077960938 2:-0.51175 
-10 1:0.44980664 2:-3.9481875 
-10 1:0.36369141 2:-2.1930625 
-10 1:0.25078516 2:-2.29325 
-9.394655845811904 1:0.20061523 2:-1.3003125 
-10 1:0.32398242 2:-3.5039375 
-2.605946162339992 1:0.23345117 2:-1.063375 
-10 1:0.28416211 2:-1.2368125 
-10 1:0.28879492 2:-3.6378125 
-10 1:0.20150586 2:-2.223875 
-2.767574395084289 1:0.25287305 2:-4.3624375 
-0.9739749561611009 1:0.22471289 2:-4.2440625 
-0.01471876004762386 1:0.32047656 2:-5.663 
-10 1:0.165625 2:-2.978625 
-0.9688282219767257 1:0.15448633 2:-3.7628125 
-0.07963213054591659 1:0.067634766 2:-1.410875 
-1.938283529141777 1:0.26593359 2:-3.9913125 
-10 1:0.33136133 2:-4.273 
-2.48122954548214 1:0.28633789 2:-3.591 
-1.855760556866219 1:0.32372266 2:-4.3731875 
-0.2258092060610768 1:0.17601953 2:-3.165375 
-10 1:0.38073633 2:-3.9090625 
-9.81076117766246 1:0.38706445 2:-4.7500625 
-10 1:0.28401758 2:-3.2515625 
-10 1:0.30668164 2:-3.5968125 
-10 1:0.25750977 2:-2.2086875 
-10 1:0.31791016 2:-3.7708125 
-7.331653736892143 1:0.31867773 2:-5.0266875 
-0.6251025784786022 1:0.19468164 2:-3.2516875 
-10 1:0.48707422 2:-3.45225 
-0.04768259749567591 1:0.31481055 2:-3.7885625 
-10 1:0.26771875 2:-2.972875 
-10 1:0.22813086 2:-2.677875 
-10 1:0.40599219 2:-2.685625 
-10 1:0.35265234 2:-4.1054375 
-3.562036920817382 1:0.231125 2:-0.94875 
-10 1:0.24357227 2:-2.9170625 
-8.972345625843726 1:0.24077344 2:-3.4290625 
-10 1:0.42968359 2:-4.415625 
-10 1:0.37522461 2:-4.0751875 
-10 1:0.33538672 2:-3.9215625 
-0.8902622442434583 1:0.21932617 2:-4.9929375 
-0.9754555675141026 1:0.24723047 2:-4.4385 
-10 1:0.34663867 2:-2.43325 
-0.3151915932126456 1:0.24713086 2:-4.376625 
-0.1438072971338831 1:0.060169922 2:-0.6791875 
-10 1:0.21419336 2:-1.8233125 
-10 1:0.22320313 2:-2.806375 
-4.142073044600807 1:0.19113086 2:-0.9529375 
-10 1:0.30995703 2:-2.99925 
-10 1:0.32399805 2:-3.6455625 
-1.253565697422014 1:0.38608203 2:-5.83775 
-10 1:0.24776758 2:-4.3211875 
-10 1:0.36791797 2:-1.7798125 
-0.148332076005303 1:0.15073828 2:-3.9104375 
-1.428945004348387 1:0.24482813 2:-4.285875 
-10 1:0.28936719 2:-4.1814375 
-10 1:0.38985742 2:-2.2789375 
-6.129503610676832 1:0.31990625 2:-4.2178125 
-10 1:0.30313867 2:-3.5388125 
-10 1:0.32626953 2:-3.5511875 
-1.861784085804272 1:0.23536914 2:-4.077375 
-10 1:0.24451562 2:-2.5500625 
-10 1:0.19193359 2:-1.929375 
-10 1:0.23297852 2:-3.4668125 
-10 1:0.44749609 2:-3.6575625 
-10 1:0.27644531 2:-2.738125 
-10 1:0.23229883 2:-2.5465625 
-0.0122292377479474 1:0.39774414 2:-6.05375 
-10 1:0.29217773 2:-3.0855625 
-10 1:0.45689844 2:-4.434625 
-10 1:0.43435742 2:-3.4658125 
-10 1:0.18168164 2:-1.866875 
-6.065331665068093 1:0.2063125 2:-3.6064375 
-10 1:0.37414063 2:-4.146625 
-10 1:0.22959961 2:-2.5274375 
-10 1:0.27471484 2:-2.5206875 
-10 1:0.32786133 2:-4.434 
-10 1:0.30963086 2:-2.8083125 
-4.804453108254593 1:0.24479297 2:-1.2194375 
-10 1:0.38985547 2:-3.799625 
-10 1:0.26881055 2:-3.0364375 
-3.175159229224161 1:0.32364258 2:-0.9266875 
-10 1:0.40190039 2:-4.0061875 
-10 1:0.41519336 2:-4.189625 
-10 1:0.23202734 2:-1.8263125 
-10 1:0.29225195 2:-2.52325 
-10 1:0.22368359 2:-2.012125 
-2.986808230744841 1:0.19281836 2:-3.81475 
-0.8917701905532632 1:0.22722266 2:-2.2946875 
-6.000681017038493 1:0.19761133 2:-2.0180625 
-8.872125903468294 1:0.1951543 2:-2.4258125 
-10 1:0.31636133 2:-2.7805 
-1.483744276085086 1:0.1653418 2:-1.166875 
-10 1:0.29560156 2:-2.88125 
-10 1:0.30330469 2:-2.7196875 
-4.378370109193668 1:0.27453906 2:-4.14125 
-6.871599278247693 1:0.29921875 2:-4.207375 
-10 1:0.30803125 2:-3.0019375 
-10 1:0.33392969 2:-4.0231875 
-10 1:0.41067188 2:-4.9038125 
-10 1:0.26800977 2:-2.4195 
-1.445559649943872 1:0.20643164 2:-3.2873125 
-3.224238429872203 1:0.20493945 2:-4.4815625 
-10 1:0.27028711 2:-2.9045 
-10 1:0.36425586 2:-4.5600625 
-10 1:0.27479297 2:-3.251625 
-10 1:0.32768164 2:-3.8809375 
-6.215474877525746 1:0.30526953 2:-5.664125 
-10 1:0.23367578 2:-2.1321875 
-10 1:0.24793164 2:-3.6923125 
-10 1:0.38264844 2:-5.1065 
-4.575285212799136 1:0.17550586 2:-2.5815625 
-10 1:0.27766797 2:-3.8261875 
-0.4122305846863391 1:0.18350195 2:-2.1923125 
-10 1:0.38944922 2:-2.8925625 
-10 1:0.26929297 2:-2.8614375 
-2.59713998156954 1:0.30473828 2:-5.8505 
-10 1:0.26537109 2:-3.0890625 
-0.7427552842329866 1:0.2922207 2:-5.43275 
-0.6768430102801877 1:0.38280273 2:-4.365125 
-10 1:0.33154688 2:-4.8363125 
-10 1:0.33487109 2:-3.044875 
-3.087734888059697 1:0.37858984 2:-6.0868125 
-10 1:0.32547656 2:-3.5169375 
-10 1:0.23971289 2:-2.3139375 
-0.8785156892493745 1:0.20780078 2:-3.6144375 
-10 1:0.25605469 2:-4.37625 
-2.263156631487076 1:0.27134375 2:-5.155875 
-10 1:0.49560547 2:-4.876 
-7.039739135656871 1:0.46247266 2:-6.5006875 
-2.453734261654829 1:0.25320117 2:-3.239875 
-10 1:0.33358984 2:-2.0735 
-2.238491732018289 1:0.47258203 2:-5.1478125 
-10 1:0.24683398 2:-3.15875 
-0.9501896496357694 1:0.25394141 2:-4.367 
-5.236482959137505 1:0.31580664 2:-4.41175 
-10 1:0.27886328 2:-2.8150625 
-10 1:0.27945898 2:-3.1124375 
-10 1:0.33678711 2:-3.9640625 
-2.685509819164466 1:0.17070703 2:-2.7125625 
-10 1:0.45806641 2:-2.8064375 
-2.325058355813423 1:0.38851953 2:-5.6038125 
-10 1:0.33355664 2:-3.210625 
-6.119296817578865 1:0.28383789 2:-4.5254375 
-0.1635332593789308 1:0.2390332 2:-4.7351875 
-9.874129833914219 1:0.32726172 2:-4.3330625 
-6.847474281401532 1:0.17159961 2:-0.75375 
-0.5216199825425583 1:0.2449043 2:-4.3559375 
-0.3921870985845836 1:0.37282422 2:-4.1736875 
-10 1:0.25325586 2:-2.34125 
-10 1:0.39117773 2:-4.3866875 
-10 1:0.28838281 2:-3.5944375 
-3.812223213270178 1:0.33039063 2:-4.84375 
-10 1:0.38054102 2:-4.196375 
-2.747025567114434 1:0.20280469 2:-1.346875 
-10 1:0.39165625 2:-3.201875 
-10 1:0.31787891 2:-2.8479375 
-0.5541614431671675 1:0.24235156 2:-4.3270625 
-3.278889508104428 1:0.32580078 2:-5.342 
-10 1:0.38961328 2:-2.5674375 
-10 1:0.30931641 2:-2.750125 
-0.3876960851295818 1:0.53747656 2:-5.9125 
-10 1:0.37639453 2:-2.792375 
-10 1:0.3757207 2:-4.5140625 
-6.231424415040216 1:0.24554492 2:-4.076375 
-10 1:0.49851172 2:-4.012375 
-10 1:0.25284766 2:-1.5586875 
-10 1:0.34680664 2:-2.6586875 
-10 1:0.32651172 2:-2.089 
-3.373796538638458 1:0.25475977 2:-3.0795 
-10 1:0.20885547 2:-2.3333125 
-10 1:0.34861719 2:-3.627625 
-10 1:0.26035937 2:-1.318125 
-10 1:0.26051563 2:-3.0916875 
-10 1:0.26091406 2:-2.994125 
-10 1:0.18579297 2:-1.535625 
-3.540215331838655 1:0.32371875 2:-4.4525 
-10 1:0.4163418 2:-3.113875 
-0.0111906488855262 1:0.077263672 2:-1.0995 
-10 1:0.22082812 2:-2.6729375 
-10 1:0.20934766 2:-2.263375 
-0.1736442328836887 1:0.18941211 2:-4.615375 
-10 1:0.25332031 2:-3.16875 
-6.510075012990225 1:0.20646875 2:-2.1166875 
-10 1:0.27666992 2:-2.86875 
-0.5392524822762018 1:0.13857031 2:-2.888125 
-10 1:0.22798828 2:-2.3349375 
-0.4173540799597023 1:0.2639082 2:-5.1389375 
-7.786264662172226 1:0.32768359 2:-4.3649375 
-10 1:0.23383398 2:-2.8864375 
-10 1:0.14578711 2:-2.0193125 
-0.1833399268665847 1:0.23544531 2:-5.3535 
-5.915586794175929 1:0.12099414 2:-1.974625 
-10 1:0.17536328 2:-2.5829375 
-1.294888745519629 1:0.17499414 2:-3.1650625 
-10 1:0.21741797 2:-3.3318125 
-0.426226598092701 1:0.24138477 2:-4.280625 
-3.285500575008358 1:0.23487305 2:-4.7185625 
-10 1:0.23675195 2:-3.4498125 
-0.7968709319585183 1:0.31123828 2:-5.179625 
-10 1:0.38328516 2:-4.62175 
-0.01055764603206451 1:0.24904492 2:-3.73525 
-10 1:0.2137168 2:-3.3163125 
-10 1:0.4074082 2:-3.9875 
-4.226337988818217 1:0.43591602 2:-5.860375 
-6.515686752329588 1:0.25452539 2:-1.412375 
-0.09200722252920993 1:0.099912109 2:-0.2281875 
-10 1:0.24561719 2:-2.2079375 
-6.72464702226094 1:0.15744727 2:-3.6728125 
-7.22043124083684 1:0.23883594 2:-4.293125 
-10 1:0.27235742 2:-4.1454375 
-2.695621811719113 1:0.45997461 2:-6.2921875 
-0.3552264910201392 1:0.129375 2:-2.6505625 
-10 1:0.34348242 2:-3.792 
-10 1:0.39061133 2:-3.7198125 
-10 1:0.23483008 2:-3.5435 
-10 1:0.34100781 2:-3.5708125 
-9.60521783871471 1:0.28875781 2:-4.933 
-10 1:0.33615625 2:-4.82075 
-10 1:0.27839453 2:-2.256625 
-10 1:0.34244141 2:-3.0976875 
-7.882912766695524 1:0.48474609 2:-6.674125 
-10 1:0.36560547 2:-4.0115625 
-0.7530168965486114 1:0.42489258 2:-5.367 
-5.782370458917894 1:0.24387891 2:-4.462125 
-10 1:0.28249414 2:-2.825 
-10 1:0.24398438 2:-3.719375 
-10 1:0.40465039 2:-3.5784375 
-10 1:0.25330078 2:-2.620125 
-1.453841338908803 1:0.23411719 2:-4.732375 
-9.933762397676759 1:0.28777148 2:-3.8546875 
-10 1:0.18408398 2:-1.84125 
-10 1:0.23705078 2:-3.43175 
-10 1:0.29553906 2:-3.6444375 
-10 1:0.26292969 2:-2.64375 
-10 1:0.32594336 2:-3.5015 
-10 1:0.33538281 2:-3.271875 
-5.391883445570246 1:0.45030664 2:-4.5109375 
-10 1:0.38406055 2:-4.01 
-10 1:0.31895703 2:-3.3794375 
-10 1:0.30638672 2:-3.60425 
-10 1:0.24695898 2:-2.8726875 
-4.472560576686472 1:0.16502344 2:-2.9746875 
-0.7375384042611015 1:0.1194082 2:-2.294 
-10 1:0.27269141 2:-2.4061875 
-10 1:0.40238867 2:-4.4288125 
-2.463532086792721 1:0.16304102 2:-0.7679375 
-10 1:0.24682813 2:-3.020875 
-10 1:0.3155957 2:-4.250125 
-0.713793468855531 1:0.10699219 2:-1.968375 
-0.1586690046775307 1:0.087685547 2:-0.4531875 
-10 1:0.23110156 2:-3.36125 
-10 1:0.31226367 2:-3.6335625 
-0.08377805566300903 1:0.18242383 2:-0.55425 
-6.572588595544121 1:0.15605664 2:-3.3848125 
-10 1:0.3218125 2:-4.0596875 
-10 1:0.34258594 2:-4.0031875 
-6.910955886997803 1:0.20376172 2:-0.978 
-0.7856215675192166 1:0.268375 2:-5.1638125 
-10 1:0.35527734 2:-2.8031875 
-10 1:0.43747852 2:-3.440125 
-10 1:0.21753125 2:-3.3175 
-10 1:0.18489648 2:-2.2105625 
-1.706385840520613 1:0.38236328 2:-5.1270625 
-10 1:0.28405273 2:-2.7609375 
-2.943257785878858 1:0.17999805 2:-3.188375 
-5.693424091783617 1:0.20524805 2:-3.2940625 
-7.394971756023887 1:0.27037305 2:-5.205125 
-10 1:0.27821289 2:-3.98975 
-10 1:0.22306445 2:-2.1304375 
-10 1:0.23668945 2:-3.4695625 
-0.2622412066897938 1:0.18665039 2:-4.4296875 
-10 1:0.28167578 2:-3.8419375 
-10 1:0.38253711 2:-4.640375 
-4.172997815559055 1:0.25813672 2:-5.1858125 
-0.04284043019609983 1:0.15030469 2:-2.90425 
-6.914773812219046 1:0.15643164 2:-2.609 
-10 1:0.23113867 2:-2.8440625 
-10 1:0.38785547 2:-6.0408125 
-10 1:0.32640039 2:-3.9146875 
-0.05669860341047064 1:0.088017578 2:-0.839125 
-1.488533229566103 1:0.35314844 2:-5.3280625 
-0.8368393947990777 1:0.43064648 2:-5.9849375 
-0.06970624208007506 1:0.26134961 2:-5.7624375 
-0.4318182400342882 1:0.22633984 2:-2.71225 
-9.722867035025146 1:0.32193164 2:-3.7441875 
-0.4696374251296965 1:0.23102539 2:-0.31325 
-10 1:0.32963867 2:-4.34625 
-10 1:0.29218359 2:-3.6641875 
-10 1:0.28443359 2:-2.0958125 
-10 1:0.23073047 2:-1.6185625 
-10 1:0.43398242 2:-2.614875 
-1.217952529313009 1:0.45663086 2:-6.1100625 
-10 1:0.36822461 2:-3.207625 
-7.390270642571429 1:0.23630273 2:-1.0464375 
-3.101826944682202 1:0.23755859 2:-3.473125 
-10 1:0.43701758 2:-4.488375 
-10 1:0.38616211 2:-3.214625 
-10 1:0.19752148 2:-2.3913125 
-2.594502028900295 1:0.3662168 2:-5.5426875 
-10 1:0.30742383 2:-3.268875 
-4.792788461784147 1:0.23749609 2:-3.3665625 
-10 1:0.29252734 2:-2.577 
-10 1:0.29430664 2:-3.5336875 
-10 1:0.25026758 2:-2.719625 
-6.718208146264769 1:0.27103711 2:-3.3648125 
-10 1:0.32322656 2:-3.5009375 
-1.425514967138952 1:0.22599609 2:-5.2086875 
-6.919903802407619 1:0.25176172 2:-4.0845 
-4.295856868316384 1:0.24902539 2:-4.4651875 
-10 1:0.2743457 2:-3.3559375 
-0.03738488012717913 1:0.22541211 2:-5.2675 
-4.789043542587197 1:0.31555273 2:-3.88875 
-10 1:0.34807617 2:-3.3745 
-10 1:0.23117383 2:-1.6263125 
-1.951137771018515 1:0.1824375 2:-2.253375 
-6.920153001775136 1:0.27326758 2:-5.4265 
-0.8860256995921547 1:0.2585625 2:-5.0456875 
-0.1109085733904153 1:0.21189258 2:-4.8935 
-10 1:0.22355273 2:-2.8776875 
-10 1:0.36907031 2:-3.72325 
-6.744750992461815 1:0.37413281 2:-4.75325 
-10 1:0.34518164 2:-3.089625 
-10 1:0.2531543 2:-3.0548125 
-10 1:0.30327344 2:-3.6006875 
-2.13575173651582 1:0.36801953 2:-6.04 
-10 1:0.24790234 2:-2.0054375 
-1.765399524750499 1:0.26654492 2:-5.1500625 
-1.527705350654202 1:0.1295293 2:-3.367125 
-1.204600681481857 1:0.15964258 2:-4.055 
-0.1173767228077517 1:0.26014062 2:-5.9321875 
-0.3221020702059524 1:0.076214844 2:-0.8195 
-0.5152078397574452 1:0.156 2:-3.389625 
-10 1:0.34413281 2:-2.960375 
-10 1:0.25038867 2:-3.137 
-10 1:0.29769922 2:-3.3219375 
-10 1:0.26974414 2:-2.4686875 
-3.174754001527226 1:0.25951953 2:-5.152625 
-10 1:0.41063281 2:-3.0335 
-0.1236509543289023 1:0.21986328 2:-4.9395 
-2.448551005347492 1:0.29588281 2:-5.0153125 
-10 1:0.40826563 2:-3.8423125 
-5.97561157477976 1:0.28025586 2:-5.4515 
-0.9284822980131999 1:0.14113086 2:-2.8803125 
-10 1:0.24451758 2:-2.7610625 
-1.217584511954915 1:0.24779688 2:-4.3188125 
-10 1:0.35262109 2:-3.0621875 
-10 1:0.2990332 2:-2.155 
-10 1:0.37672852 2:-2.83925 
-10 1:0.40715039 2:-4.4429375 
-10 1:0.28526758 2:-3.844625 
-10 1:0.40497656 2:-2.8505625 
-10 1:0.39553906 2:-4.077875 
-10 1:0.27688086 2:-3.00525 
-10 1:0.34779297 2:-3.0171875 
-7.758277939765782 1:0.28905469 2:-3.669375 
-10 1:0.26649414 2:-2.323875 
-10 1:0.369375 2:-4.5480625 
-10 1:0.3217832 2:-2.419625 
-10 1:0.2951543 2:-3.1799375 
-10 1:0.3555332 2:-3.0255 
-10 1:0.25304492 2:-2.577 
-9.135241326318919 1:0.28017773 2:-4.6630625 
-4.1652309015311 1:0.2359043 2:-3.896125 
-10 1:0.39812109 2:-4.224375 
-0.0756557044269843 1:0.13358008 2:-2.647875 
-10 1:0.27809375 2:-4.651125 
-3.755016540332035 1:0.14642578 2:-1.6275625 
-10 1:0.35793945 2:-3.3578125 
-0.8669913600226001 1:0.39202148 2:-4.8614375 
-0.8892834944439323 1:0.39500586 2:-4.4770625 
-0.17726525192998 1:0.088917969 2:-0.41075 
-10 1:0.32936133 2:-2.6848125 
-10 1:0.3223125 2:-4.3729375 
-10 1:0.22366992 2:-1.713625 
-10 1:0.33401758 2:-3.5395 
-10 1:0.32199414 2:-3.3899375 
-1.382299671404934 1:0.19945117 2:-3.270625 
-4.301635665650598 1:0.13232227 2:-1.697 
-10 1:0.33609961 2:-3.7926875 
-0.7508567106826736 1:0.24101172 2:-4.306 
-9.756790091646575 1:0.28295508 2:-0.9159375 
-4.656068426708416 1:0.17841406 2:-3.1833125 
-0.7951592283979254 1:0.34149805 2:-4.603125 
-10 1:0.24137305 2:-3.8963125 
-0.5479042994369044 1:0.32103516 2:-4.3830625 
-10 1:0.37358398 2:-1.4289375 
-8.993089693648281 1:0.27701758 2:-4.0153125 
-6.066932266794378 1:0.45644531 2:-5.909 
-10 1:0.28070703 2:-3.386625 
-10 1:0.4497168 2:-4.510125 
-0.3885777781388322 1:0.44730469 2:-5.969375 
-2.945201466032897 1:0.41330273 2:-6.1581875 
-1.106745570196732 1:0.10254883 2:-2.6481875 
-10 1:0.22188477 2:-3.3343125 
-10 1:0.30215625 2:-3.0803125 
-6.985870545408233 1:0.37115234 2:-5.0883125 
-0.5729336417789894 1:0.37445117 2:-4.3005625 
-9.124506817353573 1:0.434875 2:-4.560125 
-10 1:0.37324023 2:-3.38975 
-10 1:0.30438281 2:-3.43725 
-10 1:0.29839258 2:-3.6773125 
-10 1:0.23986133 2:-2.677 
-0.04994842831460428 1:0.25762891 2:-4.3735 
-10 1:0.21851953 2:-2.33275 
-10 1:0.32717578 2:-3.737625 
-10 1:0.28992578 2:-2.24675 
-10 1:0.35313672 2:-3.7525625 
-10 1:0.24664258 2:-2.0425625 
-10 1:0.29119141 2:-3.1743125 
-10 1:0.38183594 2:-2.5176875 
-10 1:0.32254492 2:-3.2290625 
-10 1:0.33518359 2:-4.321625 
-10 1:0.24798438 2:-1.645375 
-10 1:0.29499023 2:-2.921 
-0.3654650599321914 1:0.16262695 2:-3.097125 
-10 1:0.24219531 2:-1.26275 
-10 1:0.30561719 2:-4.2335 
-0.06370162823214244 1:0.24021875 2:-0.7291875 
-0.6077824706723556 1:0.16263281 2:-4.21425 
-3.178421021403569 1:0.28290039 2:-3.3270625 
-10 1:0.23100195 2:-2.6498125 
-2.448451567821946 1:0.27213672 2:-4.651375 
-4.453343850651834 1:0.34039258 2:-4.108125 
-0.1502683141315828 1:0.081591797 2:-1.7980625 
-10 1:0.36108594 2:-3.895375 
-10 1:0.33679883 2:-3.4530625 
-10 1:0.30251172 2:-3.3386875 
-10 1:0.39397461 2:-3.8175 
-8.169131335527631 1:0.32649414 2:-4.8268125 
-10 1:0.31943359 2:-2.8864375 
-10 1:0.33693945 2:-3.259875 
-5.465166399699374 1:0.34047852 2:-4.48025 
-10 1:0.39655859 2:-4.51775 
-9.94388238246697 1:0.46754492 2:-5.648125 
-10 1:0.40025 2:-3.6605 
-3.438886199082064 1:0.43192969 2:-5.2444375 
-0.2049625704896888 1:0.18567578 2:-3.196375 
-1.962634221377102 1:0.11514062 2:-2.079875 
-10 1:0.29958203 2:-3.055375 
-0.3068537496363377 1:0.3259375 2:-5.6773125 
-0.08139537681158564 1:0.24896289 2:-5.6844375 
-10 1:0.30482617 2:-3.0379375 
-10 1:0.35208398 2:-2.5773125 
-10 1:0.401375 2:-3.7811875 
-10 1:0.33640234 2:-3.262875 
-10 1:0.27979687 2:-4.1613125 
-10 1:0.41133203 2:-3.5669375 
-10 1:0.30291602 2:-0.991625 
-10 1:0.31554102 2:-1.5011875 
-10 1:0.31878516 2:-2.9740625 
-1.290906598407096 1:0.38608594 2:-4.26 
-10 1:0.24112305 2:-2.88025 
-0.4168806700807258 1:0.1945957 2:-4.7073125 
-0.156495099658026 1:0.25712695 2:-4.3881875 
-6.409527589294296 1:0.22877148 2:-3.5505625 
-10 1:0.48124219 2:-4.2619375 
-10 1:0.39028711 2:-4.6720625 
-10 1:0.29498828 2:-3.6255 
-5.63180176015488 1:0.28974219 2:-4.1793125 
-1.434273482624525 1:0.63630273 2:-3.811125 
-10 1:0.43359375 2:-3.0754375 
-0.5836928923592848 1:0.40119336 2:-7.3266875 
-2.450962642937056 1:0.19602539 2:-4.35925 
-10 1:0.38100195 2:-4.0913125 
-0.02862320236894721 1:0.18120703 2:-0.5469375 
-7.285505506169834 1:0.30858789 2:-4.687 
-10 1:0.2800918 2:-3.8188125 
-10 1:0.23178906 2:-3.548875 
-1.223865284557799 1:0.25068945 2:-3.924375 
-2.582285445947072 1:0.24238281 2:-4.45375 
-9.993792507378345 1:0.34435742 2:-4.3355625 
-3.034789791683176 1:0.35631055 2:-5.519 
-0.05256468100670725 1:0.27466602 2:-6.4654375 
-0.1139339114259815 1:0.42124023 2:-5.3928125 
-10 1:0.22480859 2:-2.255625 
-1.846299618536178 1:0.24758594 2:-5.0631875 
-10 1:0.22933008 2:-1.4585 
-10 1:0.50546875 2:-2.978125 
-10 1:0.4310957 2:-3.0286875 
-10 1:0.39603125 2:-4.306 
-9.100945048367286 1:0.39371289 2:-5.3565 
-10 1:0.34011914 2:-4.586625 
-10 1:0.33252148 2:-2.671125 
-1.615656083720175 1:0.41813477 2:-4.671875 
-10 1:0.25547266 2:-3.1161875 
-10 1:0.2628418 2:-2.9529375 
-10 1:0.33732617 2:-2.0031875 
-10 1:0.38274609 2:-3.323375 
-10 1:0.3116875 2:-3.424125 
-10 1:0.46185352 2:-4.74475 
-10 1:0.41732812 2:-3.825625 
-10 1:0.32971875 2:-3.6864375 
-10 1:0.33603906 2:-3.70375 
-10 1:0.2912832 2:-3.3300625 
-10 1:0.39505078 2:-4.75675 
-3.565408744233872 1:0.28565039 2:-3.8091875 
-10 1:0.24621484 2:-2.1268125 
-10 1:0.26848047 2:-2.389375 
-10 1:0.21675781 2:-2.693 
-10 1:0.3421875 2:-3.4231875 
-10 1:0.3277207 2:-3.7340625 
-2.024655259623878 1:0.21192773 2:-2.841125 
-0.4307694136021161 1:0.25657617 2:-4.3558125 
-10 1:0.45179883 2:-3.507 
-10 1:0.2490625 2:-3.720875 
-0.1806672292414557 1:0.046820312 2:-0.9586875 
-4.857920055712238 1:0.19077344 2:-3.2408125 
-7.002987340143878 1:0.24192773 2:-3.6948125 
-10 1:0.21107031 2:-2.5110625 
-10 1:0.21903711 2:-2.3874375 
-9.010805489182015 1:0.29775781 2:-4.6875 
-10 1:0.25980859 2:-2.995 
-10 1:0.25639453 2:-2.3706875 
-10 1:0.31054492 2:-4.243875 
-5.656196235968419 1:0.21485938 2:-2.81125 
-0.3439059980356943 1:0.30711719 2:-6.25125 
-0.5595481030564818 1:0.21148828 2:-4.67825 
-0.2413727604183386 1:0.26615234 2:-6.0169375 
-10 1:0.26586328 2:-1.8378125 
-10 1:0.19230078 2:-1.6540625 
-10 1:0.33104102 2:-2.396 
-8.924622265865061 1:0.31710937 2:-4.3620625 
-10 1:0.29282812 2:-3.0000625 
-10 1:0.36771484 2:-4.042875 
-10 1:0.27030078 2:-1.6701875 
-0.7486160392083783 1:0.22239453 2:-4.231375 
-10 1:0.46342969 2:-3.82325 
-10 1:0.28746484 2:-4.5245625 
-2.622518190036348 1:0.41792383 2:-5.6728125 
-10 1:0.45973828 2:-3.94875 
-0.1279596833233895 1:0.23528906 2:-5.5748125 
-10 1:0.23816602 2:-3.424875 
-1.000915758863635 1:0.22573437 2:-5.1725625 
-0.9493022056137688 1:0.24811523 2:-4.385125 
-10 1:0.25363281 2:-2.1921875 
-10 1:0.4510293 2:-4.106875 
-4.735227105726661 1:0.18249023 2:-1.704875 
-0.7407340934435902 1:0.1527168 2:-1.0211875 
-0.2719151989523559 1:0.26445117 2:-6.1681875 
-8.820235986693909 1:0.28005078 2:-4.63375 
-10 1:0.31439063 2:-1.372 
-10 1:0.43722656 2:-4.279375 
-10 1:0.32114258 2:-3.879125 
-10 1:0.2700332 2:-3.06725 
-10 1:0.24795898 2:-3.6968125 
-10 1:0.34213672 2:-2.21525 
-10 1:0.31833984 2:-3.9101875 
-1.067777244754022 1:0.25021875 2:-4.4340625 
-0.001116085315395282 1:0.16120703 2:-0.412125 
-10 1:0.32984766 2:-4.237625 
-2.104931911814922 1:0.12989258 2:-2.002875 
-10 1:0.25445313 2:-3.2235625 
-10 1:0.35279102 2:-1.1444375 
-10 1:0.37254492 2:-3.54475 
-0.0912188240063103 1:0.25593945 2:-4.45375 
-0.1674718470705808 1:0.23642187 2:-4.082625 
-10 1:0.32062891 2:-3.608625 
-10 1:0.4075293 2:-3.602375 
-0.2127872623801451 1:0.24347461 2:-0.5854375 
-1.137218674563996 1:0.27020117 2:-4.633875 
-10 1:0.35893164 2:-4.5775 
-3.967475113833419 1:0.28805859 2:-4.6735 
-3.516660652849976 1:0.30394922 2:-5.17475 
-10 1:0.28167188 2:-1.3150625 
-4.424797438974982 1:0.3429043 2:-4.523625 
-4.017482276784387 1:0.20847656 2:-2.4965625 
-6.626646493690943 1:0.27708008 2:-3.813875 
-10 1:0.25854297 2:-1.9469375 
-10 1:0.33880469 2:-3.9513125 
-10 1:0.30881055 2:-3.461625 
-10 1:0.24589844 2:-2.381375 
-10 1:0.27432812 2:-1.215 
-10 1:0.38547461 2:-3.8594375 
-0.196934811712637 1:0.18293945 2:-3.1890625 
-10 1:0.19609766 2:-1.8271875 
-10 1:0.23668555 2:-3.42625 
-0.1697230426456537 1:0.28741406 2:-6.508375 
-8.153664487027436 1:0.41494922 2:-6.254125 
-10 1:0.29636133 2:-3.4575 
-10 1:0.32821484 2:-3.377375 
-1.97177985160897 1:0.16107227 2:-2.714625 
-10 1:0.27573242 2:-2.024875 
-10 1:0.27304883 2:-2.7235625 
-0.3515675137469553 1:0.30435937 2:-6.94625 
-10 1:0.31855273 2:-4.2399375 
-2.034301003480262 1:0.28625391 2:-5.183375 
-10 1:0.2853125 2:-2.308875 
-10 1:0.35437891 2:-3.67175 
-10 1:0.22610742 2:-1.3413125 
-10 1:0.37297266 2:-4.1598125 
-10 1:0.48145117 2:-3.388 
-0.3466722693214563 1:0.35354297 2:-7.0851875 
-10 1:0.27303906 2:-3.137875 
-10 1:0.19296289 2:-2.1853125 
-4.645679516679659 1:0.14532031 2:-2.90125 
-0.01958461992592483 1:0.1700625 2:-0.4009375 
-10 1:0.27775586 2:-1.43175 
-10 1:0.27455664 2:-1.5620625 
-10 1:0.24530078 2:-2.4893125 
-10 1:0.31470898 2:-5.022375 
-10 1:0.33156641 2:-3.792 
-0.2362047185790352 1:0.37425977 2:-6.9378125 
-0.4250982915118464 1:0.068048828 2:-0.315 
-10 1:0.27386914 2:-3.9796875 
-1.799987067746634 1:0.27406641 2:-5.22475 
-1.74133042788993 1:0.20885156 2:-2.680375 
-8.980220581195399 1:0.19316602 2:-1.945125 
-1.616413474176426 1:0.24685352 2:-3.0428125 
-10 1:0.24696484 2:-2.446625 
-10 1:0.26213867 2:-2.9094375 
-10 1:0.2595918 2:-3.181375 
-10 1:0.42212695 2:-5.196375 
-10 1:0.27879492 2:-3.8149375 
-0.1795017922447904 1:0.2569082 2:-4.4128125 
-10 1:0.38552344 2:-4.6464375 
-10 1:0.2102168 2:-2.0330625 
-0.4405031983740241 1:0.43723828 2:-7.1905 
-10 1:0.37932617 2:-3.9695 
-3.764492717961082 1:0.40685938 2:-5.1049375 
-10 1:0.39195898 2:-3.22275 
-10 1:0.41378516 2:-2.7640625 
-0.8706765088384729 1:0.35055469 2:-5.5453125 
-10 1:0.3052793 2:-3.3136875 
-10 1:0.24243945 2:-2.4279375 
-10 1:0.55966797 2:-2.449125 
-10 1:0.35157227 2:-1.6589375 
-0.9643716237717859 1:0.29561328 2:-3.4695625 
-10 1:0.2521875 2:-3.2321875 
-10 1:0.34248828 2:-3.007375 
-8.634190999396576 1:0.21010352 2:-2.54275 
-0.2034573733360833 1:0.26810547 2:-6.101125 
-10 1:0.33385547 2:-3.1575 
-0.1834274020895381 1:0.40074023 2:-6.8451875 
-10 1:0.33954297 2:-2.632375 
-0.8933109659645841 1:0.21464844 2:-5.0144375 
-10 1:0.41551562 2:-4.2259375 
-1.309825007622416 1:0.21693359 2:-4.2391875 
-2.307729783946519 1:0.2454043 2:-2.608125 
-10 1:0.34483398 2:-3.801125 
-10 1:0.39958398 2:-4.91325 
-4.095802632648895 1:0.32321094 2:-4.373875 
-10 1:0.33283984 2:-3.3153125 
-2.596817995465786 1:0.25547266 2:-4.4555 
-10 1:0.27630664 2:-2.03475 
-1.063419759432347 1:0.44541211 2:-6.16325 
-10 1:0.40304883 2:-4.162625 
-10 1:0.36439648 2:-3.8094375 
-10 1:0.28808594 2:-2.365375 
-10 1:0.29001562 2:-3.314 
-10 1:0.29567383 2:-3.2821875 
-10 1:0.48453711 2:-3.700375 
-10 1:0.27653906 2:-1.923375 
-10 1:0.46163086 2:-3.4993125 
-10 1:0.5193418 2:-3.74275 
-0.1853074118690682 1:0.15910547 2:-4.0384375 
-10 1:0.22942383 2:-3.4251875 
-0.4055770580969008 1:0.24443555 2:-3.5398125 
-0.1661421625980836 1:0.2994082 2:-5.6973125 
-1.373900023270524 1:0.24310742 2:-3.7805625 
-10 1:0.26740625 2:-0.86625 
-0.2815688794515493 1:0.32063867 2:-4.3848125 
-10 1:0.24613477 2:-3.1555 
-9.980473774210859 1:0.31110156 2:-5.0136875 
-10 1:0.24218164 2:-3.77425 
-10 1:0.35942578 2:-2.83575 
-10 1:0.30999805 2:-3.1918125 
-10 1:0.23984961 2:-2.801125 
-10 1:0.30804102 2:-2.93125 
-0.9094600595237675 1:0.36796094 2:-5.66 
-10 1:0.365375 2:-2.8435 
-10 1:0.37133594 2:-5.0890625 
-6.719460914921315 1:0.54072852 2:-4.29325 
-0.1129873633337995 1:0.40919141 2:-6.5406875 
-8.195766882669739 1:0.48939844 2:-4.644625 
-10 1:0.29617773 2:-2.55825 
-10 1:0.39370508 2:-2.9211875 
