svm_type c_svc
kernel_type polynomial
degree 2
gamma 1
coef0 1
nr_class 2
total_sv 1490
rho 0.999156
label 1 -1
nr_sv 731 759
SV
0.01 1:0.30232617 2:-5.9131875 
0.01 1:0.16425195 2:-2.8780625 
0.01 1:0.23323633 2:-4.245875 
0.01 1:0.26739844 2:-3.47025 
0.01 1:0.23461914 2:-3.3475 
0.01 1:0.28325195 2:-4.861125 
0.01 1:0.33435352 2:-3.808875 
0.01 1:0.19907422 2:-3.6469375 
0.01 1:0.11708789 2:-2.7410625 
0.01 1:0.2636875 2:-4.38825 
0.01 1:0.30964648 2:-4.949125 
0.01 1:0.29937891 2:-5.5686875 
0.01 1:0.40496289 2:-6.0150625 
0.01 1:0.3134707 2:-3.9344375 
0.01 1:0.32455469 2:-6.3529375 
0.01 1:0.27851172 2:-5.1588125 
0.01 1:0.161375 2:-3.141875 
0.01 1:0.30006445 2:-4.989 
0.01 1:0.25207813 2:-5.338125 
0.01 1:0.24014258 2:-2.9931875 
0.01 1:0.39188867 2:-5.9671875 
0.01 1:0.20572852 2:-3.8619375 
0.01 1:0.34291211 2:-6.461375 
0.01 1:0.31355664 2:-4.3781875 
0.01 1:0.16754883 2:-3.00825 
0.01 1:0.2195957 2:-4.1358125 
0.01 1:0.15616016 2:-3.1676875 
0.01 1:0.16002539 2:-2.419375 
0.01 1:0.19980273 2:-2.6626875 
0.01 1:0.28785156 2:-4.107875 
0.01 1:0.1929668 2:-3.8806875 
0.01 1:0.17541602 2:-3.6166875 
0.01 1:0.34135156 2:-3.9849375 
0.01 1:0.29270117 2:-3.2854375 
0.01 1:0.26468555 2:-4.594875 
0.01 1:0.2980332 2:-4.735125 
0.01 1:0.37451172 2:-5.1918125 
0.01 1:0.36505469 2:-6.3261875 
0.01 1:0.22577344 2:-4.980125 
0.01 1:0.17110742 2:-3.0755625 
0.01 1:0.33290039 2:-3.62125 
0.01 1:0.32070508 2:-4.3083125 
0.01 1:0.46189453 2:-4.7460625 
0.01 1:0.34991016 2:-4.7875 
0.01 1:0.2875332 2:-5.1054375 
0.01 1:0.36113672 2:-5.1243125 
0.01 1:0.36351563 2:-4.783125 
0.01 1:0.18582227 2:-3.371625 
0.01 1:0.3866875 2:-5.8071875 
0.01 1:0.18260156 2:-3.7633125 
0.01 1:0.29004102 2:-4.75775 
0.01 1:0.19016016 2:-2.035125 
0.01 1:0.26513867 2:-4.947625 
0.01 1:0.27569727 2:-5.115 
0.01 1:0.22478906 2:-4.116125 
0.01 1:0.23526758 2:-3.806875 
0.01 1:0.22725781 2:-4.50175 
0.01 1:0.40533789 2:-6.4565 
0.01 1:0.13626172 2:-2.8964375 
0.01 1:0.18567383 2:-3.1919375 
0.01 1:0.23300781 2:-4.5359375 
0.01 1:0.29791797 2:-4.2606875 
0.01 1:0.13382422 2:-2.432 
0.01 1:0.27994922 2:-4.938125 
0.01 1:0.22071289 2:-3.80325 
0.01 1:0.15137891 2:-3.006625 
0.01 1:0.19955273 2:-3.771 
0.01 1:0.27325391 2:-4.1274375 
0.01 1:0.24926172 2:-4.9521875 
0.01 1:0.23277148 2:-3.7389375 
0.01 1:0.33430664 2:-5.211375 
0.01 1:0.25137305 2:-4.0179375 
0.01 1:0.35638672 2:-4.4035 
0.01 1:0.32558398 2:-5.3535625 
0.01 1:0.33105664 2:-4.730375 
0.01 1:0.22247266 2:-3.88825 
0.01 1:0.21736328 2:-4.1575 
0.01 1:0.25207227 2:-3.5475625 
0.01 1:0.31178906 2:-5.2914375 
0.01 1:0.42903711 2:-5.4879375 
0.01 1:0.34298242 2:-4.6171875 
0.01 1:0.31602344 2:-4.9779375 
0.01 1:0.20891211 2:-4.05275 
0.01 1:0.23894141 2:-3.915 
0.01 1:0.25526562 2:-5.0723125 
0.01 1:0.24241602 2:-4.259875 
0.01 1:0.32598828 2:-4.6885625 
0.01 1:0.28779688 2:-4.5116875 
0.01 1:0.20727734 2:-4.0871875 
0.01 1:0.17242188 2:-3.959375 
0.01 1:0.34061719 2:-4.7765625 
0.01 1:0.26540234 2:-4.78625 
0.01 1:0.34503711 2:-5.2139375 
0.01 1:0.35044531 2:-4.216 
0.01 1:0.27610742 2:-4.125 
0.01 1:0.31813086 2:-3.305625 
0.01 1:0.29736914 2:-3.4948125 
0.01 1:0.34364453 2:-4.4915 
0.01 1:0.25074023 2:-3.61675 
0.01 1:0.33061523 2:-4.770625 
0.01 1:0.32033008 2:-5.8004375 
0.01 1:0.32923242 2:-4.2795625 
0.01 1:0.30735742 2:-5.0974375 
0.01 1:0.37532617 2:-3.6785 
0.01 1:0.29718555 2:-5.8158125 
0.01 1:0.18749414 2:-3.6476875 
0.01 1:0.37076953 2:-6.1594375 
0.01 1:0.36164258 2:-6.250875 
0.01 1:0.19467773 2:-4.1794375 
0.01 1:0.17297461 2:-3.49175 
0.01 1:0.27598633 2:-4.2910625 
0.01 1:0.32173047 2:-4.30175 
0.01 1:0.30709375 2:-4.985375 
0.01 1:0.35232031 2:-6.1666875 
0.01 1:0.26931836 2:-4.2143125 
0.01 1:0.26952539 2:-5.3805 
0.01 1:0.30012305 2:-4.593625 
0.01 1:0.39472266 2:-4.070375 
0.01 1:0.25833789 2:-4.347125 
0.01 1:0.29372266 2:-4.1110625 
0.01 1:0.16129102 2:-2.2840625 
0.01 1:0.35225586 2:-5.7073125 
0.01 1:0.34220117 2:-4.86175 
0.01 1:0.30457617 2:-4.800375 
0.01 1:0.26139648 2:-3.9065 
0.01 1:0.23833789 2:-3.5234375 
0.01 1:0.25609961 2:-4.8286875 
0.01 1:0.46158789 2:-6.3245 
0.01 1:0.18111133 2:-3.8718125 
0.01 1:0.10470117 2:-2.0403125 
0.01 1:0.25066016 2:-5.3246875 
0.01 1:0.31887695 2:-4.1925625 
0.01 1:0.28611328 2:-4.2628125 
0.01 1:0.29109961 2:-4.8304375 
0.01 1:0.3342832 2:-5.083375 
0.01 1:0.37238281 2:-5.6673125 
0.01 1:0.35248828 2:-6.0931875 
0.01 1:0.23925195 2:-3.3940625 
0.01 1:0.29116406 2:-4.66075 
0.01 1:0.16525 2:-3.4219375 
0.01 1:0.34221484 2:-5.6703125 
0.01 1:0.36295508 2:-4.2379375 
0.01 1:0.34278125 2:-6.560875 
0.01 1:0.18889648 2:-4.22575 
0.01 1:0.34974219 2:-5.7724375 
0.01 1:0.45111328 2:-4.638 
0.01 1:0.2734082 2:-5.0863125 
0.01 1:0.25859961 2:-4.34675 
0.01 1:0.31899414 2:-5.4053125 
0.01 1:0.32048242 2:-5.0265 
0.01 1:0.34374023 2:-5.2498125 
0.01 1:0.37499023 2:-5.383375 
0.01 1:0.23031055 2:-5.0878125 
0.01 1:0.30944727 2:-5.53075 
0.01 1:0.1929082 2:-3.553125 
0.01 1:0.46312695 2:-4.068625 
0.01 1:0.42146484 2:-5.1829375 
0.01 1:0.32608203 2:-5.2506875 
0.01 1:0.32270898 2:-4.6103125 
0.01 1:0.18949023 2:-2.7203125 
0.01 1:0.33836133 2:-3.841 
0.01 1:0.1909375 2:-3.7321875 
0.01 1:0.29849609 2:-4.329875 
0.01 1:0.23940039 2:-4.7823125 
0.01 1:0.20805078 2:-3.4991875 
0.01 1:0.28728125 2:-5.9145 
0.01 1:0.18129297 2:-3.7985625 
0.01 1:0.18807031 2:-4.1786875 
0.01 1:0.27955469 2:-5.9626875 
0.01 1:0.23505273 2:-4.928375 
0.01 1:0.28495703 2:-4.809125 
0.01 1:0.31384961 2:-5.691875 
0.01 1:0.22788086 2:-4.53975 
0.01 1:0.29710352 2:-5.6455625 
0.01 1:0.3482832 2:-5.8353125 
0.01 1:0.37054687 2:-5.4014375 
0.01 1:0.20766602 2:-4.0169375 
0.01 1:0.29980664 2:-6.0154375 
0.01 1:0.24275586 2:-4.3421875 
0.01 1:0.3327168 2:-4.190125 
0.01 1:0.23866406 2:-4.9033125 
0.01 1:0.3979668 2:-6.434375 
0.01 1:0.3255625 2:-6.09575 
0.01 1:0.28389648 2:-5.61625 
0.01 1:0.20483398 2:-3.5325625 
0.01 1:0.27905078 2:-4.1588125 
0.01 1:0.30452148 2:-5.4704375 
0.01 1:0.22775977 2:-4.160375 
0.01 1:0.3599668 2:-4.7544375 
0.01 1:0.32683008 2:-4.0153125 
0.01 1:0.16895703 2:-2.7516875 
0.01 1:0.18250586 2:-3.7494375 
0.01 1:0.27755664 2:-5.39075 
0.01 1:0.226 2:-4.10375 
0.01 1:0.20174609 2:-3.821375 
0.01 1:0.33484766 2:-6.761375 
0.01 1:0.23505469 2:-3.79325 
0.01 1:0.47209961 2:-4.102375 
0.01 1:0.2723418 2:-3.8523125 
0.01 1:0.30117187 2:-4.8214375 
0.01 1:0.39258008 2:-5.3465 
0.01 1:0.21582812 2:-3.5631875 
0.01 1:0.39804688 2:-4.837375 
0.01 1:0.28095313 2:-3.7199375 
0.01 1:0.25234375 2:-3.647875 
0.01 1:0.33180273 2:-4.425125 
0.01 1:0.17717383 2:-3.5808125 
0.01 1:0.33639062 2:-5.632125 
0.01 1:0.29933398 2:-5.322 
0.01 1:0.46201172 2:-5.260375 
0.01 1:0.39512695 2:-6.255875 
0.01 1:0.264375 2:-3.62875 
0.01 1:0.31404102 2:-4.346125 
0.01 1:0.28978516 2:-5.5816875 
0.01 1:0.17264844 2:-2.9095625 
0.01 1:0.24851367 2:-4.4968125 
0.01 1:0.20826953 2:-2.767125 
0.01 1:0.28607422 2:-5.5879375 
0.01 1:0.19273242 2:-3.776 
0.01 1:0.28648438 2:-5.312 
0.01 1:0.44980664 2:-3.9481875 
0.01 1:0.22086914 2:-3.7381875 
0.01 1:0.33143359 2:-5.4431875 
0.01 1:0.32681055 2:-5.6421875 
0.01 1:0.25287305 2:-4.3624375 
0.01 1:0.30970703 2:-5.2878125 
0.01 1:0.22991602 2:-5.1326875 
0.01 1:0.25782422 2:-4.0645625 
0.01 1:0.12288477 2:-2.757375 
0.01 1:0.19742187 2:-4.047875 
0.01 1:0.3624082 2:-4.4905625 
0.01 1:0.39014258 2:-6.121875 
0.01 1:0.28554492 2:-5.41175 
0.01 1:0.26200195 2:-4.2871875 
0.01 1:0.17265039 2:-3.02575 
0.01 1:0.40245898 2:-4.9370625 
0.01 1:0.17937695 2:-2.999875 
0.01 1:0.29432422 2:-5.3350625 
0.01 1:0.21678516 2:-3.9260625 
0.01 1:0.19486914 2:-3.263375 
0.01 1:0.2285293 2:-4.7909375 
0.01 1:0.25946094 2:-4.9086875 
0.01 1:0.32372266 2:-4.3731875 
0.01 1:0.36457422 2:-5.483875 
0.01 1:0.29497266 2:-5.505625 
0.01 1:0.3433125 2:-5.63875 
0.01 1:0.31481055 2:-3.7885625 
0.01 1:0.309625 2:-4.95275 
0.01 1:0.27708008 2:-6.11525 
0.01 1:0.24723047 2:-4.4385 
0.01 1:0.098121094 2:-1.977625 
0.01 1:0.33994922 2:-5.904125 
0.01 1:0.35743555 2:-5.2845 
0.01 1:0.30871875 2:-4.3361875 
0.01 1:0.30313867 2:-3.5388125 
0.01 1:0.33349023 2:-5.87225 
0.01 1:0.36463672 2:-5.2138125 
0.01 1:0.29096289 2:-5.5216875 
0.01 1:0.21616992 2:-4.3509375 
0.01 1:0.25119336 2:-5.2188125 
0.01 1:0.30472266 2:-6.0991875 
0.01 1:0.24595313 2:-5.170875 
0.01 1:0.34316602 2:-5.2844375 
0.01 1:0.12046484 2:-2.772625 
0.01 1:0.37414063 2:-4.146625 
0.01 1:0.2322793 2:-4.3825625 
0.01 1:0.32144727 2:-5.7114375 
0.01 1:0.29976758 2:-5.8829375 
0.01 1:0.25285937 2:-4.1435625 
0.01 1:0.25238281 2:-3.4760625 
0.01 1:0.32075781 2:-5.06075 
0.01 1:0.35883984 2:-5.7729375 
0.01 1:0.17863086 2:-3.4599375 
0.01 1:0.19761133 2:-2.0180625 
0.01 1:0.15392578 2:-3.3181875 
0.01 1:0.21429492 2:-4.0885625 
0.01 1:0.15913672 2:-2.57275 
0.01 1:0.33027148 2:-4.956875 
0.01 1:0.27220117 2:-3.6044375 
0.01 1:0.33854492 2:-5.526625 
0.01 1:0.25274414 2:-3.2659375 
0.01 1:0.36293945 2:-4.72275 
0.01 1:0.38269336 2:-5.2319375 
0.01 1:0.096986328 2:-2.1764375 
0.01 1:0.38685742 2:-5.72125 
0.01 1:0.36966211 2:-4.90725 
0.01 1:0.36369922 2:-5.36625 
0.01 1:0.36968945 2:-4.4983125 
0.01 1:0.20227539 2:-2.6524375 
0.01 1:0.32687305 2:-5.4759375 
0.01 1:0.20184766 2:-3.3630625 
0.01 1:0.32619922 2:-5.0000625 
0.01 1:0.31619727 2:-6.3761875 
0.01 1:0.31189453 2:-5.001625 
0.01 1:0.32946484 2:-5.1068125 
0.01 1:0.30473828 2:-5.8505 
0.01 1:0.28028516 2:-4.858875 
0.01 1:0.2922207 2:-5.43275 
0.01 1:0.23249414 2:-3.9426875 
0.01 1:0.26087305 2:-4.1783125 
0.01 1:0.34523242 2:-6.061875 
0.01 1:0.33458398 2:-5.768125 
0.01 1:0.38610742 2:-6.1371875 
0.01 1:0.24331641 2:-4.9111875 
0.01 1:0.22683203 2:-4.1194375 
0.01 1:0.35151367 2:-5.6770625 
0.01 1:0.20374609 2:-3.9115625 
0.01 1:0.34056836 2:-6.399125 
0.01 1:0.14449023 2:-3.170375 
0.01 1:0.32004297 2:-4.86475 
0.01 1:0.37266602 2:-5.2381875 
0.01 1:0.25951563 2:-3.7545625 
0.01 1:0.25950391 2:-5.104375 
0.01 1:0.29525 2:-4.57775 
0.01 1:0.18617969 2:-3.2291875 
0.01 1:0.17439063 2:-3.1875 
0.01 1:0.19478711 2:-3.9204375 
0.01 1:0.38851953 2:-5.6038125 
0.01 1:0.4188418 2:-5.466875 
0.01 1:0.41641016 2:-4.679 
0.01 1:0.20263086 2:-3.304875 
0.01 1:0.30674414 2:-6.0086875 
0.01 1:0.38054102 2:-4.196375 
0.01 1:0.32592969 2:-5.55525 
0.01 1:0.41155273 2:-6.8126875 
0.01 1:0.24235156 2:-4.3270625 
0.01 1:0.32580078 2:-5.342 
0.01 1:0.3574375 2:-5.559125 
0.01 1:0.31873438 2:-5.045375 
0.01 1:0.22789648 2:-4.39775 
0.01 1:0.23656055 2:-4.7846875 
0.01 1:0.302 2:-6.17125 
0.01 1:0.35835547 2:-6.3311875 
0.01 1:0.26091406 2:-5.306875 
0.01 1:0.17083203 2:-4.0699375 
0.01 1:0.18941211 2:-4.615375 
0.01 1:0.24383789 2:-4.421625 
0.01 1:0.30045117 2:-5.435 
0.01 1:0.13873633 2:-2.1679375 
0.01 1:0.24426367 2:-5.466 
0.01 1:0.099441406 2:-2.0795 
0.01 1:0.18944727 2:-4.271 
0.01 1:0.20151562 2:-4.401 
0.01 1:0.3229082 2:-6.2829375 
0.01 1:0.23021875 2:-4.95975 
0.01 1:0.24755859 2:-4.672875 
0.01 1:0.31121484 2:-5.3504375 
0.01 1:0.27235742 2:-4.1454375 
0.01 1:0.31517969 2:-4.672375 
0.01 1:0.35369141 2:-5.0035 
0.01 1:0.34079687 2:-4.7308125 
0.01 1:0.28069141 2:-5.3175625 
0.01 1:0.33494336 2:-6.0705625 
0.01 1:0.17751758 2:-3.8049375 
0.01 1:0.48474609 2:-6.674125 
0.01 1:0.31896094 2:-5.0758125 
0.01 1:0.42489258 2:-5.367 
0.01 1:0.28961328 2:-5.0679375 
0.01 1:0.20986914 2:-3.282625 
0.01 1:0.29611914 2:-4.7405 
0.01 1:0.22431836 2:-4.4473125 
0.01 1:0.23323438 2:-4.785 
0.01 1:0.28777148 2:-3.8546875 
0.01 1:0.22549609 2:-5.097125 
0.01 1:0.23999023 2:-4.5229375 
0.01 1:0.33577344 2:-4.9798125 
0.01 1:0.36389453 2:-4.4950625 
0.01 1:0.29553906 2:-3.6444375 
0.01 1:0.25910937 2:-4.9125 
0.01 1:0.19036914 2:-4.209875 
0.01 1:0.16502344 2:-2.9746875 
0.01 1:0.27081641 2:-5.5245 
0.01 1:0.28028516 2:-4.547 
0.01 1:0.15526172 2:-3.1831875 
0.01 1:0.2285625 2:-4.742625 
0.01 1:0.31305664 2:-5.7598125 
0.01 1:0.27074414 2:-3.84525 
0.01 1:0.18848047 2:-3.5241875 
0.01 1:0.23993359 2:-3.5594375 
0.01 1:0.32173438 2:-3.9305 
0.01 1:0.24639844 2:-4.5955625 
0.01 1:0.23110156 2:-3.36125 
0.01 1:0.23009766 2:-4.3459375 
0.01 1:0.36611328 2:-5.1491875 
0.01 1:0.38274023 2:-5.827375 
0.01 1:0.17215039 2:-3.63775 
0.01 1:0.27383008 2:-5.41075 
0.01 1:0.33 2:-5.3965625 
0.01 1:0.3435332 2:-5.4168125 
0.01 1:0.2544375 2:-4.094875 
0.01 1:0.24917187 2:-4.7546875 
0.01 1:0.22132813 2:-4.737625 
0.01 1:0.38236328 2:-5.1270625 
0.01 1:0.15141602 2:-3.1495 
0.01 1:0.35045508 2:-5.5129375 
0.01 1:0.11356445 2:-1.707875 
0.01 1:0.28158594 2:-4.8255 
0.01 1:0.28799609 2:-4.1228125 
0.01 1:0.38253711 2:-4.640375 
0.01 1:0.15877148 2:-2.7178125 
0.01 1:0.18411523 2:-3.1863125 
0.01 1:0.13429297 2:-3.16725 
0.01 1:0.25813672 2:-5.1858125 
0.01 1:0.36211133 2:-5.380375 
0.01 1:0.19598633 2:-3.6105625 
0.01 1:0.28885156 2:-5.466625 
0.01 1:0.22812891 2:-3.6428125 
0.01 1:0.31932422 2:-5.7755 
0.01 1:0.35314844 2:-5.3280625 
0.01 1:0.35810352 2:-5.0428125 
0.01 1:0.34525391 2:-5.8870625 
0.01 1:0.31505469 2:-4.7126875 
0.01 1:0.31575195 2:-5.014625 
0.01 1:0.25590625 2:-4.9785625 
0.01 1:0.16066602 2:-3.24775 
0.01 1:0.26879688 2:-3.7056875 
0.01 1:0.23321484 2:-5.1535625 
0.01 1:0.24242187 2:-4.7375625 
0.01 1:0.15169531 2:-2.536625 
0.01 1:0.32768555 2:-5.0791875 
0.01 1:0.19032617 2:-3.7165 
0.01 1:0.33830469 2:-5.4771875 
0.01 1:0.23816016 2:-3.161375 
0.01 1:0.2439668 2:-3.3909375 
0.01 1:0.25033008 2:-4.57875 
0.01 1:0.25346875 2:-4.811125 
0.01 1:0.28091016 2:-5.2229375 
0.01 1:0.37686719 2:-6.1020625 
0.01 1:0.37833398 2:-4.7169375 
0.01 1:0.40001758 2:-6.005875 
0.01 1:0.32817578 2:-4.99775 
0.01 1:0.24972461 2:-4.840625 
0.01 1:0.19108789 2:-4.133375 
0.01 1:0.25584961 2:-3.3073125 
0.01 1:0.21626758 2:-3.0046875 
0.01 1:0.24691016 2:-4.2561875 
0.01 1:0.27854297 2:-5.9966875 
0.01 1:0.21939258 2:-4.7096875 
0.01 1:0.29558789 2:-5.2064375 
0.01 1:0.36405469 2:-5.506625 
0.01 1:0.32339258 2:-4.312625 
0.01 1:0.18537695 2:-3.6905 
0.01 1:0.24902539 2:-4.4651875 
0.01 1:0.31235938 2:-3.728625 
0.01 1:0.31249219 2:-4.5206875 
0.01 1:0.28220898 2:-5.411 
0.01 1:0.34674219 2:-6.1005625 
0.01 1:0.25249414 2:-4.8134375 
0.01 1:0.15475781 2:-3.454125 
0.01 1:0.30721289 2:-5.265875 
0.01 1:0.22701367 2:-3.6714375 
0.01 1:0.2453125 2:-4.7945625 
0.01 1:0.26214648 2:-5.489875 
0.01 1:0.13599414 2:-3.2916875 
0.01 1:0.13015625 2:-2.3803125 
0.01 1:0.22891992 2:-4.087 
0.01 1:0.22679297 2:-4.1190625 
0.01 1:0.088638672 2:-1.6873125 
0.01 1:0.18546484 2:-3.7265625 
0.01 1:0.27930469 2:-4.776375 
0.01 1:0.21380859 2:-4.451875 
0.01 1:0.20828516 2:-3.778375 
0.01 1:0.23928711 2:-4.3355625 
0.01 1:0.26014062 2:-5.9321875 
0.01 1:0.13742773 2:-2.704375 
0.01 1:0.24703516 2:-4.5748125 
0.01 1:0.21986328 2:-4.9395 
0.01 1:0.30321094 2:-5.1368125 
0.01 1:0.25118164 2:-5.15825 
0.01 1:0.29588281 2:-5.0153125 
0.01 1:0.25108789 2:-5.1398125 
0.01 1:0.3152832 2:-4.88725 
0.01 1:0.18689844 2:-4.18925 
0.01 1:0.1223125 2:-2.686875 
0.01 1:0.36935156 2:-4.7301875 
0.01 1:0.23406836 2:-3.316875 
0.01 1:0.40715039 2:-4.4429375 
0.01 1:0.36196094 2:-4.796 
0.01 1:0.24729492 2:-4.18675 
0.01 1:0.26040039 2:-4.4934375 
0.01 1:0.25937695 2:-3.4583125 
0.01 1:0.21744336 2:-4.209875 
0.01 1:0.26240039 2:-4.5095625 
0.01 1:0.33195117 2:-4.290125 
0.01 1:0.34316211 2:-5.11375 
0.01 1:0.3021875 2:-4.1948125 
0.01 1:0.28017773 2:-4.6630625 
0.01 1:0.19176953 2:-3.300375 
0.01 1:0.18700586 2:-3.968875 
0.01 1:0.33394141 2:-5.1305 
0.01 1:0.20199219 2:-4.3338125 
0.01 1:0.3560332 2:-4.8226875 
0.01 1:0.26353125 2:-5.2593125 
0.01 1:0.25404492 2:-4.9859375 
0.01 1:0.3019375 2:-5.195875 
0.01 1:0.22598828 2:-4.0158125 
0.01 1:0.19266211 2:-3.5565625 
0.01 1:0.35314648 2:-5.098125 
0.01 1:0.29303711 2:-5.9831875 
0.01 1:0.30941602 2:-4.469125 
0.01 1:0.35025195 2:-5.4346875 
0.01 1:0.17841406 2:-3.1833125 
0.01 1:0.32103516 2:-4.3830625 
0.01 1:0.31308203 2:-6.5335625 
0.01 1:0.2569082 2:-4.61875 
0.01 1:0.31373047 2:-4.525875 
0.01 1:0.10522656 2:-1.86675 
0.01 1:0.24534766 2:-4.24725 
0.01 1:0.19892578 2:-2.933375 
0.01 1:0.29341211 2:-5.0375625 
0.01 1:0.14224023 2:-3.3098125 
0.01 1:0.28376367 2:-5.632375 
0.01 1:0.37445117 2:-4.3005625 
0.01 1:0.31049414 2:-5.8270625 
0.01 1:0.23560938 2:-4.2560625 
0.01 1:0.40345508 2:-5.1710625 
0.01 1:0.2657168 2:-4.5379375 
0.01 1:0.24109766 2:-4.7700625 
0.01 1:0.21969531 2:-5.0075 
0.01 1:0.27729492 2:-5.7964375 
0.01 1:0.30561719 2:-4.2335 
0.01 1:0.29319922 2:-4.9666875 
0.01 1:0.19292188 2:-4.2135 
0.01 1:0.16263281 2:-4.21425 
0.01 1:0.24239453 2:-3.683875 
0.01 1:0.16492383 2:-2.9089375 
0.01 1:0.19742383 2:-3.058375 
0.01 1:0.32304297 2:-5.7953125 
0.01 1:0.23500977 2:-4.5056875 
0.01 1:0.22179883 2:-4.311125 
0.01 1:0.33344922 2:-4.6826875 
0.01 1:0.27213672 2:-4.651375 
0.01 1:0.28000586 2:-5.0475 
0.01 1:0.24602148 2:-5.08975 
0.01 1:0.34460547 2:-4.783125 
0.01 1:0.20388867 2:-4.0078125 
0.01 1:0.23042383 2:-4.1130625 
0.01 1:0.19194727 2:-3.5285 
0.01 1:0.1992207 2:-4.415625 
0.01 1:0.19694531 2:-3.9195625 
0.01 1:0.28355469 2:-4.5768125 
0.01 1:0.2641875 2:-4.3831875 
0.01 1:0.35918359 2:-5.177625 
0.01 1:0.20975977 2:-3.153625 
0.01 1:0.29563281 2:-5.2989375 
0.01 1:0.27587695 2:-3.5220625 
0.01 1:0.22634375 2:-4.1656875 
0.01 1:0.23654492 2:-4.495125 
0.01 1:0.31331641 2:-3.9036875 
0.01 1:0.24048633 2:-3.747625 
0.01 1:0.32211914 2:-4.326625 
0.01 1:0.31715625 2:-4.7206875 
0.01 1:0.33679883 2:-3.4530625 
0.01 1:0.30251172 2:-3.3386875 
0.01 1:0.39397461 2:-3.8175 
0.01 1:0.25571094 2:-4.712625 
0.01 1:0.32649414 2:-4.8268125 
0.01 1:0.30823633 2:-5.581375 
0.01 1:0.26426953 2:-3.7528125 
0.01 1:0.22072852 2:-3.839 
0.01 1:0.22940039 2:-3.371875 
0.01 1:0.34047852 2:-4.48025 
0.01 1:0.39775781 2:-5.4693125 
0.01 1:0.18567578 2:-3.196375 
0.01 1:0.40342578 2:-6.348125 
0.01 1:0.11514062 2:-2.079875 
0.01 1:0.27491992 2:-5.1063125 
0.01 1:0.34011523 2:-4.4020625 
0.01 1:0.19501367 2:-2.6203125 
0.01 1:0.3259375 2:-5.6773125 
0.01 1:0.25251953 2:-4.5294375 
0.01 1:0.24896289 2:-5.6844375 
0.01 1:0.35208398 2:-2.5773125 
0.01 1:0.47109961 2:-4.566125 
0.01 1:0.32918945 2:-4.736375 
0.01 1:0.24475781 2:-5.235875 
0.01 1:0.249 2:-3.5843125 
0.01 1:0.34269922 2:-4.25825 
0.01 1:0.30334375 2:-5.173875 
0.01 1:0.27080273 2:-4.5884375 
0.01 1:0.2614707 2:-4.7341875 
0.01 1:0.28152734 2:-5.4225 
0.01 1:0.2542793 2:-4.8716875 
0.01 1:0.43359375 2:-3.0754375 
0.01 1:0.38183594 2:-4.813125 
0.01 1:0.32441602 2:-5.6034375 
0.01 1:0.30524609 2:-3.7535625 
0.01 1:0.20672852 2:-4.349125 
0.01 1:0.18959375 2:-3.477625 
0.01 1:0.3448418 2:-4.1620625 
0.01 1:0.19666016 2:-2.7878125 
0.01 1:0.23275 2:-3.6356875 
0.01 1:0.4310957 2:-3.0286875 
0.01 1:0.30914844 2:-5.638125 
0.01 1:0.18744141 2:-4.0124375 
0.01 1:0.19954297 2:-4.1919375 
0.01 1:0.25959375 2:-4.4963125 
0.01 1:0.29066602 2:-5.2228125 
0.01 1:0.16261914 2:-3.700375 
0.01 1:0.29131055 2:-5.148 
0.01 1:0.56246484 2:-4.2535625 
0.01 1:0.25485742 2:-3.544625 
0.01 1:0.16104883 2:-3.330625 
0.01 1:0.046820312 2:-0.9586875 
0.01 1:0.067253906 2:-1.4940625 
0.01 1:0.22654297 2:-4.5641875 
0.01 1:0.28054102 2:-4.74375 
0.01 1:0.29606055 2:-4.3289375 
0.01 1:0.27980664 2:-4.7280625 
0.01 1:0.37046094 2:-5.16625 
0.01 1:0.36050586 2:-5.13925 
0.01 1:0.21078516 2:-3.50975 
0.01 1:0.17895703 2:-3.934375 
0.01 1:0.26287891 2:-5.386375 
0.01 1:0.41386719 2:-5.3438125 
0.01 1:0.25487305 2:-4.266625 
0.01 1:0.30711719 2:-6.25125 
0.01 1:0.26615234 2:-6.0169375 
0.01 1:0.21031055 2:-4.0326875 
0.01 1:0.1327832 2:-2.80375 
0.01 1:0.20666406 2:-3.6920625 
0.01 1:0.24755078 2:-4.476 
0.01 1:0.2448418 2:-3.6040625 
0.01 1:0.22137305 2:-4.4660625 
0.01 1:0.16068945 2:-2.8523125 
0.01 1:0.14626172 2:-2.79875 
0.01 1:0.38603711 2:-5.7089375 
0.01 1:0.36771484 2:-4.042875 
0.01 1:0.42561328 2:-5.0830625 
0.01 1:0.25457422 2:-4.7360625 
0.01 1:0.40423828 2:-5.0844375 
0.01 1:0.23528906 2:-5.5748125 
0.01 1:0.23816602 2:-3.424875 
0.01 1:0.22977344 2:-4.459 
0.01 1:0.22573437 2:-5.1725625 
0.01 1:0.24811523 2:-4.385125 
0.01 1:0.19322656 2:-3.948625 
0.01 1:0.25514844 2:-3.4875 
0.01 1:0.33202344 2:-4.4995625 
0.01 1:0.43722656 2:-4.279375 
0.01 1:0.3137832 2:-4.3058125 
0.01 1:0.26782227 2:-4.34 
0.01 1:0.25541797 2:-3.2610625 
0.01 1:0.33197852 2:-4.3599375 
0.01 1:0.24795898 2:-3.6968125 
0.01 1:0.41069727 2:-6.33175 
0.01 1:0.35206836 2:-4.7219375 
0.01 1:0.30229102 2:-4.7425 
0.01 1:0.33002344 2:-4.5489375 
0.01 1:0.30280078 2:-5.24075 
0.01 1:0.25445313 2:-3.2235625 
0.01 1:0.5255957 2:-5.70775 
0.01 1:0.2941543 2:-5.671 
0.01 1:0.30228516 2:-4.418375 
0.01 1:0.27196875 2:-4.4168125 
0.01 1:0.3350332 2:-4.747125 
0.01 1:0.32950586 2:-5.28025 
0.01 1:0.28805859 2:-4.6735 
0.01 1:0.27817773 2:-5.013 
0.01 1:0.3691582 2:-5.221 
0.01 1:0.26773242 2:-4.181625 
0.01 1:0.30394922 2:-5.17475 
0.01 1:0.29885547 2:-5.465125 
0.01 1:0.23125195 2:-4.1251875 
0.01 1:0.27708008 2:-3.813875 
0.01 1:0.29437695 2:-4.4804375 
0.01 1:0.21803125 2:-4.6393125 
0.01 1:0.28741406 2:-6.508375 
0.01 1:0.27556055 2:-4.5849375 
0.01 1:0.19014453 2:-3.5728125 
0.01 1:0.47537305 2:-4.7585 
0.01 1:0.33665625 2:-4.9698125 
0.01 1:0.33357617 2:-5.66975 
0.01 1:0.29271875 2:-4.6921875 
0.01 1:0.098136719 2:-1.4321875 
0.01 1:0.22839258 2:-3.99575 
0.01 1:0.36239258 2:-5.0970625 
0.01 1:0.39016797 2:-4.9833125 
0.01 1:0.37181836 2:-4.92175 
0.01 1:0.34039844 2:-5.828875 
0.01 1:0.3381582 2:-5.9806875 
0.01 1:0.26001172 2:-3.86525 
0.01 1:0.27386914 2:-3.9796875 
0.01 1:0.3414082 2:-4.7151875 
0.01 1:0.19181836 2:-4.0843125 
0.01 1:0.25605078 2:-4.6960625 
0.01 1:0.33826953 2:-5.990625 
0.01 1:0.29062891 2:-4.898125 
0.01 1:0.29903516 2:-4.6679375 
0.01 1:0.23970312 2:-3.829 
0.01 1:0.28197461 2:-5.886 
0.01 1:0.37932617 2:-3.9695 
0.01 1:0.21333594 2:-3.8818125 
0.01 1:0.17953711 2:-3.50825 
0.01 1:0.16666602 2:-3.181875 
0.01 1:0.25860352 2:-4.259625 
0.01 1:0.40974609 2:-6.5911875 
0.01 1:0.23354297 2:-3.1538125 
0.01 1:0.2085332 2:-3.418375 
0.01 1:0.33665234 2:-5.5881875 
0.01 1:0.35732422 2:-5.45525 
0.01 1:0.29158789 2:-5.2996875 
0.01 1:0.36516211 2:-4.9870625 
0.01 1:0.35107031 2:-5.908875 
0.01 1:0.41186133 2:-5.304625 
0.01 1:0.21062695 2:-4.137 
0.01 1:0.24916992 2:-4.545 
0.01 1:0.12539453 2:-2.4486875 
0.01 1:0.29625195 2:-4.1665 
0.01 1:0.30539844 2:-5.5684375 
0.01 1:0.32077539 2:-4.60375 
0.01 1:0.39958398 2:-4.91325 
0.01 1:0.34628711 2:-5.7885625 
0.01 1:0.39264844 2:-5.5818125 
0.01 1:0.26417188 2:-4.3373125 
0.01 1:0.45968945 2:-5.043375 
0.01 1:0.29028516 2:-4.75325 
0.01 1:0.25547266 2:-4.4555 
0.01 1:0.27573828 2:-4.6065625 
0.01 1:0.44541211 2:-6.16325 
0.01 1:0.39750586 2:-5.7055625 
0.01 1:0.29246875 2:-5.152625 
0.01 1:0.28086523 2:-5.5986875 
0.01 1:0.35510156 2:-5.9024375 
0.01 1:0.5193418 2:-3.74275 
0.01 1:0.2403418 2:-4.811 
0.01 1:0.22824414 2:-4.942875 
0.01 1:0.23441406 2:-3.7499375 
0.01 1:0.31110156 2:-5.0136875 
0.01 1:0.37423047 2:-5.276625 
0.01 1:0.18012109 2:-3.3941875 
-0.01 1:0.19740234 2:-4.139 
-0.01 1:0.19057617 2:-3.876 
-0.0001343602573575613 1:0.12761914 2:-3.1504375 
-0.01 1:0.21072461 2:-4.0576875 
-0.01 1:0.27167383 2:-5.0855 
-0.01 1:0.25998047 2:-4.9770625 
-0.01 1:0.20427539 2:-3.7735625 
-0.01 1:0.32394141 2:-4.4250625 
-0.01 1:0.41233789 2:-5.5705 
-0.01 1:0.25282812 2:-4.810375 
-0.01 1:0.31595508 2:-5.7154375 
-0.01 1:0.25022266 2:-4.73425 
-0.01 1:0.304 2:-4.2009375 
-0.01 1:0.18037891 2:-3.96825 
-0.01 1:0.29611523 2:-5.2068125 
-0.01 1:0.32936523 2:-4.9815 
-0.01 1:0.28472852 2:-5.4161875 
-0.01 1:0.4166543 2:-6.32025 
-0.01 1:0.18958984 2:-3.7131875 
-0.01 1:0.30048633 2:-3.50575 
-0.01 1:0.31669531 2:-5.9090625 
-0.01 1:0.24378906 2:-4.7823125 
-0.01 1:0.25048242 2:-4.595625 
-0.01 1:0.24038672 2:-3.35325 
-0.01 1:0.25561523 2:-4.500125 
-0.009967138619163759 1:0.19188281 2:-2.0279375 
-0.01 1:0.13867773 2:-2.1584375 
-0.01 1:0.35275195 2:-5.096875 
-0.01 1:0.26702148 2:-5.8805 
-0.01 1:0.28038086 2:-4.51125 
-0.01 1:0.22581641 2:-4.0114375 
-0.01 1:0.2695293 2:-5.3064375 
-0.01 1:0.32865234 2:-6.080125 
-0.01 1:0.34478125 2:-5.5698125 
-0.01 1:0.24306445 2:-4.2538125 
-0.01 1:0.35733008 2:-5.43475 
-0.01 1:0.24010547 2:-3.806125 
-0.01 1:0.29919727 2:-3.645375 
-0.01 1:0.27054883 2:-3.8561875 
-0.01 1:0.2849375 2:-5.4588125 
-0.01 1:0.19022461 2:-2.65175 
-0.01 1:0.23377734 2:-4.336375 
-0.01 1:0.31200586 2:-4.8094375 
-0.01 1:0.27999219 2:-5.3160625 
-0.01 1:0.25310938 2:-3.3103125 
-0.01 1:0.33174023 2:-5.8703125 
-0.01 1:0.28758984 2:-5.0668125 
-0.01 1:0.18875977 2:-2.61775 
-0.01 1:0.088027344 2:-1.490625 
-0.01 1:0.21142773 2:-3.8814375 
-0.01 1:0.23956055 2:-4.2628125 
-0.01 1:0.23852734 2:-3.167 
-0.01 1:0.20630469 2:-3.6949375 
-0.01 1:0.26625781 2:-5.1054375 
-0.01 1:0.32689258 2:-5.5529375 
-0.01 1:0.32301953 2:-5.892625 
-0.01 1:0.33484375 2:-4.3180625 
-0.01 1:0.22968555 2:-4.1193125 
-0.01 1:0.39870508 2:-6.2614375 
-0.01 1:0.33263477 2:-5.3505 
-0.01 1:0.35856055 2:-4.7313125 
-0.01 1:0.31284375 2:-5.4084375 
-0.01 1:0.2319375 2:-3.6893125 
-0.01 1:0.35479102 2:-5.16575 
-0.01 1:0.22314258 2:-3.736875 
-0.01 1:0.19083008 2:-3.947625 
-0.01 1:0.21100977 2:-3.42 
-0.01 1:0.11845703 2:-2.042875 
-0.01 1:0.26405078 2:-4.7771875 
-0.01 1:0.1962832 2:-2.790375 
-0.0001020417832635023 1:0.1092793 2:-0.1195 
-0.008351831374321514 1:0.11400195 2:-1.7169375 
-0.01 1:0.21633789 2:-4.034625 
-0.01 1:0.1618418 2:-2.8759375 
-0.01 1:0.18683984 2:-4.0678125 
-0.00986563974264244 1:0.43748438 2:-3.083 
-0.006168963551146413 1:0.35098438 2:-2.575 
-0.01 1:0.18749023 2:-3.19425 
-0.01 1:0.42935742 2:-3.0300625 
-0.01 1:0.34130664 2:-5.77475 
-0.01 1:0.36448047 2:-5.8969375 
-0.01 1:0.42115039 2:-5.187125 
-0.01 1:0.3230332 2:-5.3358125 
-0.01 1:0.30964844 2:-4.2974375 
-0.01 1:0.33800977 2:-5.994625 
-0.01 1:0.25841797 2:-3.5398125 
-0.01 1:0.35771094 2:-4.2160625 
-0.01 1:0.27236914 2:-3.7054375 
-0.01 1:0.33359375 2:-4.6084375 
-0.01 1:0.32655273 2:-4.7643125 
-0.01 1:0.39511133 2:-5.375 
-0.01 1:0.2340332 2:-4.46175 
-0.01 1:0.24998438 2:-4.0945625 
-0.00956254698678569 1:0.39942773 2:-6.0199375 
-0.01 1:0.33074023 2:-4.362625 
-0.01 1:0.3622207 2:-4.4836875 
-0.01 1:0.33055078 2:-3.4485 
-0.01 1:0.22813477 2:-4.2560625 
-0.009839083678180706 1:0.26488281 2:-3.2199375 
-0.01 1:0.37798242 2:-5.36075 
-0.01 1:0.35523242 2:-5.1198125 
-0.01 1:0.26565625 2:-4.6618125 
-0.01 1:0.35425195 2:-5.4400625 
-0.01 1:0.37671289 2:-6.0123125 
-0.01 1:0.35028711 2:-6.351625 
-0.01 1:0.3164668 2:-4.8870625 
-0.01 1:0.28832227 2:-3.2866875 
-0.01 1:0.12416602 2:-2.0903125 
-0.01 1:0.22916211 2:-3.99775 
-7.919969203284201e-05 1:0.16533203 2:-3.7995 
-0.01 1:0.23810742 2:-3.604625 
-0.01 1:0.28788477 2:-4.9349375 
-0.01 1:0.22198633 2:-4.4669375 
-0.01 1:0.22388477 2:-3.3609375 
-0.01 1:0.31817187 2:-5.0755625 
-0.01 1:0.35138672 2:-6.545875 
-0.01 1:0.44136914 2:-5.2418125 
-0.01 1:0.35276562 2:-4.7933125 
-0.01 1:0.41430469 2:-6.158625 
-0.01 1:0.27231445 2:-5.374625 
-0.01 1:0.41318555 2:-4.2830625 
-0.01 1:0.31034766 2:-5.7493125 
-0.01 1:0.22929492 2:-4.1615 
-0.01 1:0.33296875 2:-5.5289375 
-0.01 1:0.18732031 2:-3.1871875 
-0.01 1:0.2555332 2:-4.80425 
-0.01 1:0.39208203 2:-3.828125 
-0.01 1:0.21854297 2:-4.6409375 
-0.01 1:0.32747266 2:-4.7500625 
-0.01 1:0.40318555 2:-5.302875 
-0.01 1:0.25605273 2:-4.287875 
-0.01 1:0.18422461 2:-4.210375 
-0.01 1:0.35768945 2:-6.08625 
-0.01 1:0.43245703 2:-6.32425 
-0.01 1:0.20708398 2:-4.1880625 
-0.01 1:0.25582617 2:-4.870375 
-0.01 1:0.18447266 2:-3.1966875 
-0.01 1:0.29941016 2:-4.748375 
-0.01 1:0.1780957 2:-3.2313125 
-0.009994025833450175 1:0.31336523 2:-3.929875 
-0.01 1:0.15466797 2:-3.45675 
-0.01 1:0.2695293 2:-5.125 
-0.01 1:0.31982812 2:-5.0585 
-0.01 1:0.20795703 2:-3.82 
-0.01 1:0.19603711 2:-3.65075 
-0.01 1:0.29295898 2:-4.6575625 
-0.01 1:0.25668555 2:-4.356 
-0.01 1:0.30117969 2:-5.2889375 
-0.01 1:0.52735156 2:-4.2251875 
-0.01 1:0.2899082 2:-4.8065 
-0.01 1:0.25061328 2:-4.3894375 
-0.01 1:0.25239648 2:-4.017875 
-0.01 1:0.24758789 2:-4.41875 
-0.01 1:0.18032227 2:-3.4590625 
-0.01 1:0.15715234 2:-3.00575 
-0.01 1:0.39625195 2:-5.7065625 
-0.01 1:0.34291602 2:-5.659125 
-0.01 1:0.2692793 2:-4.3863125 
-0.01 1:0.23622656 2:-4.2471875 
-0.01 1:0.22990234 2:-4.13075 
-0.01 1:0.23815625 2:-3.5234375 
-0.01 1:0.31239258 2:-3.335375 
-0.01 1:0.33233008 2:-5.5936875 
-0.01 1:0.34549414 2:-5.2533125 
-0.01 1:0.21329492 2:-4.0851875 
-0.01 1:0.28219141 2:-5.6 
-0.01 1:0.20562109 2:-4.42025 
-0.01 1:0.35424609 2:-4.1588125 
-0.01 1:0.33228906 2:-5.591625 
-0.01 1:0.14036523 2:-2.703625 
-0.01 1:0.42217578 2:-5.0205625 
-0.01 1:0.24689063 2:-3.7405625 
-0.01 1:0.32481836 2:-6.3535 
-0.01 1:0.32420508 2:-5.0073125 
-0.001854625025240042 1:0.28972266 2:-3.752625 
-0.01 1:0.31465625 2:-3.7899375 
-0.01 1:0.4467832 2:-4.06625 
-0.01 1:0.2920332 2:-4.6695 
-0.01 1:0.35478711 2:-6.158125 
-0.01 1:0.19614844 2:-2.9331875 
-0.01 1:0.20133203 2:-3.4996875 
-0.01 1:0.20287305 2:-3.1580625 
-0.01 1:0.28486719 2:-3.718875 
-0.01 1:0.26508984 2:-4.06 
-0.01 1:0.18523242 2:-3.55875 
-0.01 1:0.27323438 2:-4.118625 
-0.008145374974759959 1:0.30327539 2:-3.748 
-0.01 1:0.25771875 2:-4.141 
-0.01 1:0.25145898 2:-4.9026875 
-0.01 1:0.33034961 2:-4.2894375 
-0.0002103525014476672 1:0.53497656 2:-4.1345 
-0.01 1:0.23030078 2:-4.562125 
-0.01 1:0.24195703 2:-3.4858125 
-0.01 1:0.48122461 2:-4.6288125 
-0.0001947406757830134 1:0.57983398 2:-1.5735625 
-0.01 1:0.31211133 2:-5.5661875 
-0.01 1:0.25610352 2:-4.7163125 
-0.01 1:0.25418359 2:-5.4633125 
-0.01 1:0.11673633 2:-2.6884375 
-0.01 1:0.28702539 2:-5.30925 
-0.01 1:0.29369727 2:-5.4644375 
-0.01 1:0.31766992 2:-6.3675 
-0.01 1:0.16495703 2:-2.8470625 
-0.01 1:0.165625 2:-2.978625 
-0.01 1:0.30642578 2:-4.261 
-0.01 1:0.25216016 2:-4.95275 
-0.01 1:0.28688477 2:-4.852125 
-0.01 1:0.31589453 2:-4.6761875 
-0.01 1:0.21582617 2:-4.73525 
-0.01 1:0.17721484 2:-3.185375 
-0.01 1:0.19631641 2:-3.776 
-0.01 1:0.31639063 2:-4.31275 
-0.01 1:0.25010547 2:-4.1759375 
-0.01 1:0.18080469 2:-3.690125 
-0.01 1:0.25866406 2:-5.145625 
-0.001725073759012137 1:0.067634766 2:-1.410875 
-0.01 1:0.38022852 2:-5.2323125 
-0.01 1:0.33136133 2:-4.273 
-0.0002483930924078703 1:0.38319141 2:-5.44775 
-0.01 1:0.13710156 2:-2.3773125 
-0.01 1:0.32294922 2:-4.96825 
-0.01 1:0.28158398 2:-3.5241875 
-0.01 1:0.3180957 2:-4.3368125 
-0.01 1:0.31867773 2:-5.0266875 
-0.01 1:0.38185937 2:-5.7153125 
-0.01 1:0.3085 2:-4.161875 
-0.01 1:0.30476953 2:-5.2653125 
-0.01 1:0.32344922 2:-5.2779375 
-0.01 1:0.36860742 2:-5.2060625 
-0.01 1:0.24781445 2:-4.7665625 
-0.01 1:0.31378711 2:-4.869 
-0.01 1:0.35986719 2:-5.0923125 
-0.01 1:0.31410352 2:-5.3563125 
-0.01 1:0.26366992 2:-3.5430625 
-0.01 1:0.26652148 2:-4.352875 
-0.01 1:0.38608203 2:-5.83775 
-0.01 1:0.18330469 2:-3.5765 
-0.01 1:0.25924609 2:-4.822625 
-0.01 1:0.19199219 2:-3.532125 
-0.01 1:0.29653906 2:-5.3133125 
-0.01 1:0.31567578 2:-5.128625 
-0.01 1:0.19237891 2:-4.173875 
-0.01 1:0.15839062 2:-3.244375 
-0.01 1:0.2190332 2:-3.64075 
-0.01 1:0.37031445 2:-6.1486875 
-0.01 1:0.32792187 2:-5.7695 
-0.01 1:0.16485938 2:-3.327375 
-0.01 1:0.20576172 2:-3.9106875 
-0.0001180725506075815 1:0.17179883 2:-4.12625 
-0.01 1:0.21367188 2:-3.5629375 
-0.01 1:0.23996094 2:-4.4979375 
-0.01 1:0.20120117 2:-4.0053125 
-0.008274926240987864 1:0.12993359 2:-1.4123125 
-0.01 1:0.28327148 2:-5.4188125 
-0.01 1:0.28769141 2:-4.7579375 
-0.01 1:0.24716016 2:-4.4928125 
-0.01 1:0.22425781 2:-4.310125 
-0.01 1:0.17934961 2:-4.0168125 
-0.01 1:0.22570313 2:-3.3734375 
-0.01 1:0.24593555 2:-4.580875 
-0.01 1:0.19210547 2:-3.7350625 
-0.01 1:0.30072461 2:-5.2973125 
-0.01 1:0.26073437 2:-4.258 
-0.01 1:0.1538125 2:-2.801 
-0.01 1:0.30620117 2:-4.9893125 
-0.01 1:0.29336914 2:-4.1166875 
-0.01 1:0.38060742 2:-4.1420625 
-0.01 1:0.24281641 2:-5.575625 
-0.01 1:0.27453906 2:-4.14125 
-0.01 1:0.33454297 2:-4.7880625 
-0.01 1:0.28198828 2:-4.9028125 
-0.01 1:0.34023633 2:-5.672375 
-0.01 1:0.30508789 2:-5.8201875 
-0.01 1:0.34219727 2:-5.2260625 
-0.01 1:0.35018164 2:-5.125875 
-0.01 1:0.18048437 2:-4.2701875 
-0.01 1:0.18467578 2:-2.040125 
-0.01 1:0.19893359 2:-3.0593125 
-0.01 1:0.3770293 2:-6.11475 
-0.01 1:0.30478516 2:-5.997625 
-0.01 1:0.30873047 2:-4.7131875 
-0.01 1:0.2971875 2:-5.19825 
-0.01 1:0.28427539 2:-6.015875 
-0.01 1:0.32064062 2:-4.5230625 
-0.01 1:0.29853516 2:-5.612 
-0.01 1:0.29023828 2:-4.9870625 
-0.01 1:0.25051172 2:-4.4695625 
-0.01 1:0.30526953 2:-5.664125 
-0.01 1:0.2751875 2:-4.6055625 
-0.0083174786078351 1:0.24793164 2:-3.6923125 
-0.01 1:0.29679883 2:-4.7449375 
-0.01 1:0.28314844 2:-4.734 
-0.01 1:0.20919336 2:-4.7135625 
-0.01 1:0.22113672 2:-3.8909375 
-0.01 1:0.24060547 2:-4.2458125 
-0.01 1:0.25982422 2:-4.185375 
-0.01 1:0.13798438 2:-3.302 
-0.01 1:0.30915625 2:-4.5255 
-0.01 1:0.30179687 2:-4.583125 
-0.0005828196038909009 1:0.22069727 2:-2.997375 
-0.01 1:0.23849023 2:-4.3308125 
-0.01 1:0.23095508 2:-3.7495625 
-0.01 1:0.37776953 2:-5.1730625 
-0.01 1:0.36483398 2:-5.3958125 
-0.01 1:0.26369336 2:-3.4615625 
-0.01 1:0.13451953 2:-3.1604375 
-0.01 1:0.35900977 2:-5.2805 
-0.01 1:0.27134375 2:-5.155875 
-0.01 1:0.33317188 2:-4.68725 
-0.01 1:0.36764648 2:-5.1503125 
-0.00994360646585348 1:0.23125586 2:-3.3141875 
-0.01 1:0.31097266 2:-5.580875 
-0.01 1:0.34935352 2:-5.6198125 
-0.01 1:0.30663086 2:-4.8278125 
-0.01 1:0.33318164 2:-5.25925 
-0.01 1:0.25394141 2:-4.367 
-0.01 1:0.19822656 2:-4.0500625 
-0.01 1:0.20957227 2:-4.60125 
-0.01 1:0.17592578 2:-2.996875 
-0.006995088343432219 1:0.18808398 2:-3.4816875 
-0.01 1:0.32645508 2:-5.77125 
-0.01 1:0.32393945 2:-4.69175 
-0.01 1:0.31721875 2:-5.6945 
-0.01 1:0.34066992 2:-5.281875 
-0.01 1:0.39398437 2:-5.7020625 
-0.01 1:0.25855664 2:-4.6235625 
-0.01 1:0.4509043 2:-6.5925625 
-0.01 1:0.38269531 2:-4.839625 
-0.01 1:0.24037891 2:-4.7795625 
-0.01 1:0.28100586 2:-4.2859375 
-0.01 1:0.24909961 2:-4.7545 
-0.01 1:0.35889453 2:-4.4951875 
-0.01 1:0.19351172 2:-3.924625 
-0.01 1:0.28589844 2:-4.4878125 
-0.0002562018360308112 1:0.64953711 2:-2.5906875 
-0.009751606907592129 1:0.42748242 2:-5.4629375 
-0.01 1:0.31765234 2:-5.4841875 
-0.01 1:0.26412695 2:-4.2101875 
-0.01 1:0.23656641 2:-5.13225 
-0.01 1:0.27323437 2:-4.4154375 
-0.01 1:0.34186523 2:-5.8350625 
-0.01 1:0.33609766 2:-5.6264375 
-0.01 1:0.16924805 2:-2.906375 
-0.01 1:0.32763281 2:-5.387875 
-0.01 1:0.21848242 2:-4.455375 
-0.01 1:0.25669336 2:-4.6960625 
-0.01 1:0.36110156 2:-4.7130625 
-0.01 1:0.23461328 2:-5.1766875 
-0.01 1:0.16704688 2:-3.42775 
-0.01 1:0.29257812 2:-4.753 
-0.01 1:0.35353711 2:-6.4664375 
-0.01 1:0.31054102 2:-4.9661875 
-0.01 1:0.34402344 2:-5.874 
-0.01 1:0.36026172 2:-5.9035625 
-0.01 1:0.31123828 2:-5.179625 
-0.01 1:0.33741797 2:-4.1974375 
-0.01 1:0.33039648 2:-5.4395 
-0.01 1:0.29635937 2:-5.16975 
-0.01 1:0.35174805 2:-4.259375 
-0.01 1:0.28732031 2:-5.3385 
-0.01 1:0.20204688 2:-3.360375 
-0.01 1:0.24214063 2:-4.5038125 
-0.01 1:0.30384375 2:-4.66825 
-0.01 1:0.34343359 2:-4.500875 
-0.01 1:0.27562695 2:-4.340375 
-0.01 1:0.24619141 2:-4.186875 
-0.01 1:0.28493359 2:-4.7819375 
-5.639353414652044e-05 1:0.55480078 2:-3.3968125 
-0.01 1:0.20339844 2:-3.30575 
-0.01 1:0.26120508 2:-4.383875 
-0.01 1:0.11894727 2:-2.755 
-0.01 1:0.11764648 2:-2.7798125 
-0.01 1:0.33430664 2:-3.9859375 
-0.01 1:0.20068359 2:-3.530625 
-0.01 1:0.22642578 2:-3.8066875 
-0.01 1:0.27418945 2:-5.417375 
-0.01 1:0.35058203 2:-5.5184375 
-0.01 1:0.37045117 2:-4.9888125 
-0.01 1:0.18362305 2:-3.7599375 
-0.01 1:0.15335352 2:-3.1814375 
-0.009584991285442634 1:0.090345703 2:-0.9753125 
-0.01 1:0.27471094 2:-5.619875 
-0.01 1:0.30499414 2:-5.6374375 
-0.01 1:0.27932617 2:-4.1611875 
-0.01 1:0.16963086 2:-3.181375 
-0.01 1:0.30602148 2:-4.477625 
-0.01 1:0.33367383 2:-4.751375 
-0.01 1:0.36703125 2:-4.044 
-0.01 1:0.32538672 2:-5.82175 
-0.01 1:0.20861523 2:-3.512375 
-0.01 1:0.10699219 2:-1.968375 
-0.01 1:0.35580078 2:-6.299125 
-0.01 1:0.34071094 2:-6.2910625 
-0.01 1:0.2978125 2:-5.98225 
-0.01 1:0.20486328 2:-4.3973125 
-0.01 1:0.30444727 2:-5.1534375 
-0.01 1:0.37479883 2:-5.386375 
-0.01 1:0.23155859 2:-4.342375 
-0.01 1:0.17587695 2:-3.6184375 
-0.01 1:0.22451172 2:-4.5419375 
-0.01 1:0.39452734 2:-5.0855 
-0.01 1:0.15904297 2:-3.7005625 
-0.01 1:0.252875 2:-4.820875 
-0.01 1:0.29289063 2:-5.652375 
-0.01 1:0.17999805 2:-3.188375 
-0.01 1:0.25246094 2:-4.52725 
-0.01 1:0.31454688 2:-4.9918125 
-0.01 1:0.181125 2:-3.933125 
-0.01 1:0.28202344 2:-4.859375 
-0.009694145476184324 1:0.17485547 2:-4.1879375 
-0.01 1:0.34985547 2:-5.783125 
-0.01 1:0.36413867 2:-6.3994375 
-0.01 1:0.27821289 2:-3.98975 
-0.01 1:0.37326563 2:-4.7308125 
-0.01 1:0.2355625 2:-5.174625 
-0.01 1:0.25172266 2:-5.077125 
-0.01 1:0.28167578 2:-3.8419375 
-0.01 1:0.26767578 2:-4.910625 
-0.01 1:0.22961328 2:-4.3941875 
-0.01 1:0.23004102 2:-4.380125 
-0.01 1:0.32567383 2:-4.7173125 
-0.01 1:0.35895312 2:-5.38 
-0.01 1:0.1675918 2:-3.143 
-0.01 1:0.2641543 2:-5.26025 
-0.01 1:0.19154492 2:-4.0826875 
-0.01 1:0.21517578 2:-4.135625 
-0.01 1:0.22638477 2:-4.1114375 
-0.01 1:0.25042773 2:-3.641875 
-0.01 1:0.39866602 2:-5.4680625 
-0.01 1:0.26534961 2:-4.584875 
-0.01 1:0.2504668 2:-3.255625 
-0.01 1:0.27760547 2:-5.098 
-0.01 1:0.24521484 2:-4.95975 
-0.01 1:0.32529102 2:-3.8465 
-0.01 1:0.2292832 2:-3.793375 
-0.01 1:0.20479687 2:-4.2284375 
-0.01 1:0.35650586 2:-5.135 
-0.01 1:0.34943555 2:-4.5045 
-0.01 1:0.24851172 2:-3.62425 
-0.01 1:0.35855859 2:-5.03625 
-0.01 1:0.21389453 2:-2.7635625 
-0.01 1:0.18033008 2:-2.7246875 
-0.01 1:0.13869727 2:-2.8969375 
-0.01 1:0.27758789 2:-5.3843125 
-0.01 1:0.26486133 2:-3.8655625 
-0.01 1:0.28044922 2:-4.8344375 
-0.01 1:0.27904687 2:-4.1286875 
-0.01 1:0.29430664 2:-3.5336875 
-0.01 1:0.26394336 2:-5.5184375 
-0.01 1:0.31682031 2:-3.3043125 
-0.01 1:0.24296484 2:-4.9265625 
-0.01 1:0.24733008 2:-3.39625 
-0.01 1:0.30969531 2:-4.8235625 
-0.01 1:0.31826172 2:-5.8076875 
-0.01 1:0.28731836 2:-4.74125 
-0.01 1:0.32263086 2:-5.6656875 
-0.009417180396109099 1:0.22170898 2:-2.994125 
-0.01 1:0.32995703 2:-5.0885625 
-0.01 1:0.37594727 2:-4.9313125 
-0.01 1:0.30346094 2:-5.1415 
-0.01 1:0.35150195 2:-5.98175 
-0.000437453013214311 1:0.36801953 2:-6.04 
-0.01 1:0.19660547 2:-3.6106875 
-0.01 1:0.23208594 2:-4.444875 
-0.008541182412238418 1:0.19385938 2:-3.8018125 
-0.01 1:0.16942969 2:-3.3154375 
-0.01 1:0.38823047 2:-3.969 
-0.01 1:0.25951953 2:-5.152625 
-0.01 1:0.17951758 2:-3.3945 
-0.01 1:0.39941406 2:-5.231875 
-0.01 1:0.10350391 2:-2.0674375 
-0.01 1:0.33180469 2:-5.012375 
-0.01 1:0.25626172 2:-5.3840625 
-0.01 1:0.25664063 2:-5.19725 
-0.01 1:0.27291406 2:-4.54875 
-0.01 1:0.17387305 2:-3.586375 
-0.01 1:0.28594531 2:-5.5890625 
-0.01 1:0.27118945 2:-3.6079375 
-0.01 1:0.39553906 2:-4.077875 
-0.01 1:0.32921094 2:-5.0735625 
-0.01 1:0.2369082 2:-3.1478125 
-0.01 1:0.14607617 2:-3.1498125 
-0.01 1:0.24838867 2:-5.320625 
-0.01 1:0.259125 2:-3.7574375 
-0.01 1:0.34759375 2:-5.3243125 
-0.01 1:0.1895625 2:-3.3044375 
-0.01 1:0.28778516 2:-4.2623125 
-0.01 1:0.28263867 2:-4.5860625 
-0.01 1:0.40020312 2:-5.3531875 
-0.01 1:0.33515234 2:-4.7294375 
-0.01 1:0.25419531 2:-4.5434375 
-0.01 1:0.2731875 2:-5.0144375 
-0.01 1:0.29423437 2:-5.510375 
-0.01 1:0.23999414 2:-4.667625 
-0.01 1:0.34183008 2:-6.1061875 
-0.01 1:0.18332617 2:-3.5046875 
-0.01 1:0.25603906 2:-5.0956875 
-0.01 1:0.28213672 2:-5.9331875 
-0.01 1:0.26322461 2:-5.4883125 
-0.01 1:0.21846094 2:-4.3505 
-0.01 1:0.27809375 2:-4.651125 
-0.01 1:0.32939453 2:-4.4934375 
-0.01 1:0.30364453 2:-5.5271875 
-0.01 1:0.26226563 2:-4.5395 
-0.01 1:0.19635742 2:-4.18325 
-0.01 1:0.30972266 2:-5.4668125 
-0.01 1:0.3160957 2:-4.733375 
-0.01 1:0.3223125 2:-4.3729375 
-0.01 1:0.26363281 2:-4.3346875 
-0.01 1:0.22276758 2:-4.9826875 
-0.01 1:0.41820312 2:-4.4476875 
-9.141309633499589e-05 1:0.3845 2:-6.7055 
-0.01 1:0.34606445 2:-6.244125 
-0.01 1:0.37111523 2:-5.247875 
-0.01 1:0.22181641 2:-4.1625625 
-0.01 1:0.17675195 2:-3.076 
-0.01 1:0.14654883 2:-2.5340625 
-0.01 1:0.17897852 2:-3.954125 
-0.01 1:0.24900586 2:-5.3428125 
-0.01 1:0.36598828 2:-5.2701875 
-0.01 1:0.2949082 2:-5.2358125 
-0.01 1:0.31229102 2:-6.0148125 
-0.01 1:0.25075391 2:-3.267625 
-0.001458817587761581 1:0.19066406 2:-3.7959375 
-0.01 1:0.29013086 2:-5.3005625 
-0.01 1:0.2893125 2:-4.126625 
-0.01 1:0.14205078 2:-3.3005 
-0.0003206406059478502 1:0.10254883 2:-2.6481875 
-0.00388253388546504 1:0.37596094 2:-4.226625 
-0.01 1:0.35803711 2:-4.82725 
-0.01 1:0.32357617 2:-5.043375 
-0.01 1:0.3109375 2:-4.4159375 
-0.01 1:0.23346289 2:-4.9045 
-0.006382636839499755 1:0.25745312 2:-3.471875 
-0.01 1:0.17372461 2:-3.02175 
-0.001682521392164901 1:0.25561914 2:-3.6824375 
-0.01 1:0.25678906 2:-4.986875 
-0.01 1:0.30724805 2:-5.9245625 
-0.01 1:0.079349609 2:-1.6896875 
-0.001453427949895474 1:0.076787109 2:-1.723625 
-0.01 1:0.27801367 2:-5.795875 
-0.01 1:0.31170117 2:-5.809375 
-0.01 1:0.39331055 2:-4.977875 
-0.01 1:0.37664063 2:-5.6056875 
-0.01 1:0.24987695 2:-4.2678125 
-0.01 1:0.28219141 2:-4.966625 
-0.01 1:0.434875 2:-4.560125 
-0.01 1:0.25155859 2:-4.918375 
-0.01 1:0.21791797 2:-3.83625 
-0.01 1:0.36560547 2:-5.119625 
-0.01 1:0.38048438 2:-5.484625 
-0.01 1:0.2394375 2:-4.736625 
-0.01 1:0.2390918 2:-3.6419375 
-0.01 1:0.36061719 2:-4.7583125 
-0.01 1:0.33518359 2:-4.321625 
-0.01 1:0.29483008 2:-4.1045625 
-0.01 1:0.33874023 2:-3.620125 
-0.01 1:0.20291211 2:-3.866875 
-0.01 1:0.34873828 2:-5.89075 
-0.01 1:0.24520117 2:-3.8335625 
-0.01 1:0.26061914 2:-4.7349375 
-0.01 1:0.31102734 2:-4.2288125 
-0.01 1:0.32268945 2:-6.0975 
-0.01 1:0.43275195 2:-5.0771875 
-0.01 1:0.30610937 2:-4.347125 
-0.01 1:0.31540625 2:-5.0003125 
-0.01 1:0.21353125 2:-4.21425 
-0.01 1:0.39713867 2:-5.9639375 
-0.01 1:0.19082227 2:-4.2091875 
-0.01 1:0.2089043 2:-4.3419375 
-0.01 1:0.25019141 2:-3.5898125 
-0.01 1:0.29301563 2:-5.014 
-0.01 1:0.20644336 2:-4.13675 
-0.01 1:0.23423633 2:-3.7383125 
-0.01 1:0.31641211 2:-5.467875 
-0.01 1:0.30863281 2:-4.3255 
-0.01 1:0.26362891 2:-5.6733125 
-0.01 1:0.23752344 2:-3.9145 
-0.01 1:0.25451562 2:-4.7883125 
-0.01 1:0.23275195 2:-4.741375 
-0.01 1:0.38733984 2:-6.4479375 
-0.01 1:0.26600391 2:-5.95225 
-0.01 1:0.11874023 2:-2.7379375 
-0.01 1:0.11204297 2:-2.446125 
-0.01 1:0.16414062 2:-2.75425 
-0.003004911656567781 1:0.19323633 2:-3.479375 
-0.01 1:0.305625 2:-5.8485 
-0.01 1:0.32716211 2:-4.7526875 
-0.01 1:0.26438477 2:-4.9513125 
-0.01 1:0.19646289 2:-3.268625 
-0.01 1:0.45595703 2:-5.719625 
-0.01 1:0.330375 2:-4.9874375 
-3.453612271147166e-06 1:0.40119336 2:-7.3266875 
-0.01 1:0.30520703 2:-4.6108125 
-0.01 1:0.23917187 2:-5.222875 
-0.01 1:0.19100977 2:-3.729375 
-9.550202236800934e-05 1:0.1775332 2:-4.1705625 
-0.01 1:0.23612695 2:-3.9413125 
-0.01 1:0.30057422 2:-5.98275 
-0.01 1:0.26789844 2:-4.5989375 
-0.01 1:0.23817383 2:-3.561625 
-0.01 1:0.35631055 2:-5.519 
-0.01 1:0.30372656 2:-3.7325 
-0.01 1:0.30795703 2:-6.1831875 
-0.01 1:0.34957617 2:-4.8681875 
-0.01 1:0.32593555 2:-5.2068125 
-0.01 1:0.35097461 2:-5.6483125 
-0.01 1:0.13848047 2:-2.4273125 
-0.01 1:0.35628711 2:-6.539625 
-0.01 1:0.34576953 2:-4.79525 
-0.01 1:0.39603125 2:-4.306 
-0.01 1:0.34544336 2:-5.7846875 
-0.01 1:0.34817773 2:-5.007625 
-0.01 1:0.30280664 2:-4.5919375 
-0.01 1:0.2156543 2:-4.505875 
-0.01 1:0.39371289 2:-5.3565 
-0.01 1:0.41813477 2:-4.671875 
-0.009996443696132479 1:0.46185352 2:-4.74475 
-0.01 1:0.23841602 2:-4.7885625 
-0.01 1:0.22175977 2:-4.1065625 
-0.01 1:0.15406055 2:-2.5658125 
-0.01 1:0.24148242 2:-4.3440625 
-0.0001425561770520762 1:0.5656875 2:-1.8881875 
-0.01 1:0.27910352 2:-3.861875 
-0.01 1:0.14902539 2:-3.169875 
-0.006117466114534961 1:0.36222656 2:-4.23425 
-0.01 1:0.17206445 2:-3.643125 
-0.01 1:0.25103711 2:-5.075625 
-0.01 1:0.29775781 2:-4.6875 
-0.01 1:0.30176563 2:-5.1461875 
-0.01 1:0.36097461 2:-6.4238125 
-0.01 1:0.30285156 2:-5.0973125 
-0.01 1:0.22273828 2:-3.67025 
-0.01 1:0.23586719 2:-4.0855 
-0.01 1:0.33885938 2:-5.4545 
-0.01 1:0.37617578 2:-6.118875 
-0.01 1:0.32371484 2:-4.491375 
-0.01 1:0.21400977 2:-3.7804375 
-0.01 1:0.24474805 2:-3.388625 
-0.01 1:0.16383984 2:-2.9104375 
-0.01 1:0.32654883 2:-4.3288125 
-0.01 1:0.28470117 2:-5.518375 
-0.01 1:0.36478711 2:-5.8079375 
-0.009908586903665004 1:0.36618555 2:-6.76 
-0.01 1:0.29875586 2:-5.5695 
-0.01 1:0.45973828 2:-3.94875 
-0.01 1:0.31997461 2:-4.7644375 
-0.01 1:0.19928711 2:-2.6759375 
-0.00988192744939242 1:0.4510293 2:-4.106875 
-0.01 1:0.24804883 2:-4.5755625 
-0.01 1:0.1914668 2:-3.376375 
-0.01 1:0.31833984 2:-3.9101875 
-0.01 1:0.25021875 2:-4.4340625 
-0.01 1:0.26300977 2:-3.754 
-0.01 1:0.22643555 2:-2.9925625 
-0.01 1:0.2424082 2:-4.52975 
-0.01 1:0.27652734 2:-5.0469375 
-0.01 1:0.24790039 2:-4.9433125 
-0.01 1:0.16420898 2:-2.2751875 
-0.01 1:0.25593945 2:-4.45375 
-0.01 1:0.18900781 2:-3.5194375 
-0.01 1:0.26298828 2:-4.5124375 
-0.01 1:0.22048047 2:-4.1625 
-0.01 1:0.34828516 2:-4.4009375 
-0.01 1:0.24691016 2:-5.0823125 
-0.01 1:0.33158594 2:-4.5533125 
-0.01 1:0.28833789 2:-5.0376875 
-0.01 1:0.21408984 2:-4.0924375 
-0.01 1:0.30314062 2:-5.2896875 
-0.000340141011430705 1:0.54976758 2:-0.798875 
-0.01 1:0.20539453 2:-4.3329375 
-0.01 1:0.24421875 2:-5.166 
-0.01 1:0.31304102 2:-5.107625 
-0.01 1:0.27183984 2:-5.1100625 
-0.01 1:0.20837891 2:-3.922875 
-0.01 1:0.099 2:-2.1715625 
-0.01 1:0.41218555 2:-5.1688125 
-0.01 1:0.24061133 2:-4.476625 
-0.01 1:0.23668555 2:-3.42625 
-0.01 1:0.31316406 2:-5.430125 
-0.01 1:0.31185352 2:-4.9824375 
-0.01 1:0.16992578 2:-3.4936875 
-0.003617363160500245 1:0.25162305 2:-3.468375 
-0.01 1:0.14199219 2:-2.8046875 
-0.01 1:0.31124219 2:-6.1073125 
-0.01 1:0.16107227 2:-2.714625 
-0.01 1:0.18808789 2:-3.8718125 
-0.009830692574807712 1:0.091894531 2:-1.8661875 
-0.01 1:0.35437891 2:-3.67175 
-0.01 1:0.30619336 2:-5.593375 
-0.01 1:0.40796094 2:-6.3503125 
-0.01 1:0.32701953 2:-4.8238125 
-0.01 1:0.3604707 2:-4.7850625 
-0.01 1:0.30747852 2:-5.424875 
-0.01 1:0.27879883 2:-4.7460625 
-0.01 1:0.31470898 2:-5.022375 
-0.01 1:0.41917187 2:-5.483375 
-0.01 1:0.28870508 2:-4.330625 
-0.01 1:0.18275195 2:-3.747 
-0.01 1:0.18873437 2:-3.9215625 
-0.01 1:0.27423047 2:-5.4185625 
-0.01 1:0.27406641 2:-5.22475 
-0.01 1:0.23213672 2:-4.9410625 
-0.01 1:0.14804297 2:-2.4165625 
-0.003254194006874927 1:0.34441992 2:-2.5821875 
-0.01 1:0.15342969 2:-3.0081875 
-0.01 1:0.17957813 2:-3.8024375 
-0.01 1:0.20745508 2:-3.2791875 
-0.01 1:0.26777344 2:-3.47225 
-0.01 1:0.39512695 2:-4.9090625 
-0.01 1:0.27879492 2:-3.8149375 
-0.01 1:0.19374805 2:-3.6446875 
-0.01 1:0.36837695 2:-6.2575 
-0.01 1:0.36276172 2:-4.9273125 
-0.01 1:0.51585742 2:-6.6545 
-0.01 1:0.38552344 2:-4.6464375 
-4.864274576250015e-05 1:0.43723828 2:-7.1905 
-0.01 1:0.36358984 2:-4.906375 
-0.01 1:0.3703457 2:-6.1079375 
-0.01 1:0.27607813 2:-4.5745625 
-0.01 1:0.33188672 2:-4.5985 
-0.01 1:0.22953516 2:-4.7948125 
-0.01 1:0.33156445 2:-3.9391875 
-0.01 1:0.20576172 2:-4.013875 
-0.01 1:0.23111133 2:-4.5469375 
-0.01 1:0.2359375 2:-4.10925 
-0.01 1:0.18862109 2:-3.5570625 
-0.01 1:0.28647266 2:-5.2295 
-0.01 1:0.23383984 2:-4.118375 
-0.01 1:0.32278711 2:-6.0531875 
-0.01 1:0.26810547 2:-6.101125 
-0.01 1:0.39734961 2:-4.196375 
-0.01 1:0.40074023 2:-6.8451875 
-0.01 1:0.36524414 2:-5.6711875 
-0.01 1:0.25723242 2:-3.903625 
-0.01 1:0.21464844 2:-5.0144375 
-0.01 1:0.30128711 2:-4.9530625 
-0.01 1:0.34190039 2:-5.7218125 
-0.01 1:0.25924219 2:-5.2435 
-0.01 1:0.26591016 2:-3.618625 
-0.01 1:0.32321094 2:-4.373875 
-0.01 1:0.32016211 2:-4.0165625 
-0.01 1:0.30686133 2:-6.5006875 
-0.01 1:0.29069922 2:-5.8220625 
-0.01 1:0.3371582 2:-3.8149375 
-0.01 1:0.33588672 2:-4.1898125 
-0.000150788983042605 1:0.13801953 2:-3.2393125 
-0.01 1:0.26068359 2:-4.4959375 
-0.01 1:0.24467969 2:-4.843 
-0.009920800307967157 1:0.50227539 2:-3.744 
-0.01 1:0.37833008 2:-5.1865 
-0.01 1:0.32063867 2:-4.3848125 
-0.01 1:0.35899219 2:-4.406625 
-0.01 1:0.16157031 2:-3.1691875 
-0.01 1:0.19947461 2:-4.2119375 
-0.01 1:0.36796094 2:-5.66 
-0.01 1:0.33832227 2:-4.7073125 
-0.01 1:0.38016016 2:-4.81675 
-0.01 1:0.44399023 2:-4.749625 
