svm_type c_svc
kernel_type polynomial
degree 2
gamma 1
coef0 1
nr_class 2
total_sv 1305
rho 0.999781
label 1 -1
nr_sv 652 653
SV
0.01 1:0.23100195 2:-2.88675 
0.01 1:0.20914258 2:-3.79575 
0.01 1:0.20682227 2:-2.31725 
0.01 1:0.21369531 2:-4.2045625 
0.01 1:0.21297852 2:-4.493375 
0.01 1:0.12761914 2:-3.1504375 
0.01 1:0.35700391 2:-5.1086875 
0.01 1:0.32469141 2:-4.671125 
0.01 1:0.27167383 2:-5.0855 
0.01 1:0.22463867 2:-4.466625 
0.01 1:0.20427539 2:-3.7735625 
0.01 1:0.32394141 2:-4.4250625 
0.01 1:0.25138281 2:-4.99325 
0.01 1:0.31182031 2:-5.115875 
0.01 1:0.21601367 2:-2.9423125 
0.01 1:0.27704883 2:-4.812625 
0.01 1:0.29733594 2:-3.103625 
0.01 1:0.20225391 2:-2.3948125 
0.01 1:0.25219727 2:-3.65825 
0.01 1:0.32179492 2:-4.5561875 
0.01 1:0.32887109 2:-4.583875 
0.01 1:0.4166543 2:-6.32025 
0.01 1:0.21068945 2:-3.207875 
0.01 1:0.13074219 2:-1.6263125 
0.01 1:0.15451758 2:-3.617125 
0.01 1:0.20004297 2:-3.977 
0.01 1:0.16800391 2:-4.0455 
0.01 1:0.1593418 2:-2.700125 
0.01 1:0.13867773 2:-2.1584375 
0.01 1:0.17995508 2:-2.70825 
0.01 1:0.26805664 2:-5.3481875 
0.01 1:0.29344141 2:-5.347125 
0.01 1:0.27433398 2:-3.6994375 
0.01 1:0.27416016 2:-5.666125 
0.01 1:0.17343359 2:-3.47525 
0.01 1:0.187875 2:-3.811875 
0.01 1:0.2849375 2:-5.4588125 
0.01 1:0.18525781 2:-3.2083125 
0.01 1:0.11014844 2:-2.056 
0.01 1:0.26129492 2:-2.958625 
0.01 1:0.088027344 2:-1.490625 
0.01 1:0.2919043 2:-4.370125 
0.01 1:0.33907031 2:-5.9951875 
0.01 1:0.13936914 2:-2.2974375 
0.01 1:0.22047656 2:-4.6383125 
0.01 1:0.15067578 2:-3.0638125 
0.01 1:0.19796094 2:-2.50025 
0.01 1:0.21633789 2:-4.034625 
0.01 1:0.11480469 2:-2.3643125 
0.01 1:0.18969141 2:-2.3571875 
0.01 1:0.27804688 2:-4.8784375 
0.01 1:0.15191211 2:-2.062875 
0.01 1:0.21545312 2:-4.1344375 
0.01 1:0.31158398 2:-5.0321875 
0.01 1:0.24237109 2:-4.1006875 
0.01 1:0.24679687 2:-4.9829375 
0.01 1:0.22739648 2:-4.514875 
0.01 1:0.163125 2:-2.3531875 
0.01 1:0.19030078 2:-4.238 
0.01 1:0.21238867 2:-3.6073125 
0.01 1:0.2777832 2:-4.788875 
0.01 1:0.2340332 2:-4.46175 
0.01 1:0.23397852 2:-4.0256875 
0.01 1:0.20435938 2:-4.2846875 
0.01 1:0.33728711 2:-5.5165625 
0.01 1:0.22560547 2:-4.3295 
0.01 1:0.17 2:-3.446 
0.01 1:0.093355469 2:-1.65375 
0.01 1:0.28154297 2:-5.29975 
0.01 1:0.19549805 2:-3.938375 
0.01 1:0.20729687 2:-2.8753125 
0.01 1:0.24108398 2:-4.31275 
0.01 1:0.24236328 2:-2.9716875 
0.01 1:0.15331641 2:-1.8380625 
0.01 1:0.13840234 2:-2.729 
0.01 1:0.22388477 2:-3.3609375 
0.01 1:0.1829375 2:-3.3390625 
0.01 1:0.19699805 2:-4.1509375 
0.01 1:0.20575391 2:-4.6519375 
0.01 1:0.23243945 2:-3.1105625 
0.01 1:0.17656641 2:-3.490125 
0.01 1:0.31034766 2:-5.7493125 
0.01 1:0.26556641 2:-4.6180625 
0.01 1:0.23392188 2:-4.871875 
0.01 1:0.18468164 2:-3.602 
0.01 1:0.21860547 2:-3.1045625 
0.01 1:0.25849219 2:-4.3523125 
0.01 1:0.11633203 2:-2.3460625 
0.01 1:0.12472852 2:-2.3263125 
0.01 1:0.17423047 2:-3.274 
0.01 1:0.13996484 2:-3.0751875 
0.01 1:0.25586328 2:-3.9335625 
0.01 1:0.18543555 2:-3.180375 
0.01 1:0.23319531 2:-4.466125 
0.01 1:0.21612695 2:-4.571875 
0.01 1:0.40318555 2:-5.302875 
0.01 1:0.22222266 2:-3.8930625 
0.01 1:0.22533789 2:-4.357625 
0.01 1:0.29157422 2:-3.5221875 
0.01 1:0.21916016 2:-2.79625 
0.01 1:0.12272852 2:-2.4301875 
0.01 1:0.25605273 2:-4.287875 
0.01 1:0.24605078 2:-3.83775 
0.01 1:0.20967578 2:-4.212875 
0.01 1:0.3301582 2:-4.557875 
0.01 1:0.23467969 2:-3.3324375 
0.01 1:0.20251562 2:-4.3700625 
0.01 1:0.29669727 2:-5.4954375 
0.01 1:0.20708398 2:-4.1880625 
0.01 1:0.19804102 2:-3.9090625 
0.01 1:0.18996484 2:-3.868 
0.01 1:0.20847656 2:-4.722875 
0.01 1:0.26076367 2:-5.2565625 
0.01 1:0.10040234 2:-2.00375 
0.01 1:0.19603711 2:-3.65075 
0.01 1:0.23883203 2:-4.6520625 
0.01 1:0.22332031 2:-3.847 
0.01 1:0.25668555 2:-4.356 
0.01 1:0.33055664 2:-5.0335 
0.01 1:0.14039648 2:-2.7203125 
0.01 1:0.18032227 2:-3.4590625 
0.01 1:0.20652539 2:-3.2526875 
0.01 1:0.40971094 2:-4.368375 
0.01 1:0.1969668 2:-4.3445625 
0.01 1:0.2788125 2:-4.1191875 
0.01 1:0.21329492 2:-4.0851875 
0.01 1:0.28219141 2:-5.6 
0.01 1:0.41668164 2:-5.924875 
0.01 1:0.14036523 2:-2.703625 
0.01 1:0.19635547 2:-4.2664375 
0.01 1:0.29874609 2:-4.2219375 
0.01 1:0.34758984 2:-4.6420625 
0.01 1:0.41588477 2:-5.7424375 
0.01 1:0.12210156 2:-2.33825 
0.01 1:0.32420508 2:-5.0073125 
0.01 1:0.2536543 2:-5.4265 
0.01 1:0.27801758 2:-3.6923125 
0.01 1:0.20133203 2:-3.4996875 
0.01 1:0.18523242 2:-3.55875 
0.01 1:0.20696875 2:-3.8543125 
0.01 1:0.24038672 2:-4.892 
0.01 1:0.20337109 2:-3.343875 
0.01 1:0.16791992 2:-3.2544375 
0.01 1:0.30008594 2:-3.7301875 
0.01 1:0.28879492 2:-3.6378125 
0.01 1:0.28505859 2:-5.2948125 
0.01 1:0.28710938 2:-4.5034375 
0.01 1:0.27832422 2:-5.4890625 
0.01 1:0.14767578 2:-2.7695625 
0.01 1:0.165625 2:-2.978625 
0.01 1:0.15929102 2:-3.25825 
0.01 1:0.22263086 2:-4.191625 
0.01 1:0.19228711 2:-3.721375 
0.01 1:0.16573828 2:-3.3041875 
0.01 1:0.21158789 2:-3.901625 
0.01 1:0.165 2:-3.3045625 
0.01 1:0.26000781 2:-4.66625 
0.01 1:0.16944336 2:-2.302875 
0.01 1:0.18390234 2:-3.9641875 
0.01 1:0.27118945 2:-5.1365625 
0.01 1:0.19795508 2:-4.1676875 
0.01 1:0.21932617 2:-4.9929375 
0.01 1:0.17835937 2:-2.29925 
0.01 1:0.11040039 2:-1.0778125 
0.01 1:0.24713086 2:-4.376625 
0.01 1:0.20826953 2:-3.633 
0.01 1:0.23423242 2:-3.962625 
0.01 1:0.18991211 2:-4.3025 
0.01 1:0.17910547 2:-3.856 
0.01 1:0.28919727 2:-4.9364375 
0.01 1:0.28936719 2:-4.1814375 
0.01 1:0.29653906 2:-5.3133125 
0.01 1:0.31567578 2:-5.128625 
0.01 1:0.22663281 2:-4.6451875 
0.01 1:0.23229883 2:-2.5465625 
0.01 1:0.28769141 2:-4.7579375 
0.01 1:0.17220508 2:-3.4438125 
0.01 1:0.14190234 2:-2.9960625 
0.01 1:0.16884766 2:-3.1375625 
0.01 1:0.16263672 2:-3.347625 
0.01 1:0.18590625 2:-3.2601875 
0.01 1:0.2465293 2:-4.695875 
0.01 1:0.10554297 2:-2.39975 
0.01 1:0.16879297 2:-3.4405 
0.01 1:0.1496875 2:-2.9224375 
0.01 1:0.18257227 2:-3.9139375 
0.01 1:0.16909375 2:-2.936 
0.01 1:0.26073437 2:-4.258 
0.01 1:0.21471094 2:-3.5236875 
0.01 1:0.1538125 2:-2.801 
0.01 1:0.1951543 2:-2.4258125 
0.01 1:0.30620117 2:-4.9893125 
0.01 1:0.19511328 2:-3.0749375 
0.01 1:0.24404688 2:-4.05025 
0.01 1:0.27883984 2:-3.5875625 
0.01 1:0.29112109 2:-4.6861875 
0.01 1:0.2444375 2:-4.2815625 
0.01 1:0.18212695 2:-3.46125 
0.01 1:0.14554883 2:-2.5863125 
0.01 1:0.22426367 2:-3.909375 
0.01 1:0.26896484 2:-3.7311875 
0.01 1:0.22933398 2:-3.2945 
0.01 1:0.17550586 2:-2.5815625 
0.01 1:0.20789648 2:-4.8635625 
0.01 1:0.25982422 2:-4.185375 
0.01 1:0.1310332 2:-3.0138125 
0.01 1:0.15527148 2:-3.574 
0.01 1:0.082253906 2:-1.711875 
0.01 1:0.25044922 2:-4.85525 
0.01 1:0.18666406 2:-3.8370625 
0.01 1:0.18050977 2:-2.87525 
0.01 1:0.20397266 2:-2.873625 
0.01 1:0.23849023 2:-4.3308125 
0.01 1:0.23095508 2:-3.7495625 
0.01 1:0.21941016 2:-4.4713125 
0.01 1:0.17560156 2:-3.320375 
0.01 1:0.14660547 2:-3.27375 
0.01 1:0.36483398 2:-5.3958125 
0.01 1:0.1399082 2:-3.0259375 
0.01 1:0.1665918 2:-2.88275 
0.01 1:0.1550625 2:-3.471625 
0.01 1:0.14648633 2:-3.2020625 
0.01 1:0.17013477 2:-2.714375 
0.01 1:0.27503906 2:-3.7306875 
0.01 1:0.14812891 2:-1.9295625 
0.01 1:0.17887109 2:-3.7491875 
0.01 1:0.26156836 2:-4.42225 
0.01 1:0.2255957 2:-4.3601875 
0.01 1:0.26202148 2:-4.5193125 
0.01 1:0.23572266 2:-3.609125 
0.01 1:0.13833594 2:-2.906875 
0.01 1:0.30663086 2:-4.8278125 
0.01 1:0.17408984 2:-3.10925 
0.01 1:0.24000977 2:-3.822125 
0.01 1:0.24095313 2:-4.219625 
0.01 1:0.24745703 2:-4.2286875 
0.01 1:0.24683398 2:-3.15875 
0.01 1:0.25394141 2:-4.367 
0.01 1:0.19822656 2:-4.0500625 
0.01 1:0.20151953 2:-4.1438125 
0.01 1:0.19595898 2:-3.706625 
0.01 1:0.27945898 2:-3.1124375 
0.01 1:0.22888672 2:-4.51275 
0.01 1:0.18467187 2:-3.978875 
0.01 1:0.20241016 2:-4.5631875 
0.01 1:0.3104043 2:-6.1365 
0.01 1:0.32645508 2:-5.77125 
0.01 1:0.26445508 2:-4.4808125 
0.01 1:0.28153906 2:-5.5325 
0.01 1:0.28383789 2:-4.5254375 
0.01 1:0.27689648 2:-4.442125 
0.01 1:0.2390332 2:-4.7351875 
0.01 1:0.2874082 2:-4.2813125 
0.01 1:0.26612891 2:-5.0080625 
0.01 1:0.39117773 2:-4.3866875 
0.01 1:0.19984375 2:-4.152625 
0.01 1:0.29000781 2:-4.585125 
0.01 1:0.41826953 2:-5.916375 
0.01 1:0.33544727 2:-5.1939375 
0.01 1:0.12785937 2:-3.4310625 
0.01 1:0.24168555 2:-5.2645625 
0.01 1:0.24909961 2:-4.7545 
0.01 1:0.2892832 2:-4.5595 
0.01 1:0.13827344 2:-2.6864375 
0.01 1:0.42748242 2:-5.4629375 
0.01 1:0.20068945 2:-2.8734375 
0.01 1:0.21072852 2:-3.4869375 
0.01 1:0.21630078 2:-3.68425 
0.01 1:0.18242773 2:-3.8430625 
0.01 1:0.11307227 2:-2.437125 
0.01 1:0.25462695 2:-3.4156875 
0.01 1:0.26659766 2:-4.8791875 
0.01 1:0.23487305 2:-4.7185625 
0.01 1:0.36026172 2:-5.9035625 
0.01 1:0.16170898 2:-3.8336875 
0.01 1:0.21823438 2:-2.610625 
0.01 1:0.21625586 2:-3.218125 
0.01 1:0.17283398 2:-3.513 
0.01 1:0.2334707 2:-4.02025 
0.01 1:0.21661328 2:-4.1964375 
0.01 1:0.19995117 2:-4.736 
0.01 1:0.14361133 2:-2.7618125 
0.01 1:0.18596875 2:-3.7434375 
0.01 1:0.15744727 2:-3.6728125 
0.01 1:0.22680273 2:-4.3693125 
0.01 1:0.17967383 2:-4.1776875 
0.01 1:0.15552148 2:-3.5993125 
0.01 1:0.17432422 2:-2.6551875 
0.01 1:0.18891602 2:-2.479875 
0.01 1:0.15924414 2:-3.456125 
0.01 1:0.32123828 2:-5.983375 
0.01 1:0.21264844 2:-2.9796875 
0.01 1:0.26100195 2:-3.587125 
0.01 1:0.20888086 2:-3.189875 
0.01 1:0.27418945 2:-5.417375 
0.01 1:0.16407617 2:-2.637875 
0.01 1:0.28564844 2:-5.3563125 
0.01 1:0.18362305 2:-3.7599375 
0.01 1:0.15056836 2:-2.9521875 
0.01 1:0.24398438 2:-3.719375 
0.01 1:0.19839258 2:-3.6535625 
0.01 1:0.14796484 2:-3.1890625 
0.01 1:0.27983203 2:-4.998 
0.01 1:0.090345703 2:-0.9753125 
0.01 1:0.17631641 2:-3.155625 
0.01 1:0.19753125 2:-3.80925 
0.01 1:0.18713672 2:-3.1725 
0.01 1:0.10730859 2:-1.8963125 
0.01 1:0.2102832 2:-4.280125 
0.01 1:0.17776172 2:-3.941625 
0.01 1:0.17191797 2:-3.66225 
0.01 1:0.14380859 2:-2.602 
0.01 1:0.15630273 2:-3.26325 
0.01 1:0.24354102 2:-4.6081875 
0.01 1:0.12801367 2:-2.7581875 
0.01 1:0.15285937 2:-3.283 
0.01 1:0.14104297 2:-2.236375 
0.01 1:0.10699219 2:-1.968375 
0.01 1:0.20157422 2:-3.8138125 
0.01 1:0.16484375 2:-2.7686875 
0.01 1:0.17810742 2:-3.70925 
0.01 1:0.16781055 2:-3.1551875 
0.01 1:0.18011914 2:-3.4025625 
0.01 1:0.2978125 2:-5.98225 
0.01 1:0.22619531 2:-4.3410625 
0.01 1:0.13572852 2:-2.5335 
0.01 1:0.23166406 2:-4.7021875 
0.01 1:0.20486328 2:-4.3973125 
0.01 1:0.25088867 2:-4.781375 
0.01 1:0.2322168 2:-4.5760625 
0.01 1:0.268375 2:-5.1638125 
0.01 1:0.23408203 2:-4.2324375 
0.01 1:0.19877344 2:-3.577625 
0.01 1:0.22451172 2:-4.5419375 
0.01 1:0.18489648 2:-2.2105625 
0.01 1:0.11286719 2:-2.107375 
0.01 1:0.23531641 2:-4.8604375 
0.01 1:0.15904297 2:-3.7005625 
0.01 1:0.2761543 2:-4.952875 
0.01 1:0.29289063 2:-5.652375 
0.01 1:0.26100781 2:-4.4465625 
0.01 1:0.27037305 2:-5.205125 
0.01 1:0.28202344 2:-4.859375 
0.01 1:0.22278516 2:-4.4724375 
0.01 1:0.22197656 2:-4.3826875 
0.01 1:0.084939453 2:-1.6044375 
0.01 1:0.14301563 2:-3.3251875 
0.01 1:0.2355625 2:-5.174625 
0.01 1:0.18877148 2:-3.6405625 
0.01 1:0.18665039 2:-4.4296875 
0.01 1:0.16311133 2:-3.194 
0.01 1:0.19458984 2:-3.3660625 
0.01 1:0.23607227 2:-3.9830625 
0.01 1:0.13747656 2:-2.793375 
0.01 1:0.23004102 2:-4.380125 
0.01 1:0.2129668 2:-4.0715 
0.01 1:0.28174219 2:-4.3183125 
0.01 1:0.16494336 2:-2.7305625 
0.01 1:0.25904102 2:-4.564 
0.01 1:0.19154492 2:-4.0826875 
0.01 1:0.13604102 2:-2.4754375 
0.01 1:0.081677734 2:-1.615 
0.01 1:0.16224609 2:-2.8259375 
0.01 1:0.183125 2:-3.060875 
0.01 1:0.25042773 2:-3.641875 
0.01 1:0.24639453 2:-3.246 
0.01 1:0.2477793 2:-3.9765 
0.01 1:0.16329102 2:-2.5095625 
0.01 1:0.21044922 2:-4.2815625 
0.01 1:0.17508789 2:-2.977125 
0.01 1:0.19902344 2:-3.5900625 
0.01 1:0.21555469 2:-4.5850625 
0.01 1:0.19360547 2:-2.5951875 
0.01 1:0.21740625 2:-4.2459375 
0.01 1:0.22976758 2:-4.4234375 
0.01 1:0.20479687 2:-4.2284375 
0.01 1:0.24851172 2:-3.62425 
0.01 1:0.18811523 2:-2.5400625 
0.01 1:0.18033008 2:-2.7246875 
0.01 1:0.17987109 2:-2.704125 
0.01 1:0.13869727 2:-2.8969375 
0.01 1:0.27031445 2:-4.449 
0.01 1:0.22599609 2:-5.2086875 
0.01 1:0.16815039 2:-3.534125 
0.01 1:0.19339453 2:-3.85825 
0.01 1:0.22541211 2:-5.2675 
0.01 1:0.20551172 2:-4.395125 
0.01 1:0.17560742 2:-3.4273125 
0.01 1:0.22531836 2:-4.4789375 
0.01 1:0.17261719 2:-3.7925 
0.01 1:0.29859766 2:-4.4423125 
0.01 1:0.30044727 2:-5.491125 
0.01 1:0.25801758 2:-4.927125 
0.01 1:0.1095 2:-2.187375 
0.01 1:0.37413281 2:-4.75325 
0.01 1:0.18300781 2:-3.7339375 
0.01 1:0.26474805 2:-5.0976875 
0.01 1:0.36801953 2:-6.04 
0.01 1:0.22574414 2:-3.9910625 
0.01 1:0.19644141 2:-2.87675 
0.01 1:0.23780469 2:-3.697 
0.01 1:0.21116992 2:-3.813625 
0.01 1:0.19385938 2:-3.8018125 
0.01 1:0.16942969 2:-3.3154375 
0.01 1:0.19669336 2:-2.1111875 
0.01 1:0.17951758 2:-3.3945 
0.01 1:0.14570898 2:-2.8419375 
0.01 1:0.18873633 2:-3.803375 
0.01 1:0.16580273 2:-3.4043125 
0.01 1:0.16618555 2:-3.896125 
0.01 1:0.18714648 2:-3.6420625 
0.01 1:0.30857031 2:-6.0686875 
0.01 1:0.35262109 2:-3.0621875 
0.01 1:0.2990332 2:-2.155 
0.01 1:0.21947852 2:-3.2145625 
0.01 1:0.18412891 2:-3.661625 
0.01 1:0.14607617 2:-3.1498125 
0.01 1:0.259125 2:-3.7574375 
0.01 1:0.14900391 2:-2.8193125 
0.01 1:0.16991992 2:-2.7774375 
0.01 1:0.17307031 2:-2.9628125 
0.01 1:0.33515234 2:-4.7294375 
0.01 1:0.12900781 2:-1.6446875 
0.01 1:0.16150195 2:-3.2275625 
0.01 1:0.16266602 2:-3.3941875 
0.01 1:0.23999414 2:-4.667625 
0.01 1:0.19480664 2:-3.9958125 
0.01 1:0.14025977 2:-2.854375 
0.01 1:0.17849023 2:-3.7330625 
0.01 1:0.17280664 2:-3.4984375 
0.01 1:0.18266797 2:-3.69325 
0.01 1:0.26742578 2:-5.334625 
0.01 1:0.15070703 2:-3.2255625 
0.01 1:0.13358008 2:-2.647875 
0.01 1:0.22313086 2:-4.4901875 
0.01 1:0.14836328 2:-3.05775 
0.01 1:0.14083984 2:-2.9261875 
0.01 1:0.18877344 2:-3.624875 
0.01 1:0.085773437 2:-1.749625 
0.01 1:0.19626367 2:-2.565125 
0.01 1:0.20026953 2:-3.1505 
0.01 1:0.1352793 2:-2.868875 
0.01 1:0.22264258 2:-4.520375 
0.01 1:0.22276758 2:-4.9826875 
0.01 1:0.2627793 2:-5.64825 
0.01 1:0.19945117 2:-3.270625 
0.01 1:0.15094531 2:-2.6941875 
0.01 1:0.27686719 2:-4.9846875 
0.01 1:0.13232227 2:-1.697 
0.01 1:0.27602539 2:-4.73425 
0.01 1:0.30164258 2:-5.5191875 
0.01 1:0.2019043 2:-4.556625 
0.01 1:0.19197266 2:-3.4304375 
0.01 1:0.18352148 2:-2.7554375 
0.01 1:0.16740625 2:-2.5234375 
0.01 1:0.2949082 2:-5.2358125 
0.01 1:0.18071289 2:-3.5975 
0.01 1:0.25075391 2:-3.267625 
0.01 1:0.12766797 2:-2.7193125 
0.01 1:0.27480078 2:-3.3963125 
0.01 1:0.16439453 2:-3.093875 
0.01 1:0.3175 2:-5.6600625 
0.01 1:0.23346289 2:-4.9045 
0.01 1:0.27125781 2:-5.2478125 
0.01 1:0.15566992 2:-2.544 
0.01 1:0.17372461 2:-3.02175 
0.01 1:0.10651563 2:-2.3258125 
0.01 1:0.087923828 2:-1.8408125 
0.01 1:0.25678906 2:-4.986875 
0.01 1:0.24727539 2:-4.8033125 
0.01 1:0.30724805 2:-5.9245625 
0.01 1:0.14311133 2:-0.8130625 
0.01 1:0.19722656 2:-4.386625 
0.01 1:0.27801367 2:-5.795875 
0.01 1:0.25861523 2:-4.216625 
0.01 1:0.27027148 2:-4.435875 
0.01 1:0.21971289 2:-3.4724375 
0.01 1:0.24987695 2:-4.2678125 
0.01 1:0.2629043 2:-3.59625 
0.01 1:0.30438281 2:-3.43725 
0.01 1:0.2158125 2:-3.4626875 
0.01 1:0.14850586 2:-2.4153125 
0.01 1:0.11264453 2:-1.797 
0.01 1:0.22129492 2:-3.366625 
0.01 1:0.21791797 2:-3.83625 
0.01 1:0.25853711 2:-4.3913125 
0.01 1:0.29499023 2:-2.921 
0.01 1:0.1077793 2:-2.3355 
0.01 1:0.097115234 2:-2.1411875 
0.01 1:0.16381055 2:-3.1893125 
0.01 1:0.16629297 2:-3.0365625 
0.01 1:0.22960742 2:-4.8444375 
0.01 1:0.20033008 2:-3.8315 
0.01 1:0.11080273 2:-1.3539375 
0.01 1:0.34873828 2:-5.89075 
0.01 1:0.16670117 2:-3.921 
0.01 1:0.28290039 2:-3.3270625 
0.01 1:0.23804687 2:-3.332625 
0.01 1:0.23100195 2:-2.6498125 
0.01 1:0.2375957 2:-3.8353125 
0.01 1:0.25237305 2:-4.612875 
0.01 1:0.17263867 2:-3.1596875 
0.01 1:0.10031641 2:-2.1820625 
0.01 1:0.11855664 2:-2.1941875 
0.01 1:0.1807832 2:-4.0069375 
0.01 1:0.13761328 2:-3.332875 
0.01 1:0.27041016 2:-4.537625 
0.01 1:0.25979492 2:-4.2139375 
0.01 1:0.18796484 2:-3.4426875 
0.01 1:0.19033594 2:-3.621 
0.01 1:0.20601758 2:-4.127125 
0.01 1:0.17753906 2:-2.79 
0.01 1:0.16408594 2:-2.3094375 
0.01 1:0.084816406 2:-1.8560625 
0.01 1:0.081591797 2:-1.7980625 
0.01 1:0.16565625 2:-3.267125 
0.01 1:0.26061914 2:-4.7349375 
0.01 1:0.23006445 2:-4.1926875 
0.01 1:0.31258203 2:-4.3628125 
0.01 1:0.31218945 2:-4.7634375 
0.01 1:0.21353125 2:-4.21425 
0.01 1:0.20321094 2:-4.504 
0.01 1:0.12641016 2:-2.8191875 
0.01 1:0.20644336 2:-4.13675 
0.01 1:0.23423633 2:-3.7383125 
0.01 1:0.14344727 2:-3.080375 
0.01 1:0.31641211 2:-5.467875 
0.01 1:0.19942578 2:-3.9118125 
0.01 1:0.24919336 2:-3.9710625 
0.01 1:0.1737207 2:-2.6514375 
0.01 1:0.1945957 2:-4.7073125 
0.01 1:0.17439648 2:-2.9799375 
0.01 1:0.20059961 2:-2.8238125 
0.01 1:0.17087695 2:-3.3160625 
0.01 1:0.20785547 2:-3.4725 
0.01 1:0.12346875 2:-2.673375 
0.01 1:0.1775332 2:-4.1705625 
0.01 1:0.16515234 2:-3.647125 
0.01 1:0.23612695 2:-3.9413125 
0.01 1:0.23178906 2:-3.548875 
0.01 1:0.24238281 2:-4.45375 
0.01 1:0.18704102 2:-3.7403125 
0.01 1:0.30057422 2:-5.98275 
0.01 1:0.20570898 2:-3.3461875 
0.01 1:0.18184961 2:-4.1116875 
0.01 1:0.14276953 2:-3.45125 
0.01 1:0.20420508 2:-4.030125 
0.01 1:0.22185742 2:-4.004375 
0.01 1:0.24718359 2:-3.56925 
0.01 1:0.28479102 2:-5.300125 
0.01 1:0.2156543 2:-4.505875 
0.01 1:0.21286523 2:-2.987 
0.01 1:0.34011523 2:-5.440375 
0.01 1:0.35513477 2:-5.2988125 
0.01 1:0.30508008 2:-5.212875 
0.01 1:0.15406055 2:-2.5658125 
0.01 1:0.23794336 2:-4.468375 
0.01 1:0.17019531 2:-3.575625 
0.01 1:0.19077344 2:-3.2408125 
0.01 1:0.16990234 2:-3.0521875 
0.01 1:0.24192773 2:-3.6948125 
0.01 1:0.16608594 2:-3.4151875 
0.01 1:0.23701172 2:-3.993 
0.01 1:0.2071875 2:-4.224 
0.01 1:0.29929883 2:-4.5318125 
0.01 1:0.29557227 2:-4.465 
0.01 1:0.23220703 2:-3.9996875 
0.01 1:0.17206445 2:-3.643125 
0.01 1:0.105875 2:-2.0600625 
0.01 1:0.18728125 2:-3.3040625 
0.01 1:0.23586719 2:-4.0855 
0.01 1:0.14083398 2:-2.108625 
0.01 1:0.37617578 2:-6.118875 
0.01 1:0.16383984 2:-2.9104375 
0.01 1:0.22544141 2:-4.4345625 
0.01 1:0.1859668 2:-3.8364375 
0.01 1:0.23831445 2:-5.6046875 
0.01 1:0.12451758 2:-2.9953125 
0.01 1:0.12781641 2:-3.3241875 
0.01 1:0.21462891 2:-4.4306875 
0.01 1:0.323375 2:-5.2134375 
0.01 1:0.22048047 2:-4.1625 
0.01 1:0.29099414 2:-4.63425 
0.01 1:0.28833789 2:-5.0376875 
0.01 1:0.20483008 2:-3.5805 
0.01 1:0.20837891 2:-3.922875 
0.01 1:0.20713672 2:-3.63925 
0.01 1:0.17456055 2:-2.679625 
0.01 1:0.23809375 2:-4.2235625 
0.01 1:0.24439453 2:-4.17375 
0.01 1:0.27764062 2:-4.09275 
0.01 1:0.24061133 2:-4.476625 
0.01 1:0.19609766 2:-1.8271875 
0.01 1:0.23668555 2:-3.42625 
0.01 1:0.27467578 2:-4.279375 
0.01 1:0.13169336 2:-2.097 
0.01 1:0.25162305 2:-3.468375 
0.01 1:0.18350391 2:-3.443625 
0.01 1:0.18082227 2:-3.4686875 
0.01 1:0.27303906 2:-3.137875 
0.01 1:0.18887695 2:-3.8695 
0.01 1:0.29649805 2:-4.5945 
0.01 1:0.21605664 2:-4.026625 
0.01 1:0.28834766 2:-5.5510625 
0.01 1:0.14804297 2:-2.4165625 
0.01 1:0.10482422 2:-1.7215 
0.01 1:0.12398047 2:-2.4904375 
0.01 1:0.26880469 2:-4.7704375 
0.01 1:0.23333008 2:-3.917375 
0.01 1:0.17957813 2:-3.8024375 
0.01 1:0.27879492 2:-3.8149375 
0.01 1:0.30686914 2:-4.639625 
0.01 1:0.19374805 2:-3.6446875 
0.01 1:0.29771875 2:-4.9973125 
0.01 1:0.14139258 2:-2.744625 
0.01 1:0.22242773 2:-3.79525 
0.01 1:0.2079375 2:-2.7189375 
0.01 1:0.1618457 2:-3.0893125 
0.01 1:0.37288086 2:-4.37825 
0.01 1:0.15774414 2:-2.6858125 
0.01 1:0.23880664 2:-3.9678125 
0.01 1:0.19191992 2:-3.187125 
0.01 1:0.17105469 2:-2.7609375 
0.01 1:0.17101563 2:-2.8414375 
0.01 1:0.27525195 2:-4.4076875 
0.01 1:0.12617969 2:-2.7285 
0.01 1:0.21073242 2:-3.7155625 
0.01 1:0.10108594 2:-1.3268125 
0.01 1:0.23339258 2:-3.9850625 
0.01 1:0.19941016 2:-3.5315 
0.01 1:0.16303711 2:-3.53225 
0.01 1:0.19958594 2:-3.75225 
0.01 1:0.29069922 2:-5.8220625 
0.01 1:0.17688867 2:-3.8666875 
0.01 1:0.22665625 2:-3.7025625 
0.01 1:0.21434766 2:-3.661375 
0.01 1:0.16145117 2:-2.4376875 
0.01 1:0.33588672 2:-4.1898125 
0.01 1:0.27160938 2:-4.8741875 
0.01 1:0.1927832 2:-4.0649375 
0.01 1:0.22728516 2:-4.5941875 
0.01 1:0.11111719 2:-2.2655 
0.01 1:0.25961523 2:-4.507 
0.01 1:0.13402734 2:-3.0056875 
0.01 1:0.14599023 2:-2.587 
0.01 1:0.2994082 2:-5.6973125 
0.01 1:0.20808789 2:-4.50125 
0.01 1:0.35899219 2:-4.406625 
0.01 1:0.15616992 2:-2.4105 
0.01 1:0.083884766 2:-1.3044375 
0.01 1:0.14630273 2:-2.197625 
0.01 1:0.23984961 2:-2.801125 
-0.01 1:0.21278516 2:-3.721375 
-0.01 1:0.17407813 2:-3.443375 
-0.01 1:0.14435352 2:-2.1880625 
-0.01 1:0.21798242 2:-3.359625 
-0.01 1:0.30232617 2:-5.9131875 
-0.01 1:0.25181055 2:-3.654375 
-0.01 1:0.16395313 2:-2.691875 
-0.01 1:0.19907422 2:-3.6469375 
-0.01 1:0.20053906 2:-3.7035 
-0.01 1:0.33696094 2:-4.6469375 
-0.01 1:0.17400391 2:-2.964 
-0.01 1:0.18037891 2:-3.96825 
-0.01 1:0.15353516 2:-2.9208125 
-0.01 1:0.25239062 2:-3.4129375 
-0.01 1:0.16002539 2:-2.419375 
-0.01 1:0.19739063 2:-3.8541875 
-0.01 1:0.31999023 2:-3.4375 
-0.01 1:0.21387305 2:-4.0073125 
-0.01 1:0.21604492 2:-4.5743125 
-0.01 1:0.18840039 2:-3.832625 
-0.01 1:0.24378906 2:-4.7823125 
-0.01 1:0.20749805 2:-4.2295 
-0.01 1:0.2853125 2:-5.6540625 
-0.01 1:0.10989844 2:-1.7845 
-0.01 1:0.17126758 2:-2.6516875 
-0.01 1:0.19194531 2:-3.868625 
-0.01 1:0.22577344 2:-4.980125 
-0.01 1:0.076144531 2:-1.757125 
-0.01 1:0.24505859 2:-3.2475 
-0.01 1:0.20360742 2:-3.3480625 
-0.01 1:0.24242383 2:-3.8374375 
-0.01 1:0.18260156 2:-3.7633125 
-0.01 1:0.29004102 2:-4.75775 
-0.01 1:0.21047461 2:-3.4828125 
-0.01 1:0.16456055 2:-2.7685625 
-0.01 1:0.2153418 2:-4.1908125 
-0.01 1:0.13626172 2:-2.8964375 
-0.01 1:0.18727148 2:-2.3613125 
-0.01 1:0.21219141 2:-4.848875 
-0.01 1:0.29048438 2:-2.908625 
-0.01 1:0.13382422 2:-2.432 
-0.01 1:0.2238125 2:-3.79475 
-0.01 1:0.16731445 2:-3.6010625 
-0.01 1:0.19955273 2:-3.771 
-0.01 1:0.20499219 2:-4.49775 
-0.01 1:0.23277148 2:-3.7389375 
-0.01 1:0.35638672 2:-4.4035 
-0.01 1:0.33105664 2:-4.730375 
-0.01 1:0.27249219 2:-4.408625 
-0.01 1:0.25074023 2:-3.61675 
-0.01 1:0.29718555 2:-5.8158125 
-0.01 1:0.18749414 2:-3.6476875 
-0.01 1:0.11845703 2:-2.042875 
-0.01 1:0.18641211 2:-3.39775 
-0.01 1:0.25223437 2:-3.971 
-0.01 1:0.30709375 2:-4.985375 
-0.01 1:0.33897266 2:-5.44625 
-0.01 1:0.26931836 2:-4.2143125 
-0.01 1:0.30012305 2:-4.593625 
-0.01 1:0.18683984 2:-4.0678125 
-0.01 1:0.25381836 2:-5.42575 
-0.01 1:0.16298828 2:-3.2735 
-0.01 1:0.14931836 2:-3.0621875 
-0.01 1:0.33800977 2:-5.994625 
-0.01 1:0.2080957 2:-1.8283125 
-0.01 1:0.19793945 2:-4.1524375 
-0.01 1:0.16691602 2:-3.3095625 
-0.01 1:0.18111133 2:-3.8718125 
-0.01 1:0.24747852 2:-2.792 
-0.01 1:0.24210937 2:-3.6994375 
-0.01 1:0.24912695 2:-4.228375 
-0.01 1:0.14078516 2:-2.9080625 
-0.01 1:0.18858594 2:-4.2381875 
-0.01 1:0.27693164 2:-3.3294375 
-0.01 1:0.22852344 2:-2.6631875 
-0.01 1:0.27819727 2:-3.7015 
-0.01 1:0.2056543 2:-2.8788125 
-0.01 1:0.12416602 2:-2.0903125 
-0.01 1:0.11805469 2:-2.27 
-0.01 1:0.16533203 2:-3.7995 
-0.01 1:0.2734082 2:-5.0863125 
-0.01 1:0.23810742 2:-3.604625 
-0.01 1:0.28788477 2:-4.9349375 
-0.01 1:0.22198633 2:-4.4669375 
-0.01 1:0.1925 2:-3.0773125 
-0.01 1:0.2777793 2:-5.2920625 
-0.01 1:0.16781836 2:-3.0938125 
-0.01 1:0.15789453 2:-2.7088125 
-0.01 1:0.18064844 2:-2.9850625 
-0.01 1:0.18732031 2:-3.1871875 
-0.01 1:0.2555332 2:-4.80425 
-0.01 1:0.10816211 2:-1.3498125 
-0.01 1:0.18949023 2:-2.7203125 
-0.01 1:0.23582422 2:-4.853875 
-0.01 1:0.20805078 2:-3.4991875 
-0.01 1:0.18129297 2:-3.7985625 
-0.01 1:0.18807031 2:-4.1786875 
-0.01 1:0.22788086 2:-4.53975 
-0.01 1:0.20545117 2:-3.250625 
-0.01 1:0.3327168 2:-4.190125 
-0.01 1:0.21664258 2:-3.8098125 
-0.01 1:0.23866406 2:-4.9033125 
-0.01 1:0.21465625 2:-3.1859375 
-0.01 1:0.21409375 2:-4.2804375 
-0.01 1:0.1603125 2:-3.0386875 
-0.01 1:0.16031641 2:-3.5353125 
-0.01 1:0.18250586 2:-3.7494375 
-0.01 1:0.2016543 2:-3.640125 
-0.01 1:0.2945 2:-4.27725 
-0.01 1:0.23864648 2:-4.581875 
-0.01 1:0.15466797 2:-3.45675 
-0.01 1:0.15566016 2:-2.349875 
-0.01 1:0.20560742 2:-3.632625 
-0.01 1:0.2175918 2:-2.9788125 
-0.01 1:0.14101758 2:-2.5933125 
-0.01 1:0.25853125 2:-4.44175 
-0.01 1:0.20959766 2:-3.6588125 
-0.01 1:0.12414258 2:-2.3363125 
-0.01 1:0.36931641 2:-4.372125 
-0.01 1:0.31426953 2:-4.364125 
-0.01 1:0.13442383 2:-3.32075 
-0.01 1:0.19308398 2:-3.168875 
-0.01 1:0.17063867 2:-3.44675 
-0.01 1:0.27930078 2:-5.494625 
-0.01 1:0.18490625 2:-4.305 
-0.01 1:0.1494082 2:-2.75125 
-0.01 1:0.24836328 2:-4.981375 
-0.01 1:0.18258203 2:-3.4679375 
-0.01 1:0.232125 2:-4.18675 
-0.01 1:0.2052832 2:-4.142 
-0.01 1:0.22949023 2:-4.5896875 
-0.01 1:0.24530469 2:-4.861 
-0.01 1:0.33180273 2:-4.425125 
-0.01 1:0.17717383 2:-3.5808125 
-0.01 1:0.16033594 2:-3.4038125 
-0.01 1:0.20562109 2:-4.42025 
-0.01 1:0.19023633 2:-2.2865 
-0.01 1:0.14889258 2:-2.6009375 
-0.01 1:0.23314844 2:-3.966125 
-0.01 1:0.27866992 2:-3.1021875 
-0.01 1:0.2107832 2:-4.512875 
-0.01 1:0.35916992 2:-5.396 
-0.01 1:0.17447852 2:-3.6551875 
-0.01 1:0.1608125 2:-3.3086875 
-0.01 1:0.15878711 2:-2.5393125 
-0.01 1:0.22523437 2:-4.4809375 
-0.01 1:0.17116602 2:-2.7844375 
-0.01 1:0.17523047 2:-3.4878125 
-0.01 1:0.1065625 2:-1.722625 
-0.01 1:0.1815332 2:-3.7371875 
-0.01 1:0.19408398 2:-3.2364375 
-0.01 1:0.28736133 2:-3.1313125 
-0.01 1:0.15868945 2:-3.581875 
-0.01 1:0.2078125 2:-4.278 
-0.01 1:0.20375781 2:-3.5795625 
-0.01 1:0.14821484 2:-2.779125 
-0.01 1:0.26252539 2:-4.9896875 
-0.01 1:0.21583203 2:-3.4614375 
-0.01 1:0.25287305 2:-4.3624375 
-0.01 1:0.2037168 2:-4.164625 
-0.01 1:0.20374805 2:-4.2816875 
-0.01 1:0.32047656 2:-5.663 
-0.01 1:0.16884961 2:-3.4281875 
-0.01 1:0.21582617 2:-4.73525 
-0.01 1:0.25010547 2:-4.1759375 
-0.01 1:0.15181445 2:-2.9251875 
-0.01 1:0.1800625 2:-2.518875 
-0.01 1:0.12288477 2:-2.757375 
-0.01 1:0.19742187 2:-4.047875 
-0.01 1:0.26200195 2:-4.2871875 
-0.01 1:0.17265039 2:-3.02575 
-0.01 1:0.28633789 2:-3.591 
-0.01 1:0.38706445 2:-4.7500625 
-0.01 1:0.16594141 2:-2.926125 
-0.01 1:0.14010547 2:-2.987875 
-0.01 1:0.22709961 2:-3.6794375 
-0.01 1:0.12164258 2:-2.7250625 
-0.01 1:0.27122852 2:-3.7273125 
-0.01 1:0.081978516 2:-1.5713125 
-0.01 1:0.098121094 2:-1.977625 
-0.01 1:0.28400586 2:-4.984125 
-0.01 1:0.22320313 2:-2.806375 
-0.01 1:0.17952539 2:-2.6530625 
-0.01 1:0.1933457 2:-2.478125 
-0.01 1:0.19559961 2:-2.8805625 
-0.01 1:0.24451562 2:-2.5500625 
-0.01 1:0.29096289 2:-5.5216875 
-0.01 1:0.1796543 2:-4.172875 
-0.01 1:0.22712305 2:-3.956625 
-0.01 1:0.18027344 2:-3.6921875 
-0.01 1:0.28977539 2:-5.54325 
-0.01 1:0.26604883 2:-5.25375 
-0.01 1:0.23177344 2:-4.517375 
-0.01 1:0.20894531 2:-4.481875 
-0.01 1:0.18485742 2:-3.0564375 
-0.01 1:0.2566875 2:-3.594875 
-0.01 1:0.2479082 2:-4.1050625 
-0.01 1:0.2063125 2:-3.6064375 
-0.01 1:0.24185742 2:-3.9803125 
-0.01 1:0.23379883 2:-4.032375 
-0.01 1:0.16446875 2:-3.5409375 
-0.01 1:0.19434375 2:-2.10675 
-0.01 1:0.17863086 2:-3.4599375 
-0.01 1:0.16398828 2:-2.6860625 
-0.01 1:0.40190625 2:-5.91075 
-0.01 1:0.19449023 2:-2.5605 
-0.01 1:0.20332227 2:-4.2685625 
-0.01 1:0.19281836 2:-3.81475 
-0.01 1:0.31609375 2:-4.556375 
-0.01 1:0.21429492 2:-4.0885625 
-0.01 1:0.22223242 2:-3.4744375 
-0.01 1:0.15913672 2:-2.57275 
-0.01 1:0.19649805 2:-4.149 
-0.01 1:0.15563281 2:-3.469125 
-0.01 1:0.3770293 2:-6.11475 
-0.01 1:0.25274414 2:-3.2659375 
-0.01 1:0.284875 2:-5.496625 
-0.01 1:0.3000918 2:-3.7284375 
-0.01 1:0.1425293 2:-2.8435 
-0.01 1:0.15659961 2:-3.070875 
-0.01 1:0.13434375 2:-2.3210625 
-0.01 1:0.14253711 2:-2.94925 
-0.01 1:0.096986328 2:-2.1764375 
-0.01 1:0.23304492 2:-3.69675 
-0.01 1:0.31504492 2:-5.0301875 
-0.01 1:0.23607227 2:-3.982375 
-0.01 1:0.28314844 2:-4.734 
-0.01 1:0.18136328 2:-3.9119375 
-0.01 1:0.20919336 2:-4.7135625 
-0.01 1:0.10430078 2:-1.799125 
-0.01 1:0.27893359 2:-4.1188125 
-0.01 1:0.20184766 2:-3.3630625 
-0.01 1:0.32619922 2:-5.0000625 
-0.01 1:0.23712891 2:-4.3549375 
-0.01 1:0.28028516 2:-4.858875 
-0.01 1:0.17914844 2:-3.2561875 
-0.01 1:0.38280273 2:-4.365125 
-0.01 1:0.23249414 2:-3.9426875 
-0.01 1:0.18673828 2:-3.8420625 
-0.01 1:0.17253516 2:-3.41425 
-0.01 1:0.17176563 2:-3.2689375 
-0.01 1:0.20479688 2:-3.65725 
-0.01 1:0.2179043 2:-4.7313125 
-0.01 1:0.15919531 2:-3.2850625 
-0.01 1:0.23039844 2:-3.1139375 
-0.01 1:0.27233203 2:-4.8715625 
-0.01 1:0.25605469 2:-4.37625 
-0.01 1:0.27134375 2:-5.155875 
-0.01 1:0.20912305 2:-3.4735625 
-0.01 1:0.20374609 2:-3.9115625 
-0.01 1:0.16792383 2:-3.11075 
-0.01 1:0.25415039 2:-4.566625 
-0.01 1:0.29427539 2:-5.2129375 
-0.01 1:0.24218555 2:-4.0425625 
-0.01 1:0.30161523 2:-4.6424375 
-0.01 1:0.17070703 2:-2.7125625 
-0.01 1:0.21530078 2:-4.203625 
-0.01 1:0.19073438 2:-4.4073125 
-0.01 1:0.4188418 2:-5.466875 
-0.01 1:0.13750977 2:-3.2733125 
-0.01 1:0.13548828 2:-3.4148125 
-0.01 1:0.21832617 2:-3.3679375 
-0.01 1:0.30743164 2:-2.150375 
-0.01 1:0.22749609 2:-2.9654375 
-0.01 1:0.19732812 2:-3.4299375 
-0.01 1:0.12792188 2:-2.72125 
-0.01 1:0.23895898 2:-3.72025 
-0.01 1:0.14011523 2:-2.8700625 
-0.01 1:0.15526172 2:-2.0664375 
-0.01 1:0.21886133 2:-4.429125 
-0.01 1:0.23286914 2:-5.2669375 
-0.01 1:0.19187109 2:-2.8835625 
-0.01 1:0.12996289 2:-2.3450625 
-0.01 1:0.31765234 2:-5.4841875 
-0.01 1:0.26412695 2:-4.2101875 
-0.01 1:0.26533594 2:-4.871 
-0.01 1:0.19133594 2:-3.9938125 
-0.01 1:0.169 2:-3.4413125 
-0.01 1:0.27365625 2:-5.3413125 
-0.01 1:0.16032422 2:-3.1524375 
-0.01 1:0.16845703 2:-3.3035 
-0.01 1:0.20620898 2:-3.808125 
-0.01 1:0.36168359 2:-5.30275 
-0.01 1:0.10405664 2:-2.366625 
-0.01 1:0.14595117 2:-3.081875 
-0.01 1:0.21219141 2:-4.072125 
-0.01 1:0.2372207 2:-4.8894375 
-0.01 1:0.20357617 2:-2.9443125 
-0.01 1:0.13369531 2:-2.6811875 
-0.01 1:0.1082207 2:-2.2316875 
-0.01 1:0.2639082 2:-5.1389375 
-0.01 1:0.23383398 2:-2.8864375 
-0.01 1:0.18030859 2:-2.8774375 
-0.01 1:0.17117969 2:-2.7189375 
-0.01 1:0.18048438 2:-3.661 
-0.01 1:0.15511914 2:-3.6179375 
-0.01 1:0.15378711 2:-2.6814375 
-0.01 1:0.17545312 2:-3.936625 
-0.01 1:0.24389258 2:-4.6166875 
-0.01 1:0.21655469 2:-4.2428125 
-0.01 1:0.19180859 2:-3.9403125 
-0.01 1:0.17616797 2:-3.5999375 
-0.01 1:0.28030664 2:-4.3249375 
-0.01 1:0.17536328 2:-2.5829375 
-0.01 1:0.17499414 2:-3.1650625 
-0.01 1:0.23461328 2:-5.1766875 
-0.01 1:0.13873633 2:-2.1679375 
-0.01 1:0.25655273 2:-4.507 
-0.01 1:0.21199805 2:-3.9019375 
-0.01 1:0.29039062 2:-4.55775 
-0.01 1:0.24138477 2:-4.280625 
-0.01 1:0.18686914 2:-3.620375 
-0.01 1:0.19193555 2:-3.7229375 
-0.01 1:0.14555078 2:-2.8571875 
-0.01 1:0.241125 2:-4.6085 
-0.01 1:0.20121484 2:-2.59925 
-0.01 1:0.20151562 2:-4.401 
-0.01 1:0.2464082 2:-3.9310625 
-0.01 1:0.19515234 2:-3.8171875 
-0.01 1:0.18289453 2:-3.3156875 
-0.01 1:0.23888281 2:-5.203 
-0.01 1:0.32116211 2:-5.215 
-0.01 1:0.129375 2:-2.6505625 
-0.01 1:0.32398437 2:-5.519 
-0.01 1:0.22859766 2:-4.4310625 
-0.01 1:0.23117969 2:-3.998875 
-0.01 1:0.16532031 2:-2.6339375 
-0.01 1:0.24407227 2:-4.229 
-0.01 1:0.31517969 2:-4.672375 
-0.01 1:0.097283203 2:-2.3428125 
-0.01 1:0.11671875 2:-2.3286875 
-0.01 1:0.088455078 2:-2.1455 
-0.01 1:0.20068359 2:-3.530625 
-0.01 1:0.2605957 2:-4.3708125 
-0.01 1:0.24149023 2:-4.4803125 
-0.01 1:0.17056445 2:-2.7794375 
-0.01 1:0.17751758 2:-3.8049375 
-0.01 1:0.16266602 2:-3.922375 
-0.01 1:0.28550391 2:-5.3475 
-0.01 1:0.13290039 2:-2.3090625 
-0.01 1:0.17236133 2:-3.4455 
-0.01 1:0.24387891 2:-4.462125 
-0.01 1:0.19264258 2:-2.876 
-0.01 1:0.21206641 2:-3.21275 
-0.01 1:0.2067793 2:-2.8316875 
-0.01 1:0.29553906 2:-3.6444375 
-0.01 1:0.24403516 2:-3.33375 
-0.01 1:0.22776953 2:-3.9111875 
-0.01 1:0.161875 2:-1.8429375 
-0.01 1:0.16502344 2:-2.9746875 
-0.01 1:0.27081641 2:-5.5245 
-0.01 1:0.18700195 2:-3.6405 
-0.01 1:0.31305664 2:-5.7598125 
-0.01 1:0.28873242 2:-5.3585625 
-0.01 1:0.21372266 2:-3.2156875 
-0.01 1:0.18944141 2:-3.60075 
-0.01 1:0.29419531 2:-5.00075 
-0.01 1:0.17538867 2:-4.007875 
-0.01 1:0.15916406 2:-3.2581875 
-0.01 1:0.16750391 2:-2.8849375 
-0.01 1:0.13850586 2:-3.0759375 
-0.01 1:0.23691406 2:-3.568375 
-0.01 1:0.20377734 2:-3.9136875 
-0.01 1:0.17215039 2:-3.63775 
-0.01 1:0.17035938 2:-3.4815 
-0.01 1:0.23025 2:-4.340625 
-0.01 1:0.18216992 2:-2.539625 
-0.01 1:0.16165234 2:-2.727625 
-0.01 1:0.14875 2:-3.2656875 
-0.01 1:0.14513867 2:-3.324375 
-0.01 1:0.14148828 2:-3.1513125 
-0.01 1:0.29453516 2:-5.3086875 
-0.01 1:0.24917187 2:-4.7546875 
-0.01 1:0.19398438 2:-4.392625 
-0.01 1:0.22323828 2:-4.847625 
-0.01 1:0.21411133 2:-4.511625 
-0.01 1:0.26988086 2:-3.72675 
-0.01 1:0.29255078 2:-4.3645 
-0.01 1:0.29992578 2:-5.9721875 
-0.01 1:0.22043555 2:-4.38875 
-0.01 1:0.18387891 2:-3.7400625 
-0.01 1:0.089160156 2:-1.664875 
-0.01 1:0.25989063 2:-4.4441875 
-0.01 1:0.16387695 2:-3.2295625 
-0.01 1:0.34525391 2:-5.8870625 
-0.01 1:0.22655664 2:-4.522125 
-0.01 1:0.21517578 2:-4.135625 
-0.01 1:0.15414062 2:-2.2021875 
-0.01 1:0.23373633 2:-3.3294375 
-0.01 1:0.16830664 2:-4.0475 
-0.01 1:0.19770117 2:-3.8305625 
-0.01 1:0.24498437 2:-4.217875 
-0.01 1:0.22464063 2:-4.6425 
-0.01 1:0.24220117 2:-5.2620625 
-0.01 1:0.27808203 2:-4.4469375 
-0.01 1:0.17201758 2:-2.700875 
-0.01 1:0.26174219 2:-3.757875 
-0.01 1:0.17325781 2:-3.0504375 
-0.01 1:0.22158984 2:-3.21225 
-0.01 1:0.24902539 2:-4.4651875 
-0.01 1:0.15226758 2:-2.5156875 
-0.01 1:0.20316992 2:-3.5863125 
-0.01 1:0.30969531 2:-4.8235625 
-0.01 1:0.26612695 2:-4.95275 
-0.01 1:0.15475781 2:-3.454125 
-0.01 1:0.21661914 2:-2.7246875 
-0.01 1:0.20834961 2:-4.2320625 
-0.01 1:0.22170898 2:-2.994125 
-0.01 1:0.17422266 2:-3.7083125 
-0.01 1:0.2777832 2:-4.090375 
-0.01 1:0.18333789 2:-2.972125 
-0.01 1:0.30285937 2:-5.6975625 
-0.01 1:0.18769531 2:-4.1099375 
-0.01 1:0.25886914 2:-4.3923125 
-0.01 1:0.16499414 2:-3.35325 
-0.01 1:0.088638672 2:-1.6873125 
-0.01 1:0.27590625 2:-3.695875 
-0.01 1:0.23031836 2:-4.3780625 
-0.01 1:0.21083008 2:-3.9205 
-0.01 1:0.11510742 2:-2.670625 
-0.01 1:0.22267578 2:-4.330875 
-0.01 1:0.16150391 2:-2.4311875 
-0.01 1:0.18501172 2:-2.7576875 
-0.01 1:0.13742773 2:-2.704375 
-0.01 1:0.1179043 2:-2.1775 
-0.01 1:0.10350391 2:-2.0674375 
-0.01 1:0.30321094 2:-5.1368125 
-0.01 1:0.19625977 2:-3.6430625 
-0.01 1:0.14010547 2:-3.013375 
-0.01 1:0.28025586 2:-5.4515 
-0.01 1:0.23776758 2:-4.6514375 
-0.01 1:0.18161914 2:-3.980125 
-0.01 1:0.095677734 2:-1.830875 
-0.01 1:0.1895625 2:-3.3044375 
-0.01 1:0.23567187 2:-4.2323125 
-0.01 1:0.21744336 2:-4.209875 
-0.01 1:0.20717578 2:-4.2123125 
-0.01 1:0.21999219 2:-4.3706875 
-0.01 1:0.28263867 2:-4.5860625 
-0.01 1:0.34316211 2:-5.11375 
-0.01 1:0.17917773 2:-3.852375 
-0.01 1:0.25603906 2:-5.0956875 
-0.01 1:0.19753125 2:-3.98325 
-0.01 1:0.16489453 2:-3.8350625 
-0.01 1:0.14642578 2:-1.6275625 
-0.01 1:0.15937305 2:-3.3386875 
-0.01 1:0.21723047 2:-2.405125 
-0.01 1:0.096371094 2:-1.652375 
-0.01 1:0.1371543 2:-3.1536875 
-0.01 1:0.16753516 2:-3.496375 
-0.01 1:0.15762891 2:-2.296 
-0.01 1:0.4128457 2:-5.946 
-0.01 1:0.20357812 2:-4.131875 
-0.01 1:0.26353125 2:-5.2593125 
-0.01 1:0.14464258 2:-3.03075 
-0.01 1:0.25404492 2:-4.9859375 
-0.01 1:0.22598828 2:-4.0158125 
-0.01 1:0.22181641 2:-4.1625625 
-0.01 1:0.14654883 2:-2.5340625 
-0.01 1:0.13772852 2:-3.0235 
-0.01 1:0.2871582 2:-5.202125 
-0.01 1:0.21166602 2:-4.4863125 
-0.01 1:0.29303711 2:-5.9831875 
-0.01 1:0.23545313 2:-3.917125 
-0.01 1:0.19636914 2:-3.620125 
-0.01 1:0.24166016 2:-3.9934375 
-0.01 1:0.23671484 2:-4.6655625 
-0.01 1:0.28070703 2:-3.386625 
-0.01 1:0.16075195 2:-3.208625 
-0.01 1:0.2569082 2:-4.61875 
-0.01 1:0.19066406 2:-3.7959375 
-0.01 1:0.29013086 2:-5.3005625 
-0.01 1:0.35910352 2:-6.03025 
-0.01 1:0.29341211 2:-5.0375625 
-0.01 1:0.18674414 2:-3.1843125 
-0.01 1:0.24120508 2:-4.85975 
-0.01 1:0.25745312 2:-3.471875 
-0.01 1:0.17507617 2:-3.894 
-0.01 1:0.10382617 2:-1.89325 
-0.01 1:0.14239648 2:-2.7166875 
-0.01 1:0.076787109 2:-1.723625 
-0.01 1:0.20489258 2:-4.5708125 
-0.01 1:0.090884766 2:-1.8548125 
-0.01 1:0.23801953 2:-3.8355625 
-0.01 1:0.28567383 2:-3.5205 
-0.01 1:0.20969922 2:-4.5064375 
-0.01 1:0.24060352 2:-4.693 
-0.01 1:0.14902148 2:-2.405 
-0.01 1:0.2657168 2:-4.5379375 
-0.01 1:0.2394375 2:-4.736625 
-0.01 1:0.31440039 2:-5.4684375 
-0.01 1:0.22444141 2:-3.7030625 
-0.01 1:0.1712168 2:-3.1375625 
-0.01 1:0.27663672 2:-4.79175 
-0.01 1:0.24443945 2:-3.6415 
-0.01 1:0.27729492 2:-5.7964375 
-0.01 1:0.16492383 2:-2.9089375 
-0.01 1:0.12178906 2:-2.817 
-0.01 1:0.2707832 2:-5.3389375 
-0.01 1:0.36907422 2:-4.377875 
-0.01 1:0.20975977 2:-3.153625 
-0.01 1:0.22673242 2:-4.5121875 
-0.01 1:0.13432812 2:-2.488 
-0.01 1:0.093445313 2:-1.990875 
-0.01 1:0.22072852 2:-3.839 
-0.01 1:0.25908398 2:-4.4743125 
-0.01 1:0.25019141 2:-3.5898125 
-0.01 1:0.26362891 2:-5.6733125 
-0.01 1:0.21373242 2:-4.1996875 
-0.01 1:0.22853516 2:-4.3628125 
-0.01 1:0.2614707 2:-4.7341875 
-0.01 1:0.286375 2:-4.498375 
-0.01 1:0.10383789 2:-1.3301875 
-0.01 1:0.15835352 2:-3.1899375 
-0.01 1:0.20973633 2:-4.038875 
-0.01 1:0.16216797 2:-3.3156875 
-0.01 1:0.15704297 2:-2.8084375 
-0.01 1:0.11204297 2:-2.446125 
-0.01 1:0.16414062 2:-2.75425 
-0.01 1:0.22877148 2:-3.5505625 
-0.01 1:0.22382227 2:-3.1024375 
-0.01 1:0.28974219 2:-4.1793125 
-0.01 1:0.19646289 2:-3.268625 
-0.01 1:0.23612891 2:-4.33225 
-0.01 1:0.23024805 2:-4.4745 
-0.01 1:0.19514063 2:-3.7558125 
-0.01 1:0.30120898 2:-4.5260625 
-0.01 1:0.21691016 2:-3.847 
-0.01 1:0.20672852 2:-4.349125 
-0.01 1:0.13848047 2:-2.4273125 
-0.01 1:0.28149414 2:-4.88575 
-0.01 1:0.17175391 2:-2.844375 
-0.01 1:0.2635918 2:-5.0038125 
-0.01 1:0.26008984 2:-4.427875 
-0.01 1:0.15477344 2:-3.1905625 
-0.01 1:0.20798828 2:-4.5903125 
-0.01 1:0.20953125 2:-2.31975 
-0.01 1:0.2029707 2:-4.5528125 
-0.01 1:0.22532617 2:-3.8934375 
-0.01 1:0.2628418 2:-2.9529375 
-0.01 1:0.19954297 2:-4.1919375 
-0.01 1:0.16672461 2:-3.398875 
-0.01 1:0.29275781 2:-4.2250625 
-0.01 1:0.16261914 2:-3.700375 
-0.01 1:0.23851953 2:-4.312625 
-0.01 1:0.25657617 2:-4.3558125 
-0.01 1:0.29399805 2:-3.1081875 
-0.01 1:0.17409766 2:-3.4580625 
-0.01 1:0.18329492 2:-3.2108125 
-0.01 1:0.21133984 2:-4.653 
-0.01 1:0.29107422 2:-4.6368125 
-0.01 1:0.29775781 2:-4.6875 
-0.01 1:0.25487305 2:-4.266625 
-0.01 1:0.20561914 2:-2.3905625 
-0.01 1:0.16208008 2:-2.296625 
-0.01 1:0.2517832 2:-5.5881875 
-0.01 1:0.21031055 2:-4.0326875 
-0.01 1:0.22137305 2:-4.4660625 
-0.01 1:0.14626172 2:-2.79875 
-0.01 1:0.3464043 2:-3.0483125 
-0.01 1:0.24013281 2:-3.9851875 
-0.01 1:0.22660742 2:-3.98925 
-0.01 1:0.21201367 2:-2.6100625 
-0.01 1:0.23898828 2:-4.7155 
-0.01 1:0.28746484 2:-4.5245625 
-0.01 1:0.18031055 2:-3.44725 
-0.01 1:0.23816602 2:-3.424875 
-0.01 1:0.22977344 2:-4.459 
-0.01 1:0.23580859 2:-4.9935 
-0.01 1:0.28633789 2:-6.1458125 
-0.01 1:0.15392383 2:-3.092 
-0.01 1:0.17847266 2:-3.3421875 
-0.01 1:0.099566406 2:-2.39075 
-0.01 1:0.22520898 2:-3.5239375 
-0.01 1:0.13449609 2:-0.8108125 
-0.01 1:0.10416406 2:-1.4846875 
-0.009956404481525077 1:0.41069727 2:-6.33175 
-0.01 1:0.1526582 2:-3.2295625 
-0.01 1:0.32796484 2:-5.77075 
-0.01 1:0.19756445 2:-4.0320625 
-0.01 1:0.30280078 2:-5.24075 
-0.01 1:0.20046875 2:-2.5005 
-0.01 1:0.19175 2:-3.8348125 
-0.01 1:0.23642187 2:-4.082625 
-0.01 1:0.26298828 2:-4.5124375 
-0.01 1:0.090445312 2:-1.3025 
-0.01 1:0.33158594 2:-4.5533125 
-0.01 1:0.14244141 2:-2.752 
-0.01 1:0.2612793 2:-4.6709375 
-0.01 1:0.26773242 2:-4.181625 
-0.01 1:0.16492187 2:-3.25625 
-0.01 1:0.27708008 2:-3.813875 
-0.01 1:0.31304102 2:-5.107625 
-0.01 1:0.13181055 2:-2.4746875 
-0.01 1:0.21803125 2:-4.6393125 
-0.01 1:0.28335937 2:-5.64725 
-0.01 1:0.12404102 2:-1.078 
-0.01 1:0.17652344 2:-2.8240625 
-0.01 1:0.26446094 2:-4.773 
-0.01 1:0.25939062 2:-4.4408125 
-0.01 1:0.15851562 2:-3.6440625 
-0.01 1:0.28924414 2:-6.0709375 
-0.01 1:0.18808789 2:-3.8718125 
-0.01 1:0.27551563 2:-4.810875 
-0.01 1:0.3272793 2:-5.0328125 
-0.01 1:0.2065918 2:-3.79375 
-0.01 1:0.33329102 2:-5.1855625 
-0.01 1:0.3381582 2:-5.9806875 
-0.01 1:0.11418945 2:-0.9640625 
-0.01 1:0.18275195 2:-3.747 
-4.35955184749223e-05 1:0.068048828 2:-0.315 
-0.01 1:0.23742969 2:-4.69325 
-0.01 1:0.31582422 2:-4.7633125 
-0.01 1:0.22955859 2:-3.2878125 
-0.01 1:0.27423047 2:-5.4185625 
-0.01 1:0.19181836 2:-4.0843125 
-0.01 1:0.12005273 2:-2.1151875 
-0.01 1:0.17512305 2:-3.1599375 
-0.01 1:0.14437891 2:-2.991375 
-0.01 1:0.12719922 2:-1.6950625 
-0.01 1:0.23970312 2:-3.829 
-0.01 1:0.41373437 2:-5.745875 
-0.01 1:0.20958594 2:-4.371625 
-0.01 1:0.17983789 2:-2.21075 
-0.01 1:0.16957227 2:-3.7373125 
-0.01 1:0.17953711 2:-3.50825 
-0.01 1:0.13609375 2:-2.8210625 
-0.01 1:0.19645117 2:-3.3471875 
-0.01 1:0.1367168 2:-2.7264375 
-0.01 1:0.25860352 2:-4.259625 
-0.01 1:0.18862109 2:-3.5570625 
-0.01 1:0.15863672 2:-3.6760625 
-0.01 1:0.29158789 2:-5.2996875 
-0.01 1:0.41186133 2:-5.304625 
-0.01 1:0.21062695 2:-4.137 
-0.01 1:0.33241016 2:-4.583 
-0.01 1:0.16768555 2:-3.1911875 
-0.01 1:0.28086523 2:-5.5986875 
-0.01 1:0.35510156 2:-5.9024375 
-0.01 1:0.29617187 2:-4.460625 
-0.01 1:0.27696484 2:-4.2766875 
-0.01 1:0.13396289 2:-2.110125 
-0.01 1:0.15110547 2:-2.586875 
-0.01 1:0.23441406 2:-3.7499375 
-0.01 1:0.20039648 2:-3.85675 
-0.01 1:0.27465625 2:-4.9960625 
-0.01 1:0.29265039 2:-4.442625 
-0.01 1:0.24613477 2:-3.1555 
-0.01 1:0.25596094 2:-4.934375 
-0.01 1:0.20195117 2:-3.5916875 
-0.01 1:0.14553125 2:-1.92825 
-0.01 1:0.18012109 2:-3.3941875 
-0.01 1:0.23288086 2:-4.4238125 
